{"version":2,"classes":[1,2,3,4,5,6,7,8,9],"input":[1,16,16],"normalization":"bbox-12x14-v1","validationAccuracy":0.9650793671607971,"fonts":19,"realSamples":283,"excludedFixtures":["IMG_0545.jpg"],"bytes":88722,"format":"cnn-js-v1","verification":{"input":"zeros","logits":[-0.47031864523887634,0.14880438148975372,0.22932803630828857,-0.3856061100959778,-0.5285696983337402,0.25757795572280884,0.2086268961429596,0.23297065496444702,0.39837563037872314]},"tensors":{"features.0.weight":{"shape":[12,1,3,3],"data":[-0.07313890010118484,0.3560563027858734,0.6063187718391418,-0.03663669899106026,0.38075539469718933,0.44750869274139404,0.06635569781064987,0.7646660208702087,-0.09074009954929352,-0.26732560992240906,-0.14700379967689514,0.2892628014087677,0.06708239763975143,0.2955315113067627,1.124464750289917,0.1894243061542511,0.759337306022644,0.5285789966583252,0.511350691318512,1.0237232446670532,0.15217329561710358,0.6719679832458496,0.5151175856590271,0.06499540060758591,0.628644585609436,-0.19043679535388947,-0.5662481784820557,0.39297351241111755,-0.3828772008419037,-0.6793251037597656,0.5361282229423523,0.6242209076881409,-0.02847759984433651,-0.401304692029953,-0.04243750125169754,0.6481879949569702,0.34547099471092224,0.7073503732681274,0.50640869140625,0.3020426034927368,0.5882545113563538,0.19004890322685242,0.3890570104122162,0.4301033914089203,0.5409201979637146,0.5733156204223633,0.15126469731330872,0.4584195911884308,0.6492626070976257,0.573741614818573,0.8358749747276306,0.2655104100704193,0.18695670366287231,0.49117618799209595,-0.05356840044260025,0.5327247977256775,0.35879459977149963,0.3549576997756958,0.6442204117774963,0.10285300016403198,0.5650069117546082,0.3293803930282593,0.1877496987581253,0.29155460000038147,0.768750011920929,0.8047981858253479,0.2964653968811035,-0.37538090348243713,-0.24526910483837128,-0.331836998462677,-0.599617600440979,-0.547734797000885,0.328392893075943,1.0145949125289917,-0.1495707929134369,1.0905920267105103,0.2860155999660492,-0.31340599060058594,0.7433311939239502,0.1199340969324112,-0.008247899822890759,0.4905678927898407,0.4326072037220001,0.7520661950111389,0.24630750715732574,0.20351530611515045,0.6361871957778931,0.2078212946653366,0.16921919584274292,0.34367451071739197,-0.08064290136098862,-0.25540441274642944,-0.6589425206184387,-0.2696968913078308,0.20243549346923828,-0.42365190386772156,0.5557119846343994,0.7185301780700684,0.3687776029109955,0.37671568989753723,0.874689519405365,-0.0744687020778656,0.29825639724731445,0.4316180944442749,0.4538032114505768,0.44482699036598206,-0.32804709672927856,-0.12890130281448364]},"features.0.bias":{"shape":[12],"data":[0.19695259630680084,-0.016749300062656403,-0.002135500079020858,-0.09748789668083191,-0.04752260074019432,-0.007624399848282337,0.27941301465034485,0.08447939902544022,-0.0067357998341321945,-0.03327710181474686,0.20250649750232697,-0.005074100103229284]},"features.3.weight":{"shape":[24,12,3,3],"data":[-0.01715889945626259,0.0631456971168518,0.12788240611553192,-0.06727830320596695,0.165583997964859,-0.1679956018924713,0.10755039751529694,-0.08273810148239136,-0.03238629922270775,0.05726420134305954,0.21125130355358124,0.15574659407138824,0.11596520245075226,0.18709009885787964,-0.27025601267814636,0.08003850281238556,-0.07691510021686554,-0.32325679063796997,-0.1491038054227829,-0.3214001953601837,0.27085280418395996,0.1776925027370453,0.19380620121955872,0.029753999784588814,0.16641369462013245,0.2951244115829468,0.04004549980163574,0.43437421321868896,0.04862179979681969,-0.04742490127682686,0.40695619583129883,-0.4594157934188843,-0.11655700206756592,0.46441778540611267,0.04113680124282837,-0.038554999977350235,-0.19128069281578064,-0.12725600600242615,0.12969769537448883,0.08310230076313019,0.007166900206357241,0.07799889892339706,0.14488929510116577,0.02560950070619583,-0.06678350269794464,0.001954900100827217,-0.05334940180182457,0.10021749883890152,0.19419020414352417,-0.03978649899363518,-0.1400880068540573,0.1847739964723587,0.043524499982595444,-0.156980499625206,-0.03305999934673309,0.019218700006604195,0.13055309653282166,0.12904970347881317,-0.008276600390672684,-0.041528500616550446,0.0008166999905370176,0.010877300053834915,-0.21926160156726837,0.17075419425964355,-0.36555150151252747,0.04004669934511185,-0.04488620162010193,-0.10246679931879044,-0.2497275024652481,-0.16391879320144653,0.21858090162277222,0.014477499760687351,-0.05120319873094559,-0.3763748109340668,0.21973159909248352,0.08085159957408905,-0.022494599223136902,0.29010769724845886,-0.018918199464678764,0.3125036954879761,-0.20249100029468536,-0.20153920352458954,-0.060361098498106,0.066730797290802,0.038590800017118454,-0.022940799593925476,-0.11495669931173325,0.08536320179700851,0.054676398634910583,-0.06254220008850098,0.359264999628067,-0.25676649808883667,0.2067369967699051,0.09690800309181213,-0.21178199350833893,0.027513200417160988,-0.30879220366477966,-0.020221000537276268,-0.011780899949371815,-0.18743929266929626,-0.12124639749526978,0.19252440333366394,0.2246181070804596,0.018032699823379517,0.14600630104541779,0.14733390510082245,0.08313349634408951,0.10830119997262955,-0.03099289909005165,0.08738440275192261,0.19038669764995575,0.030773699283599854,-0.14581149816513062,-0.0687192976474762,0.018883299082517624,-0.03339120000600815,-0.014090999960899353,-0.14654889702796936,-0.029248399659991264,0.013092800043523312,0.02993899956345558,-0.2927243113517761,-0.029687700793147087,0.02228819951415062,0.13518589735031128,0.21193259954452515,-0.02411709912121296,0.2408951073884964,0.27362290024757385,0.0163659006357193,-0.06509730219841003,-0.22993899881839752,0.10978289693593979,-0.23056979477405548,-0.03397950157523155,-0.11757779866456985,-0.054300498217344284,0.4448564052581787,0.04097159951925278,0.06294819712638855,-0.14505019783973694,0.003353100037202239,0.5113362073898315,0.1394432932138443,-0.09098999947309494,0.15946170687675476,0.1301800012588501,-0.11570499837398529,-0.172666996717453,-0.07516709715127945,0.08223100006580353,-0.0711200013756752,-0.03239959850907326,-0.12809880077838898,0.18162070214748383,0.1219203993678093,-0.01762150041759014,-0.2039102017879486,-0.17195330560207367,0.10745149850845337,0.022540299221873283,0.11903680115938187,-0.03542739897966385,0.1090909019112587,0.17483779788017273,0.1350477933883667,-0.1598459929227829,-0.19455160200595856,0.09185150265693665,0.09986530244350433,0.03419189900159836,0.13186770677566528,0.5247464179992676,0.4910619854927063,-0.09236320108175278,0.49607178568840027,0.3098723888397217,0.05408279970288277,-0.4264500141143799,-0.08802320063114166,-0.14287179708480835,0.05442490056157112,0.22554239630699158,-0.019627699628472328,-0.030882399529218674,-0.29784080386161804,0.05595719814300537,0.07319299876689911,0.09396730363368988,-0.17269450426101685,0.2633228003978729,0.23603840172290802,-0.08737470209598541,-0.24833160638809204,-0.028436699882149696,-0.025960799306631088,-0.0887518972158432,-0.08119799941778183,-0.0344013012945652,-0.0925154983997345,-0.302531898021698,0.11971350014209747,-0.06205889955163002,-0.24785199761390686,0.10910960286855698,0.3652491867542267,0.09149400144815445,-0.16452470421791077,0.18073609471321106,0.3700571060180664,0.06476789712905884,-0.08259280025959015,-0.18257850408554077,0.2160021960735321,-0.10401000082492828,-0.14324529469013214,-0.07481350004673004,0.11105349659919739,-0.13542400300502777,0.12882870435714722,0.11897329986095428,-0.2545202970504761,0.01718980073928833,0.11716219782829285,-0.08395420014858246,0.28749459981918335,0.19793440401554108,-0.07904929667711258,0.2146051973104477,-0.04843840003013611,-0.3153170943260193,0.015472100116312504,-0.14291900396347046,-0.19214780628681183,-0.4687868058681488,0.23430480062961578,0.24628689885139465,-0.07150609791278839,0.15763959288597107,-0.24400539696216583,0.05351309850811958,0.13474440574645996,-0.16731679439544678,0.049950599670410156,-0.47105520963668823,-0.12721100449562073,-0.29546278715133667,-0.497443288564682,-0.17111650109291077,-0.37678009271621704,0.1062977984547615,0.2283744066953659,0.06236239895224571,0.2667340934276581,0.07149159908294678,0.20218190550804138,0.295534610748291,-0.018728699535131454,0.1578989028930664,0.15328699350357056,-0.05112539976835251,0.016798000782728195,0.04440750181674957,0.0708509013056755,0.09112080186605453,0.0516447015106678,-0.16212810575962067,0.10711850225925446,0.1816657930612564,-0.04000379890203476,0.10249040275812149,0.21411460638046265,0.04402720183134079,0.02773129940032959,0.1463135927915573,-0.23739150166511536,0.17286619544029236,-0.03732139989733696,-0.11451579630374908,-0.9017081260681152,-0.6124116778373718,0.29535698890686035,-0.686203122138977,-0.48615941405296326,-0.24555020034313202,-0.23937860131263733,0.041131798177957535,0.012550200335681438,-0.41572630405426025,0.17295870184898376,0.22659049928188324,-0.09732680022716522,0.33303120732307434,-0.15009820461273193,0.023959700018167496,0.2160537987947464,-0.17306190729141235,-0.057172100991010666,0.0802605003118515,0.1622886061668396,0.08850439637899399,0.11278560012578964,-0.26278600096702576,0.09817449748516083,0.22546109557151794,-0.009772799909114838,0.04653000086545944,0.02905529923737049,-0.25385281443595886,-0.2447075992822647,-0.1780955046415329,0.036559898406267166,-0.28115180134773254,-0.23032160103321075,-0.18216809630393982,-0.3354974091053009,0.06617370247840881,0.301093190908432,0.019220300018787384,0.1676637977361679,-0.1134369969367981,0.04786569997668266,0.1835830956697464,0.1115977019071579,-0.08730009943246841,-0.08765289932489395,0.03876969963312149,0.010044699534773827,0.053819600492715836,-0.04839640110731125,-0.08010029792785645,-0.05036139860749245,-0.07448890060186386,-0.011071399785578251,-0.09145840257406235,0.04632220044732094,-0.09032870084047318,0.0031224999111145735,-0.035588398575782776,0.07768949866294861,-0.09178610146045685,-0.04423899948596954,0.05910300090909004,0.02941730059683323,0.058079998940229416,-0.08206050097942352,-0.09372930228710175,0.00977769959717989,-0.0040894001722335815,-0.011678500100970268,0.01631299965083599,0.08457429707050323,0.0406653992831707,-0.08962380141019821,-0.04529799893498421,0.06451159715652466,-0.06384219974279404,0.07479669898748398,3.9999998989515007e-05,0.02361219935119152,-0.061922598630189896,0.025954099372029305,-0.09830070286989212,-0.08640360087156296,-0.0624609999358654,-0.09959939867258072,-0.0745868980884552,-0.021152200177311897,0.020007699728012085,-0.04291100054979324,-0.0730191022157669,-0.09412460029125214,-0.017489299178123474,0.05890649929642677,0.0025863999035209417,-0.059199199080467224,-0.05109480023384094,0.08539199829101562,0.021467700600624084,-0.0673362985253334,0.06602060049772263,-0.058243200182914734,0.026776500046253204,-0.03828280046582222,-0.05976489931344986,-0.01695599965751171,0.0329401008784771,-0.07273860275745392,-0.03142619878053665,-0.08790089935064316,-0.0920519009232521,-0.0404898002743721,0.06822510063648224,0.04473450034856796,0.0214563999325037,-0.048500899225473404,0.04700550064444542,0.033560898154973984,-0.0002714000002015382,0.0482465997338295,-0.04860449954867363,0.04248009994626045,0.04771009832620621,0.09320729970932007,-0.043624501675367355,-0.003646800061687827,-0.018859699368476868,-0.08055079728364944,0.06419689953327179,-0.05401669815182686,-0.005069199949502945,-0.02995919995009899,0.0716003030538559,0.007330399937927723,0.03361019864678383,0.027461199089884758,0.052341900765895844,-0.07966729998588562,-0.09729179739952087,-0.03673220053315163,-0.0767081007361412,-0.09390319883823395,-0.06844259798526764,-0.006303300149738789,-0.06682469695806503,-0.1127856969833374,0.03399470075964928,-0.04465259984135628,0.07674189656972885,-0.018856100738048553,0.07135560363531113,0.020514000207185745,0.08145370334386826,0.12062600255012512,0.042233601212501526,0.06548450142145157,0.03027920052409172,0.016004400327801704,0.05643229931592941,-0.027333799749612808,0.052876200526952744,-0.023816199973225594,0.04725470021367073,0.043233100324869156,-0.06864289939403534,-0.12914009392261505,-0.06911490112543106,0.04945319890975952,-0.08965390175580978,-0.10955020040273666,0.20945410430431366,0.10152330249547958,0.04456000030040741,0.22367119789123535,0.08551710098981857,0.12859520316123962,-0.0719790980219841,-0.00692950002849102,-0.22621379792690277,-0.15805670619010925,-0.07519389688968658,0.09899970144033432,-0.4825727939605713,-0.7182136178016663,-0.3796656131744385,-0.4046601951122284,-0.3205510973930359,-0.396104097366333,0.10847479850053787,0.17163750529289246,0.22554080188274384,-0.03468110039830208,0.05421590059995651,0.1292721927165985,-0.023661699146032333,-0.037457700818777084,-0.18618910014629364,0.1755249947309494,0.16512249410152435,0.1903412938117981,0.09697440266609192,0.053339600563049316,-0.004730199929326773,-0.026140499860048294,-0.08686050027608871,-0.00017559999832883477,0.11044000089168549,0.12932269275188446,0.018491899594664574,0.08550859987735748,-0.10249040275812149,-0.053482599556446075,0.05668019875884056,-0.050251301378011703,-0.0839741975069046,-0.11907350271940231,-0.49562808871269226,-0.43965721130371094,-0.2340548038482666,-0.16735370457172394,0.12683269381523132,-0.45701301097869873,-0.5841863751411438,-0.33203139901161194,0.2187304049730301,0.13197900354862213,0.06920409947633743,0.20077680051326752,-0.030084999278187752,-0.01507909968495369,0.1933434009552002,0.0285739004611969,-0.3844495117664337,0.09568200260400772,0.21190869808197021,0.07266470044851303,0.030205000191926956,-0.0322704017162323,0.19481170177459717,0.061859000474214554,-0.037206098437309265,-0.0855804979801178,-0.15358449518680573,-0.30227530002593994,0.11145920306444168,-0.25518879294395447,-0.4152204990386963,-0.5231348872184753,0.2294396013021469,0.11975479871034622,-0.10126759856939316,0.1466597020626068,0.15253819525241852,0.08668039739131927,0.07065919786691666,0.09467220306396484,0.08732890337705612,-0.10303130000829697,-0.18598389625549316,-0.2537223994731903,0.1396280974149704,0.025647200644016266,-0.06829780340194702,0.24833519756793976,-0.013159099966287613,-0.020990099757909775,0.28653520345687866,-0.11394599825143814,0.04512559995055199,0.23931799829006195,-0.04271790012717247,-0.06820639967918396,0.3243955969810486,-0.3061125874519348,-0.09072139859199524,0.32998061180114746,-0.30071839690208435,0.04174650087952614,-0.1675036996603012,0.35343798995018005,-0.2530921995639801,-0.006723999977111816,0.17481400072574615,-0.2802422046661377,0.069862000644207,0.33091500401496887,-0.46662500500679016,0.061342399567365646,-0.13203810155391693,-0.17707090079784393,-0.39218220114707947,-0.07134989649057388,-0.4257940948009491,-0.3730083107948303,0.24733680486679077,0.07195930182933807,0.17895430326461792,0.1096711978316307,-0.20623549818992615,0.1864406019449234,0.12285780161619186,-0.18928410112857819,0.07143209874629974,0.08324339985847473,-0.026632800698280334,0.25512009859085083,0.09279070049524307,-0.01699710078537464,0.10937129706144333,0.151876300573349,-0.24366310238838196,0.20704150199890137,0.24702009558677673,0.06267929822206497,0.17968550324440002,0.10861209779977798,0.018761299550533295,0.15062379837036133,0.13590550422668457,-0.05411640182137489,0.12554140388965607,0.023436499759554863,0.05698949843645096,-0.7484232187271118,-0.34481701254844666,-0.3933568000793457,-0.790518581867218,-0.12348079681396484,0.30702850222587585,-0.3886373043060303,-0.25175580382347107,-0.4976043999195099,-0.17444759607315063,0.3281129002571106,-0.21193459630012512,-0.13284249603748322,0.4302980899810791,-0.4634298086166382,0.019637899473309517,0.40789660811424255,-0.34035658836364746,0.15412920713424683,0.15155459940433502,-0.10028470307588577,0.12756119668483734,0.11691930145025253,-0.13448789715766907,0.16376039385795593,0.1638541966676712,-0.023404499515891075,0.11165440082550049,0.1663040965795517,0.05147809907793999,-0.11180820316076279,0.07076899707317352,-0.17376300692558289,-0.2583087980747223,-0.08008620142936707,0.17755979299545288,-0.10820399969816208,0.19350199401378632,-0.0673011988401413,-0.03795259818434715,0.15158160030841827,-0.28638920187950134,0.030036799609661102,0.2583203911781311,-0.2564862072467804,-0.07561539858579636,-0.07700789719820023,0.038301900029182434,0.1008932963013649,0.056765299290418625,0.034918200224637985,0.10523650050163269,-0.19138790667057037,-0.18197309970855713,0.13471969962120056,0.13825449347496033,0.18423950672149658,0.16919970512390137,-0.1492031067609787,-0.173567995429039,-0.09466759860515594,-0.19201670587062836,-0.22868509590625763,-0.07916049659252167,0.15755139291286469,-0.048334699124097824,0.2922241985797882,0.35317790508270264,0.3461802005767822,0.07955169677734375,-0.018268700689077377,-0.3555389940738678,0.1153395026922226,-0.07405500113964081,0.3192361891269684,-0.22656570374965668,-0.28181910514831543,0.017148999497294426,-0.4130963981151581,0.11888960003852844,-0.2701660096645355,0.13040639460086823,0.06608030200004578,0.10864129662513733,0.243498295545578,0.06979940086603165,0.03643349930644035,0.10640980303287506,-0.22961699962615967,-0.23406340181827545,0.1781592071056366,0.14475330710411072,0.0810415968298912,0.03429630026221275,0.03324269875884056,0.15948769450187683,-0.057732999324798584,-0.17122480273246765,-0.2344284951686859,0.0361923985183239,0.07952620089054108,-0.010959000326693058,0.020574400201439857,0.055994901806116104,-0.06224140152335167,0.08877360075712204,-0.14793339371681213,-0.27161309123039246,-0.5726307034492493,-0.3587900996208191,-0.6341422200202942,-0.04160020127892494,0.32652729749679565,0.6410233974456787,0.23106050491333008,0.08424130082130432,0.18600420653820038,-0.11335650086402893,0.1389521062374115,-0.06591910123825073,0.17077180743217468,0.21866419911384583,0.10042379796504974,0.016411500051617622,-0.035311199724674225,-0.24349500238895416,0.07257439941167831,0.1297954022884369,-0.026773400604724884,0.20632340013980865,0.2053637057542801,0.09438479691743851,0.06036520004272461,-0.13178719580173492,-0.10807649791240692,-0.012686099857091904,0.1488627940416336,0.1726323962211609,0.05885839834809303,-0.23955559730529785,-0.36780160665512085,-0.10215269774198532,-0.09377890080213547,-0.19657260179519653,-0.12515459954738617,0.199241504073143,0.029663000255823135,0.270963191986084,0.3441067934036255,0.22947950661182404,0.1382267028093338,-0.13548660278320312,-0.22164060175418854,-0.03647850081324577,0.23292380571365356,0.04426560178399086,-0.2214667946100235,0.17944540083408356,0.08212629705667496,-0.02490130066871643,0.009864799678325653,0.19422219693660736,-0.02096249908208847,0.283119797706604,0.02909879945218563,-0.25449898838996887,0.1282826066017151,0.18991710245609283,0.13640360534191132,0.018246199935674667,-0.006816700100898743,0.13190530240535736,0.06343209743499756,0.09425649791955948,-0.11863390356302261,-0.14750120043754578,0.016136599704623222,-0.09155000001192093,0.022678300738334656,0.01908629946410656,-0.014490099623799324,0.612064778804779,0.37230318784713745,0.084368497133255,-0.7056987881660461,-0.12207350134849548,0.7166777849197388,-0.3856840133666992,-0.6515113711357117,0.14346179366111755,0.3776524066925049,0.15549880266189575,-0.16120080649852753,-0.00845120009034872,0.10232590138912201,-0.010157600045204163,-0.15802660584449768,0.1036531999707222,0.150081604719162,0.3649648129940033,0.10935749858617783,-0.21794390678405762,0.03785640001296997,0.12344329804182053,0.09891930222511292,-0.14210470020771027,-0.03222779929637909,0.11683979630470276,0.24298830330371857,0.10421600192785263,-0.22528889775276184,-0.03634890168905258,0.11733560264110565,0.06634730100631714,0.1283625066280365,0.02754480019211769,0.6321262121200562,-0.06632319837808609,-0.8381369709968567,-0.11073700338602066,-0.4827854037284851,-0.5716211795806885,-0.21740660071372986,-0.18507720530033112,-0.21424220502376556,0.09714119881391525,0.1851987987756729,0.22547879815101624,-0.22865989804267883,-0.2707813084125519,0.17301419377326965,0.11242230236530304,0.03080110065639019,-0.03308349847793579,0.16100460290908813,0.34933510422706604,0.10296370089054108,-0.08221890032291412,0.11079119890928268,0.17303599417209625,-0.04648660123348236,-0.10411199927330017,0.1992972046136856,-0.4494335949420929,-0.15254579484462738,-0.07210519909858704,0.20433400571346283,-0.34607741236686707,0.08011270314455032,0.21561799943447113,0.018344199284911156,-0.3626162111759186,0.13668599724769592,0.22752070426940918,0.037466101348400116,-0.12688469886779785,-0.05308049917221069,0.19735710322856903,-0.12090550363063812,-0.17874360084533691,0.024496600031852722,0.1133624017238617,-0.11101680248975754,-0.04714290052652359,0.09513580054044724,-0.20584389567375183,0.281031996011734,0.04282350093126297,-0.15485559403896332,0.1445164978504181,-0.019192999228835106,-0.2564696967601776,0.28982970118522644,0.042710598558187485,-0.03473620116710663,0.49180978536605835,-0.26855599880218506,-0.20450159907341003,0.10510040074586868,0.10228119790554047,-0.1096159964799881,-0.39972299337387085,0.31597259640693665,0.12539640069007874,0.0285653006285429,0.20286129415035248,0.004791699815541506,0.003316400106996298,-0.04505759850144386,-0.33151790499687195,-0.0798771008849144,0.03489359840750694,0.16404560208320618,-0.21130970120429993,-0.32637259364128113,-0.5889496207237244,-0.5417888164520264,0.13724850118160248,-0.16962000727653503,-0.03033359907567501,0.07500649988651276,-0.10517939925193787,0.28546369075775146,-0.09499900043010712,-0.17139579355716705,0.03180659934878349,0.1882016956806183,-0.13961109519004822,-0.08455809950828552,0.13215850293636322,0.04996180161833763,0.11607880145311356,-0.020763099193572998,-0.15745119750499725,0.11911030113697052,0.17492680251598358,0.010038100183010101,-0.0495046004652977,0.12455020099878311,0.03132060170173645,0.22501230239868164,0.03708690032362938,-0.07385990023612976,0.1036996990442276,-0.7502661943435669,-0.47600218653678894,-0.727295994758606,-0.3696061968803406,-0.2484104037284851,-0.26306578516960144,-0.06282170116901398,-0.009422499686479568,0.20614440739154816,0.32073310017585754,0.025050800293684006,-0.2630046010017395,0.34199559688568115,0.03327710181474686,-0.05359470099210739,-0.01064779981970787,-0.012723900377750397,-0.10657750070095062,0.14296330511569977,-0.261855810880661,-0.034289199858903885,0.1630038022994995,-0.12053059786558151,0.30511969327926636,0.09886220097541809,-0.08048319816589355,0.17230859398841858,0.1333664059638977,-0.014157800003886223,0.07705959677696228,0.04174499958753586,-0.020801300182938576,-0.1696297973394394,-0.26469749212265015,-0.26463788747787476,-0.23996999859809875,0.00750460010021925,-0.21418079733848572,-0.23302480578422546,0.2515510022640228,-0.0750994011759758,0.08053439855575562,0.08022289723157883,-0.20035220682621002,-0.10483170300722122,-0.0007014999864622951,-0.16438749432563782,-0.19152629375457764,0.16464050114154816,-0.1197500005364418,-0.14972150325775146,0.16194699704647064,0.10269159823656082,0.05081839859485626,0.14180399477481842,0.1158732995390892,-0.1722934991121292,0.1731158047914505,0.08395890146493912,-0.22122910618782043,0.14738629758358002,-0.08271580189466476,0.07028180360794067,-0.028244199231266975,-0.02960430085659027,-0.034855201840400696,0.07630179822444916,-0.06755050271749496,-0.1066489964723587,-0.05176590010523796,0.15194079279899597,-0.13503329455852509,0.6376885771751404,-0.0318525992333889,-0.3021368980407715,0.09595309942960739,0.16247449815273285,-0.3007347881793976,-0.2068829983472824,0.47884801030158997,0.5326550006866455,0.14198370277881622,-0.23107969760894775,-0.19737659394741058,0.23109519481658936,0.22331279516220093,-0.11107909679412842,0.009263900108635426,0.1723887026309967,0.21654410660266876,0.10446680337190628,-0.11717770248651505,-0.1859637051820755,-0.0016751999501138926,0.19251589477062225,-0.14183950424194336,0.03542749956250191,0.20502810180187225,0.3098432123661041,0.053352199494838715,-0.10017579793930054,-0.018175199627876282,0.07626459747552872,0.16547639667987823,-0.11633740365505219,0.0006069000228308141,0.01164379995316267,0.07279589772224426,0.10240799933671951,-0.8034386038780212,-0.5607414245605469,-0.0808475986123085,-0.12723000347614288,0.10503099858760834,-0.19696229696273804,-0.11648119986057281,-0.4117569029331207,0.1568928062915802,-0.16522860527038574,0.0037853000685572624,-0.04095809906721115,0.21453489363193512,0.008146700449287891,-0.22154289484024048,0.31212499737739563,-0.04318489879369736,0.13355900347232819,-0.23646290600299835,-0.2317166030406952,0.1639057993888855,0.08782210201025009,-0.16513870656490326,-0.014200200326740742,0.293953001499176,0.12105230242013931,0.2606905996799469,0.1190095990896225,-0.0863960012793541,0.051259201020002365,0.15616969764232635,-0.01378840021789074,-0.47859200835227966,-0.3609558045864105,-0.0773743987083435,0.09796369820833206,-0.0956512987613678,-0.16523459553718567,0.17667749524116516,-0.08258669823408127,-0.24653950333595276,-0.16005520522594452,0.16921170055866241,0.008622700348496437,0.15494659543037415,0.106222003698349,-0.02889689989387989,0.13358280062675476,-0.032402001321315765,0.19276149570941925,-0.08818239718675613,-0.1293008029460907,-0.00031319999834522605,0.014636700041592121,0.10874190181493759,0.1496744006872177,0.21624399721622467,-0.1591179072856903,0.2074744999408722,-0.19332920014858246,-0.38650059700012207,-0.38218429684638977,-0.22884640097618103,-0.009393200278282166,-0.11754020303487778,0.3599246144294739,0.24727779626846313,0.131814107298851,0.037929799407720566,0.047837600111961365,-0.02839219942688942,-0.19555330276489258,-0.489886611700058,0.31423309445381165,-0.3024001121520996,-0.25771409273147583,0.11904510110616684,-0.8804242014884949,-0.2228745073080063,-0.6661401987075806,0.1384671926498413,0.1164029985666275,0.015564999543130398,0.2941741943359375,0.10078880190849304,0.24836860597133636,0.021920399740338326,-0.26189011335372925,-0.1611603945493698,0.11250770092010498,0.09603740274906158,-0.04921879991889,0.06577739864587784,0.06092499941587448,0.2119539976119995,-0.07452619820833206,-0.17683489620685577,-0.2172670066356659,0.043184999376535416,0.18613339960575104,0.08309079706668854,0.27516868710517883,0.000378400000045076,0.034920599311590195,0.038286298513412476,-0.23956920206546783,-0.12241440266370773,-0.8553935289382935,-0.37323451042175293,-0.38874199986457825,-0.22374379634857178,-0.17609569430351257,0.2943271994590759,0.2135021984577179,0.21524830162525177,0.8126252889633179,-0.09271220117807388,0.11221709847450256,-0.15205509960651398,0.4353365898132324,0.28151750564575195,-0.05153390020132065,0.005950000137090683,-0.21732459962368011,-0.2375568002462387,-0.07452370226383209,0.08133500069379807,-0.13360999524593353,0.2319439947605133,0.027121100574731827,0.13660560548305511,0.08881209790706635,-0.07710160315036774,0.09994660317897797,0.15491579473018646,0.039164599031209946,0.3810881972312927,-0.003362900111824274,-0.03130149841308594,-0.047391101717948914,-0.4021821916103363,-0.22257550060749054,-0.5604782104492188,-0.3201789855957031,0.04049909859895706,-0.15591329336166382,0.25642120838165283,0.12108489871025085,0.2842046916484833,0.027828799560666084,-0.08901190012693405,-0.18693900108337402,-0.03224650025367737,0.1084171012043953,-0.04247559979557991,0.04541809856891632,-0.09553129971027374,-0.1193964034318924,0.10715720057487488,-0.12960059940814972,0.00939560029655695,0.25633248686790466,0.17360369861125946,-0.03852979838848114,0.21225999295711517,-0.0823156014084816,-0.2705931067466736,-0.08180169761180878,-0.2585580050945282,-0.12034329771995544,-0.22946029901504517,0.11469320207834244,0.1832955926656723,0.3059403896331787,0.2839179039001465,-0.17866340279579163,0.25148311257362366,0.12499579787254333,-0.41138309240341187,0.12641289830207825,-0.5656458139419556,-0.18687009811401367,-0.0061106001958251,-0.5754449963569641,-0.3039532005786896,-0.8102313876152039,-0.44684478640556335,-0.15339240431785583,-0.008840999566018581,0.23687489330768585,0.033048901706933975,0.2532694935798645,0.16510069370269775,0.10601290315389633,0.15507720410823822,-0.13217559456825256,-0.053830601274967194,0.11918489634990692,0.0057299998588860035,0.19709549844264984,0.2577708065509796,0.1470997929573059,-0.0181364007294178,0.09779900312423706,-0.0377373993396759,-0.04184839874505997,-0.08510079979896545,0.2261252999305725,-0.0815868005156517,0.2308214008808136,0.18698160350322723,-0.20437249541282654,0.012302899733185768,-0.2585223913192749,-0.14366909861564636,-0.8011294007301331,-0.17928579449653625,-0.021988099440932274,-0.6099984049797058,-0.4321891963481903,-0.29735371470451355,0.1973952054977417,0.36638641357421875,-0.1994992047548294,-0.17556239664554596,0.31696099042892456,0.08510349690914154,0.2844935953617096,0.3392445147037506,-0.23715589940547943,0.18891149759292603,0.060015201568603516,-0.2854473888874054,-0.1624774932861328,0.13755039870738983,0.2337448000907898,0.21149340271949768,0.17526480555534363,-0.02808080054819584,0.19633980095386505,0.025459399446845055,0.06216739863157272,0.11699029803276062,-0.011513800360262394,-0.22494830191135406,0.05968710035085678,-0.10261649638414383,-0.25909578800201416,-0.23060660064220428,-0.2883864939212799,-0.10175950080156326,-0.26339659094810486,0.15429219603538513,0.18903709948062897,0.140510693192482,0.28436478972435,-0.22113490104675293,0.08507420122623444,0.12297990173101425,-0.15237189829349518,0.06172569841146469,-0.2382293939590454,0.014683599583804607,0.11589310318231583,-0.036430299282073975,0.01559399999678135,0.1746705025434494,0.19322620332241058,0.1634477972984314,-0.06542299687862396,-0.22745220363140106,-0.007031000219285488,0.013660499826073647,0.14345119893550873,0.0035876999609172344,0.22811320424079895,0.467180997133255,0.19088050723075867,-0.020487800240516663,-0.2318170964717865,-0.24052080512046814,-0.033611200749874115,-0.1819853037595749,-0.04942629858851433,0.07368460297584534,0.08131899684667587,0.2214501053094864,0.2859624922275543,0.0370992012321949,-0.23770180344581604,0.14326590299606323,0.07007169723510742,-0.002038199920207262,0.5126320123672485,0.15275129675865173,0.2787458002567291,0.10305649787187576,-0.26791301369667053,-0.22047829627990723,0.1387788951396942,-0.007856500335037708,0.23718050122261047,0.19655320048332214,0.24014419317245483,0.1372637003660202,0.09652800112962723,-0.17527970671653748,-0.1813029944896698,0.14153720438480377,-0.019657399505376816,-0.12002290040254593,0.13121600449085236,0.25158241391181946,0.29315081238746643,0.08242689818143845,-0.22929349541664124,-0.17430169880390167,0.12406159937381744,-0.052609801292419434,0.1818867027759552,0.1880211979150772,0.27808961272239685,0.21795380115509033,0.018762199208140373,-0.39263948798179626,0.07615070044994354,-0.09313970059156418,-0.146664097905159,-0.22697539627552032,-0.36569228768348694,-0.37630030512809753,0.19840000569820404,0.023074500262737274,-0.2266256958246231,-0.4524422883987427,0.1307085007429123,-0.009159400127828121,0.07009810209274292,-0.005512299947440624,0.189643993973732,0.17628799378871918,-0.055570900440216064,-0.2658340036869049,-0.07711029797792435,-0.062218498438596725,-0.05785069987177849,-0.14460620284080505,0.04354080185294151,0.14941899478435516,0.17412500083446503,0.24379050731658936,0.10988190025091171,0.12189450114965439,0.08389770239591599,0.03804989904165268,-0.06072559952735901,0.05304839834570885,-0.07093829661607742,-0.2663935124874115,0.026250600814819336,-0.1661670058965683,-0.1260191947221756,0.09456170350313187,-0.1009019985795021,-0.19556589424610138,0.09767939895391464,0.21865560114383698,0.3517569899559021,0.11943289637565613,-0.18342019617557526,-0.05322109907865524,0.061565298587083817,-0.04972749948501587,-0.07215610146522522,0.04062509909272194,0.12793099880218506,0.098826102912426,0.13156749308109283,-0.09102749824523926,0.02161950059235096,0.009855999611318111,0.16275440156459808,0.10900290310382843,-0.14388999342918396,-0.07298929989337921,0.2111739069223404,0.16237209737300873,0.1263778954744339,-0.03197060152888298,-0.0679628998041153,-0.02953539974987507,-0.20347860455513,0.058684900403022766,0.12093249708414078,-0.007914099842309952,-0.06453719735145569,-0.16334860026836395,0.008187600411474705,0.017036499455571175,0.34850290417671204,0.6430072784423828,-0.4589579105377197,0.19119879603385925,0.254720002412796,0.11304830014705658,-0.2178688943386078,-0.20786349475383759,0.0871661975979805,-0.025704599916934967,-0.03395650163292885,-0.040669798851013184,0.10676559805870056,0.21101699769496918,8.50000014906982e-06,-0.12728199362754822,-0.12672649323940277,0.17857560515403748,0.12534530460834503,-0.1047201007604599,0.10365120321512222,0.05220239982008934,0.3058888018131256,-0.03265329822897911,-0.0780349001288414,-0.0588373988866806,0.21340300142765045,-0.03978990018367767,0.15378250181674957,0.13023200631141663,0.08146200329065323,0.1507789045572281,-0.2016046941280365,0.1327890008687973,0.41297250986099243,-0.38674530386924744,-0.13565750420093536,0.04521710053086281,0.16444189846515656,0.29227539896965027,0.4211603105068207,0.09821339696645737,-0.025143299251794815,-0.2519843876361847,0.07040800154209137,0.11415140330791473,-0.021784400567412376,-0.05496450141072273,0.03347970172762871,-0.10267709940671921,-0.02493949979543686,-0.09727050364017487,-0.012911600060760975,0.10072919726371765,-0.07028669863939285,-0.21216869354248047,0.1279066950082779,0.08044090121984482,0.22277960181236267,0.028179600834846497,-0.026128599420189857,-0.11584769934415817,0.019117500633001328,0.18431000411510468,0.32813340425491333,-0.16487039625644684,-0.5022698044776917,-0.28508180379867554,0.042980000376701355,-0.10146989673376083,-0.005173100158572197,0.06786099821329117,0.07890109717845917,-0.17633050680160522,0.08791840076446533,0.08428460359573364,0.13586929440498352,0.1387864053249359,-0.06042909994721413,-0.03374100103974342,0.013057700358331203,-0.007999099791049957,-0.06458929926156998,0.18761980533599854,-0.009824099950492382,0.20336060225963593,0.08807480335235596,-0.2799026072025299,-0.3189646005630493,0.04596320167183876,0.19331830739974976,0.19690389931201935,0.0279339998960495,0.0742563009262085,0.23709149658679962,0.13810209929943085,-0.028615400195121765,-0.06073879823088646,0.12643210589885712,-0.009652400389313698,-0.2801342010498047,0.15322929620742798,0.0427790991961956,0.09366139769554138,0.168100506067276,-0.1414605975151062,0.1748282015323639,0.46261268854141235,0.4832007884979248,0.48454681038856506,0.09307649731636047,0.5485067963600159,0.2514446973800659,-0.0930481031537056,-0.18563459813594818,-0.2406029999256134,0.1621433049440384,-0.240043506026268,-0.13623830676078796,0.15323780477046967,0.15555359423160553,0.1921975016593933,-0.013022099621593952,-0.07455050200223923,-0.09799010306596756,0.08152720332145691,-0.06742270290851593,-0.09238819777965546,0.19704149663448334,0.061783600598573685,0.16593989729881287,0.12518219649791718,-0.14163200557231903,-0.14695680141448975,0.0912218987941742,-0.07928580045700073,0.07960239797830582,0.17579670250415802,0.09943120181560516,0.23432660102844238,0.1280411034822464,0.5155254006385803,0.3327656090259552,-0.25602060556411743,0.3037897050380707,-0.07688040286302567,0.37393370270729065,0.4001379907131195,0.2549991011619568,0.04650399833917618,-0.03579629957675934,-0.059259600937366486,0.23263339698314667,-0.07032150030136108,-0.18984730541706085,0.1317663937807083,0.03807080164551735,0.17243510484695435,-0.08853679895401001,-0.175368994474411,-0.12135209888219833,-0.03849710151553154,-0.21269769966602325,-0.07530000060796738,0.1415088027715683,0.19088959693908691,0.2307989001274109,0.049113400280475616,-0.17761650681495667,-0.07612139731645584,0.3034678101539612,0.4289478063583374,0.27695509791374207,-0.18633100390434265,-0.07066970318555832,-0.005778599996119738,0.042934998869895935,0.025722600519657135,-0.026380399242043495,0.22601160407066345,-0.20816349983215332,-0.18500669300556183,0.1295304000377655,0.2576431930065155,0.11375399678945541,0.06992380321025848,0.022238699719309807,0.19456590712070465,0.11775369942188263,0.12131229788064957,-0.010268899612128735,-0.17218929529190063,-0.15367400646209717,-0.050006698817014694,0.1836272031068802,0.2674342095851898,0.2927752137184143,0.24763929843902588,-0.19276319444179535,-0.023336099460721016,-0.28156089782714844,-0.28929778933525085,0.09385299682617188,-0.016527999192476273,-0.017940200865268707,0.1825864017009735,0.35277849435806274,0.4050523042678833,0.11146599799394608,0.11886859685182571,-0.27743950486183167,-0.196989506483078,0.6543179154396057,0.0368059016764164,0.38936978578567505,0.16817140579223633,0.411390095949173,0.13985230028629303,-0.3876948952674866,0.23804989457130432,-0.14274969696998596,0.005426399875432253,-0.07456079870462418,0.04834580048918724,0.2488110065460205,0.17670629918575287,0.04931240156292915,-0.30632150173187256,-0.25315460562705994,-0.1725773960351944,-0.028159700334072113,-0.09271050244569778,0.03351939842104912,0.1719529926776886,0.10798709839582443,0.01009020023047924,-0.21641099452972412,-0.16384050250053406,-0.1494583934545517,0.13922220468521118,-0.01672999933362007,0.18699480593204498,0.21644650399684906,-0.0062811002135276794,-0.02602740004658699,-0.20676350593566895,-0.23399320244789124,0.06974829733371735,-0.14492839574813843,-0.019611099734902382,0.3259753882884979,0.4638339877128601,0.424283504486084,0.4680030047893524,0.5615895986557007,0.37445780634880066,0.0008948000031523407,-0.051949698477983475,-0.11881040036678314,0.14107009768486023,0.4047060012817383,0.27839580178260803,0.022206399589776993,-0.04302230104804039,-0.4928709864616394,-0.36933180689811707,-0.060274701565504074,-0.17142720520496368,0.017147500067949295,0.1952517032623291,0.14236220717430115,0.10833200067281723,-0.09081090241670609,-0.28736940026283264,-0.14446499943733215,0.29882869124412537,0.3884615898132324,0.39942848682403564,0.08865389972925186,-0.1698296070098877,-0.12015250325202942,-0.193367600440979,-0.10810130089521408,-0.10521519929170609,-0.008080000057816505,-0.09541919827461243,0.036869700998067856,0.43988320231437683,0.16489820182323456,0.2370299994945526,0.06456539779901505,-0.21493180096149445,-0.09117530286312103,-0.03797309845685959,-0.044956501573324203,0.03044299967586994,-0.0842244029045105,-0.020861299708485603,0.1777610033750534,0.06474290043115616,0.10661079734563828,0.1990319937467575,-0.23095040023326874,-0.20680780708789825,0.2943347096443176,-0.16112549602985382,-0.06741960346698761,0.17744779586791992,0.11415489763021469,0.0936494991183281,0.27270931005477905,0.19670359790325165,-0.14961090683937073,-0.15005460381507874,-0.03709840029478073,-0.11987649649381638,-0.014492199756205082,-0.02148669958114624,-0.1335328072309494,0.1885167956352234,-0.11702299863100052,-0.6026039719581604,-0.2404583990573883,0.27616819739341736,-0.2988857924938202,-0.34778618812561035,-0.21949639916419983,-0.16813640296459198,-0.4470486044883728,0.06209789961576462,-0.30799171328544617,-0.029812399297952652,0.03450009971857071,-0.05424949899315834,0.26695600152015686,0.06632170081138611,-0.004618799779564142,0.12229470163583755,-0.027196500450372696,-0.21693530678749084,-5.1300001359777525e-05,0.1857358068227768,0.03760860115289688,0.0984686017036438,-0.01945989951491356,0.045513298362493515,0.19319100677967072,0.172006294131279,-0.12857520580291748,0.1210855022072792,0.12461540102958679,-0.03743189945816994,0.2177056074142456,0.0670550987124443,0.0771062970161438,0.21498019993305206,0.02975030057132244,-0.11834350228309631,-0.6269373893737793,-0.2865830063819885,-0.7358359098434448,-0.44908058643341064,-0.39759790897369385,-0.4914490878582001,-0.18019039928913116,0.31653499603271484,-0.09426269680261612,-0.12828710675239563,-0.09384939819574356,-0.02072319947183132,0.06804099678993225,-0.046491000801324844,-0.07941240072250366,0.07663480192422867,0.10812839865684509,-0.23585569858551025,-0.0320884995162487,0.07026299834251404,-0.09442059695720673,0.17232079803943634,0.0005322999786585569,0.005967000033706427,0.15014170110225677,0.27786481380462646,-0.14414960145950317,0.04153190180659294,-0.24613820016384125,-0.10143090039491653,-0.2223152071237564,0.1423684060573578,0.18830829858779907,-0.0290048997849226,0.045327600091695786,-0.2724685072898865,-0.20248959958553314,0.009939500130712986,-0.06973320245742798,0.07294149696826935,-0.028883300721645355,-0.1616045981645584,0.12555010616779327,-0.10653290152549744,-0.11507400125265121,-0.0004869000113103539,-0.04641079902648926,-0.11120519787073135,-0.03464290127158165,-0.05046509951353073,-0.03985479846596718,-0.08245939761400223,-0.1187971979379654,-0.09027030318975449,0.022406600415706635,-0.05019469931721687,0.037827398627996445,-0.071595199406147,-0.06875450164079666,-0.004675299860537052,0.04832049831748009,-0.05878780037164688,-0.10510650277137756,-0.007722300011664629,-0.07981099933385849,0.05276719853281975,-0.004998300224542618,-0.046957798302173615,0.04418319836258888,-0.0794517993927002,0.006794400047510862,0.04976909980177879,-0.032908398658037186,-0.07068579643964767,0.006406600121408701,0.0015686999540776014,-0.09470579773187637,-0.06116290017962456,0.032020699232816696,0.018714699894189835,0.05775219947099686,0.017766200006008148,0.0028230000752955675,0.0522255003452301,0.04535910114645958,0.08501949906349182,0.006471599917858839,-0.04598899930715561,-0.06964019685983658,-0.11161089688539505,-0.09452120214700699,-0.10669919848442078,-0.08207140117883682,0.05398960039019585,-0.05035959929227829,0.037700001150369644,-0.0709799975156784,0.016289599239826202,-0.06100130081176758,-0.015712199732661247,0.03513500094413757,-0.06928279995918274,-0.11739339679479599,0.006702300161123276,-0.09618379920721054,-0.05163849890232086,-0.12140549719333649,-0.04515869915485382,0.057445500046014786,-0.022771399468183517,-0.0007209000177681446,0.015801500529050827,0.002710100030526519,0.000291300006210804,-0.07911679893732071,0.009083299897611141,0.051166098564863205,0.028891799971461296,-0.10420750081539154,0.04254569858312607,0.05832500010728836,0.009326400235295296,-0.02820109948515892,0.014231599867343903,-0.047373201698064804,0.026133200153708458,0.04061510041356087,0.0599794015288353,-0.07678809762001038,-0.11674939841032028,0.00746770016849041,0.013276699930429459,-0.05494460090994835,-0.08702400326728821,0.05079979822039604,-0.05914929881691933,-0.060970500111579895,-0.047715600579977036,-0.033822398632764816,0.03968130052089691,0.05703030154109001,-0.07665570080280304,0.05536689981818199,-0.010820699855685234,-0.05587150156497955,0.009815800003707409,-0.10978449881076813,-0.07719949632883072,-0.009991800412535667,-0.09600040316581726,-0.03186250105500221,0.1183961033821106,0.05283299833536148,-0.05543620139360428,0.009344900026917458,-0.012165299616754055,-0.056634001433849335,0.007428599987179041,0.003733099903911352,0.1463834047317505,0.09898170083761215,-0.01081669982522726,0.04197920113801956,-0.2271960973739624,-0.01927890069782734,-0.07105019688606262,0.07781829684972763,0.19809339940547943,-0.05463540181517601,0.08951699733734131,0.049400098621845245,-0.0594354011118412,0.07739610224962234,-0.13116760551929474,-0.11787039786577225,-0.08899559825658798,0.036456398665905,0.16282890737056732,-0.020997200161218643,0.3324461877346039,0.38704439997673035,0.17070549726486206,0.33765509724617004,0.009168599732220173,0.14177259802818298,0.26356109976768494,0.024850500747561455,0.0194690003991127,0.08523710072040558,0.1368110030889511,-0.1436416059732437,0.07786879688501358,0.12093070149421692,-0.12300880253314972,-0.007477699778974056,-0.0343472994863987,0.11235470324754715,0.1716179996728897,0.08721180260181427,-0.08345390111207962,0.09031639993190765,0.08504839986562729,-0.09870810061693192,-0.052354201674461365,-0.11702410131692886,0.14091919362545013,0.03370260074734688,-0.017257800325751305,0.059017401188611984,-0.08147279918193817,0.045633599162101746,-0.03468770161271095,-0.0005011999746784568,0.14665299654006958,0.24658450484275818,-0.009278999641537666,-0.5572656989097595,0.4583061933517456,-0.15564680099487305,-0.4820896089076996,0.036182601004838943,0.016406100243330002,0.005648099817335606,0.020791200920939445,-0.03951919823884964,-0.03786979988217354,-0.04827570170164108,-0.2120330035686493,0.0013173000188544393,-0.02812889963388443,-0.08495129644870758,0.1388847976922989,0.010971499606966972,0.026641199365258217,0.031300101429224014,0.1112883985042572,0.076944999396801,-0.020307600498199463,-0.22405420243740082,-0.1262540966272354,0.10152710229158401,0.0244073998183012,-0.02946550026535988,0.16587530076503754,0.02118859998881817,0.04585089907050133,0.09794960170984268,0.5619120001792908,0.014319700188934803,0.03860659897327423,0.1544010043144226,0.12351120263338089,-0.016527600586414337,0.22865580022335052,0.09646520018577576,0.11133839935064316,-0.08456459641456604,0.03972959890961647,0.09083160012960434,-0.11635509878396988,0.045972198247909546,0.0019101999932900071,-0.08335159718990326,0.1356543004512787,-0.10586439818143845,0.16939829289913177,0.05055680125951767,0.07943820208311081,-0.19574309885501862,0.1325521022081375,0.11810880154371262,0.09812989830970764,0.09167390316724777,-0.05522499978542328,0.09281429648399353,0.010644200257956982,-0.02881460078060627,-0.2893677055835724,-0.147324800491333,0.26046210527420044,-0.2943587899208069,0.15071189403533936,0.10443419963121414,0.08375450223684311,0.21205399930477142,0.18443529307842255,-0.2361232042312622,-0.020113099366426468,-0.2788335978984833,-0.5288724899291992,-0.2969472110271454,-0.2000097930431366,-0.5680984258651733,-0.3591924011707306,0.4030807912349701,-0.26541370153427124,-0.060332201421260834,-0.07911189645528793,0.007349600084125996,0.2966288924217224,-0.015212499536573887,0.2147125005722046,0.3151327073574066,0.23763340711593628,-0.12058450281620026,-0.0885550007224083,0.06122099980711937,0.05919560045003891,0.06572259962558746,-0.14628499746322632,0.17659150063991547,0.24280409514904022,0.1232646033167839,-0.17653410136699677,0.009040899574756622,0.06714469939470291,0.15724679827690125,0.17320820689201355,-0.01090139988809824,0.22722239792346954,0.18972590565681458,-0.003956799861043692,-0.28708571195602417,-0.6778609752655029,0.26471778750419617,-0.6460918188095093,0.08702009916305542,0.17677779495716095,-0.307156503200531,0.11108150333166122,0.1933763027191162,-0.24257540702819824,-0.12163340300321579,0.22353510558605194,-0.14920839667320251,0.3197531998157501,0.12804070115089417,-0.16557100415229797,0.10569240152835846,0.12439289689064026,-0.21860620379447937,-0.19172100722789764,0.005256299860775471,-0.1080482006072998,0.1077732965350151,-0.10557609796524048,0.2015942931175232,0.30721861124038696,0.1409136950969696,-0.2525519132614136,-0.0877785012125969,-0.1092023029923439,-0.01603809930384159,0.19506409764289856,0.2536630928516388,-0.006869200151413679,-0.07287289947271347,-0.07311189919710159,-0.2628054916858673,-0.1468539983034134,0.11061619967222214,-0.2765718102455139,-0.019744399935007095,-0.05012679845094681,-0.11083459854125977,0.1736171990633011,0.16125190258026123,0.06404130160808563,-0.052831001579761505,-0.10587739944458008,0.018354399129748344,-0.021701499819755554,0.10414379835128784,-0.19148820638656616,0.02340169996023178,0.24880670011043549,0.1675812005996704,-0.11584209650754929,-0.19171759486198425,-0.1070249006152153,-0.14189249277114868,0.2420049011707306,-0.24845010042190552,0.2622148096561432,0.2500058114528656,0.3156921863555908,0.015964200720191002,-0.34774941205978394,0.28160959482192993,-0.2769128084182739,-0.0787201002240181,-0.10548249632120132,-0.14686599373817444,0.24132660031318665,0.0030724001117050648,0.08401560038328171,-0.05143300071358681,0.3356238007545471,0.1388709992170334,-0.04849179834127426,-0.014452699571847916,0.17843300104141235,-0.23813259601593018,0.25681039690971375,-0.0343266986310482,-0.29346778988838196,0.05113760009407997,-0.07056789845228195,0.057041000574827194,-0.1686580926179886,0.05751660093665123,0.12883369624614716,0.09906460344791412,-0.047672998160123825,-0.11535979807376862,0.08040089905261993,-0.13108760118484497,0.06986469775438309,-0.19565139710903168,-0.056422799825668335,0.2045658975839615,0.22533220052719116,-0.13462980091571808,-0.07458280026912689,-0.08410529792308807,-0.23121100664138794,0.15907089412212372,-0.2557260990142822,0.024133600294589996,0.26654261350631714,0.05589060112833977,0.19164089858531952,-0.024923399090766907,0.3688299059867859,-0.2938539981842041,-0.4538950026035309,0.006510800216346979,-0.42256781458854675,-0.2266290932893753,0.23496520519256592,0.05279359966516495,-0.35264500975608826,0.2968069016933441,-0.2569848895072937,-0.03024440072476864,-0.20293860137462616,0.014439799822866917,0.30748510360717773,0.22680020332336426,-0.026463499292731285,-0.0873854011297226,0.065515898168087,-0.19080010056495667,0.17327100038528442,-0.15598280727863312,0.11976560205221176,0.22589080035686493,0.3073529899120331,-0.06802400201559067,0.027129000052809715,-0.20310570299625397,0.04805700108408928,0.04264279827475548,-0.12040360271930695,0.3215380907058716,0.13306519389152527,0.3557569980621338,-0.005943899974226952,-0.21582210063934326,0.32692548632621765,-0.2376466989517212,0.10168729722499847,-0.251714289188385,0.008975399658083916,0.12339980155229568,-0.07501079887151718,-0.07727819681167603,-0.12032239884138107,0.07551849633455276,0.14959929883480072,0.017119500786066055,0.06108679994940758,0.041249800473451614,-0.20721760392189026,0.028009699657559395,0.06465339660644531,0.10711249709129333,0.14070220291614532,0.21103359758853912,-0.1966208964586258,0.08523149788379669,-0.02542470023036003,-0.19356100261211395,-0.21596740186214447,-0.0344310998916626,0.008059600368142128,0.05884379893541336,0.1489465981721878,0.18176059424877167,-0.09790520370006561,0.14229300618171692,-0.1338185966014862,-0.09358599781990051,-0.1882741004228592,0.05268539860844612,0.030162999406456947,0.021852999925613403,-0.31709229946136475,-0.4707528054714203,-0.2552089989185333,-0.20065230131149292,-0.07508940249681473,-0.06938710063695908,-0.05649289861321449,0.18723739683628082,0.20067879557609558,-0.011711499653756618,0.16540279984474182,0.08110450208187103,-0.09475229680538177,-0.04928100109100342,-0.13467000424861908,0.08540009707212448,0.14012360572814941,0.18527820706367493,0.07872220128774643,0.10046330094337463,-0.005655299872159958,-0.17016279697418213,0.027651799842715263,-0.011174799874424934,-0.024836299940943718,0.009686400182545185,0.13291840255260468,-0.009450400248169899,0.04875029996037483,-0.014371899887919426,-0.19451619684696198,-0.6627843976020813,-0.28933390974998474,-0.4700357913970947,-0.26855599880218506,0.09639789909124374,0.5622240900993347,-0.4251275062561035,-0.19014130532741547,-0.3011817932128906,-0.1028532013297081,0.09673939645290375,0.16357819736003876,0.12445720285177231,0.30250680446624756,0.22634130716323853,-0.018544500693678856,0.25481370091438293,-0.13061170279979706,0.013488399796187878,-0.056383199989795685,0.03612289950251579,0.21775439381599426,0.14014729857444763,0.07360690087080002,-0.0011312999995425344,0.10491520166397095,-0.05420070141553879,-0.019006500020623207,0.1247636005282402,0.15300659835338593,-0.050558801740407944,0.07549340277910233,-0.2883380055427551,-0.05741779878735542,-0.20270930230617523,-0.26603439450263977,-0.16594280302524567,-0.009280599653720856,0.11419110000133514,0.09073460102081299,0.0794605016708374,0.19443440437316895,-0.0898142009973526,0.1270546019077301,-0.21277140080928802,0.019711900502443314,0.13388580083847046,0.212458997964859,-0.1625702977180481,0.09398210048675537,0.2693530023097992,0.06178779900074005,0.02779969945549965,0.20246270298957825,-0.03440359979867935,-0.04156859964132309,0.20571699738502502,-0.24519529938697815,0.09272930026054382,0.27656540274620056,0.19382919371128082,0.04606249928474426,0.10416849702596664,-0.06058960035443306,-0.0015966000501066446,-0.0018633999861776829,-0.08941630274057388,-0.18819549679756165,0.18042929470539093,-0.005197400227189064,0.022609099745750427,0.11884920299053192,-0.4621067941188812,0.44175681471824646,0.3654341995716095,0.5807731747627258,-0.4996111989021301,0.10142689943313599,-0.06889130175113678,-0.13135680556297302,-0.7019451856613159,-0.23639950156211853,0.11531859636306763,0.2588416039943695,-0.12622199952602386,-0.24874399602413177,0.30740779638290405,0.053175799548625946,0.006509299855679274,0.06856530159711838,-0.11214800179004669,0.26947179436683655,0.09855680167675018,-0.11842869967222214,-0.18837560713291168,0.10394919663667679,0.10660240054130554,-0.06134980171918869,-0.07325849682092667,0.07759000360965729,0.018706999719142914,0.2375950962305069,-0.052552200853824615,0.05388600006699562,0.18141770362854004,0.1011521965265274,0.06992480158805847,0.20806659758090973,0.5565335750579834,0.41101470589637756,-0.9532461762428284,-0.19225899875164032,-0.4131081998348236,-0.7003664970397949,-0.2748531997203827,-0.18525519967079163,0.15575070679187775,-0.2176899015903473,0.04079680144786835,0.25993070006370544,-0.14691300690174103,-0.11919339746236801,0.42780518531799316,0.12289760261774063,0.11215080320835114,0.06820660084486008,0.03547380119562149,0.06533949822187424,-0.08593960106372833,-0.22752049565315247,-0.18981030583381653,0.270149290561676,-0.0953034982085228,-0.1979956030845642,0.19220760464668274,-0.16500109434127808,-0.11908700317144394,0.28140169382095337,0.20449280738830566,-0.1612313985824585,0.045648399740457535,-0.06346750259399414,0.04760180041193962,-0.021795600652694702,-0.09154529869556427,0.16931059956550598,-0.1106363981962204,-0.1716119945049286,-0.19082219898700714,0.31934648752212524,-0.16482959687709808,-0.05835460126399994,0.15475809574127197,-0.08737169951200485,0.010983100160956383,0.041843101382255554,0.13258659839630127,0.10205210000276566,0.040873099118471146,0.16303859651088715,-0.09396229684352875,-0.12222699820995331,-0.05913909897208214,0.10191129893064499,0.3073568046092987,0.18271850049495697,0.061498600989580154,-0.11059779673814774,0.1965710073709488,-0.004977699834853411,-0.1648276001214981,-0.4605480134487152,-0.12528739869594574,0.15546660125255585,-0.03415270149707794,0.18777060508728027,0.040297601372003555,0.07333099842071533,0.25677570700645447,-0.12462259829044342,-0.34569481015205383,-0.4557349979877472,0.0593268983066082,-0.29039520025253296,-0.11810559779405594,-0.11531010270118713,-0.3331778943538666,-0.11832720041275024,0.4369271993637085,-0.22627119719982147,-0.10867760330438614,0.13399440050125122,0.05247649922966957,0.04340469837188721,0.07272329926490784,0.2240854948759079,0.09130220115184784,-0.13691739737987518,-0.21709440648555756,-0.07796890288591385,0.1840450018644333,0.07408549636602402,0.031753599643707275,0.08016549795866013,0.05794920027256012,0.033998601138591766,-0.07993879914283752,-0.169561505317688,0.043592799454927444,0.13604849576950073,0.12565970420837402,0.14342519640922546,0.0633167028427124,0.08970049768686295,0.08414199948310852,-0.10286860167980194,-0.5445036292076111,-0.5409048199653625,0.03594860062003136,-0.16239839792251587,-0.05487709864974022,0.47595301270484924,-0.2714928984642029,0.28607600927352905,0.13080540299415588,-0.24819019436836243,-0.19356979429721832,0.09835950285196304,-0.22996670007705688,0.24036410450935364,0.10663250088691711,0.09783720225095749,0.3079245984554291,-0.05439240112900734,-0.300777792930603,-0.15270400047302246,0.21679429709911346,0.10681010037660599,-0.017834199592471123,-0.02323959954082966,0.04079329967498779,0.02450699917972088,-0.12542590498924255,-0.03468019887804985,-0.017841000109910965,-0.10199230164289474,-0.029180800542235374,0.02798590064048767,0.014773099683225155,-0.016650499776005745,-0.16317880153656006,-0.016629500314593315,-0.3372611999511719,-0.2149856984615326,0.17335960268974304,-0.10060170292854309,0.16584959626197815,0.147091805934906,0.06552790105342865,0.22707979381084442,-0.06544320285320282]},"features.3.bias":{"shape":[24],"data":[-0.02242260053753853,0.053403500467538834,-0.09332200139760971,-0.09508249908685684,-0.04404769837856293,0.044516198337078094,-0.2479986995458603,-0.06465160101652145,0.07208540290594101,-0.11372499912977219,-0.034717101603746414,-0.1519525945186615,0.0849573016166687,-0.03122830018401146,-0.06741520017385483,-0.13070930540561676,0.2392513006925583,-0.07665850222110748,-0.13441400229930878,0.1022322028875351,-0.0874708965420723,-0.04115020111203194,-0.029979899525642395,-0.13068999350070953]},"classifier.1.weight":{"shape":[48,384],"data":[0.038316600024700165,-0.04847300052642822,-0.03677060082554817,-0.05881369858980179,0.012720899656414986,-0.03583649918437004,0.0010513999732211232,0.021993199363350868,0.03556070104241371,0.018401099368929863,0.004639400169253349,0.026482099667191505,-0.003975899890065193,0.03273250162601471,0.024017300456762314,-0.06044220179319382,0.04917119815945625,0.038672398775815964,-0.03631430119276047,0.023847399279475212,0.014576300047338009,0.0239982008934021,-0.005056300200521946,-0.020735599100589752,-0.051779501140117645,-0.03852609917521477,-0.059108998626470566,-0.007521000225096941,-0.06186329945921898,-0.015571299940347672,0.0333263985812664,0.019424399361014366,-0.013402399607002735,-0.056644000113010406,-0.0009603999787941575,0.034175798296928406,0.025065699592232704,-0.017492100596427917,-0.04296420142054558,-0.027295999228954315,-0.0006259999936446548,-0.04872719943523407,-0.061246998608112335,0.009959699586033821,-0.016985099762678146,-0.0479407012462616,-0.03956390172243118,0.03308049961924553,0.010670199990272522,-0.03326220065355301,0.0485352985560894,-0.050822000950574875,-0.010053000412881374,0.02883479930460453,0.0045043001882731915,0.03311790153384209,0.006956900004297495,0.029488200321793556,-0.005391799844801426,0.0006022999878041446,0.02015569992363453,0.009572000242769718,0.007274699863046408,-0.0485105998814106,-0.0512303002178669,-0.013020300306379795,-0.019338199868798256,0.02597999945282936,0.012890899553894997,-0.04242970049381256,-0.0050479997880756855,-0.034018900245428085,-0.015076199546456337,0.022122899070382118,-0.04351690039038658,-0.029068199917674065,-0.036009300500154495,-0.000308599992422387,0.015293999575078487,0.02542239986360073,-0.030938800424337387,-0.010784399695694447,-0.04216179996728897,0.03123980015516281,-0.0537090003490448,-0.042110100388526917,0.015457600355148315,0.0024784000124782324,0.016195299103856087,-0.013388699851930141,-0.05280840024352074,-0.0590456984937191,0.02856609970331192,-0.03466229885816574,-0.03367510065436363,-0.0010592000326141715,-0.02134310081601143,0.011928100138902664,-0.0001542999962111935,-0.005486300215125084,-0.025962699204683304,-0.05410660058259964,-0.05666869878768921,-0.04836390167474747,-0.006452899891883135,0.0038558999076485634,0.021919099614024162,-0.003399499924853444,-0.044076498597860336,-0.04897240176796913,-0.05327079817652702,0.0003912000101990998,-0.05957629904150963,0.02569580078125,0.004431100096553564,-0.05049410089850426,-0.03344690054655075,-0.0455189011991024,0.009173800237476826,0.0015722999814897776,0.010805499739944935,-0.03078709915280342,-0.02502720057964325,0.028733400627970695,-0.05993510037660599,0.009129400365054607,-0.021713800728321075,-0.02251569926738739,0.022175399586558342,-0.018395699560642242,0.030410099774599075,-0.0518345981836319,-0.014131500385701656,0.011171599850058556,0.015670200809836388,-0.04583730176091194,-0.05493289977312088,-0.04823850095272064,-0.04674239829182625,-0.0028649000450968742,-0.0015818000538274646,-0.006827299948781729,-0.023282000795006752,-0.0033682999201118946,0.0032774000428617,0.019252799451351166,-0.004289600066840649,-0.055705200880765915,-0.027557700872421265,0.0051229000091552734,-0.029309099540114403,-0.003325799945741892,0.03615900129079819,-0.05128290131688118,-0.006454899907112122,-0.06171309947967529,-0.02392899990081787,-0.022386500611901283,0.0038658000994473696,0.011850300244987011,-0.023074999451637268,-0.02887050062417984,-0.04050249978899956,-0.025154799222946167,-0.04866719990968704,-0.048030100762844086,-0.009883799590170383,0.019982799887657166,-0.05149390175938606,0.00040660001104697585,-0.020019199699163437,-0.016149500384926796,-0.05823490023612976,0.02720640040934086,-0.024589600041508675,-0.015167700126767159,-0.026322200894355774,0.03854160010814667,0.01357369963079691,0.004424999933689833,-0.03228370100259781,0.022214600816369057,-0.05374769866466522,-0.02705949917435646,0.03673519939184189,-0.016367200762033463,-4.5900000259280205e-05,-0.011888200417160988,-0.06017480045557022,0.03752300143241882,0.02874539978802204,0.01180179975926876,-0.012552700005471706,-0.016727399080991745,-0.013129799626767635,0.013325500302016735,-0.040388599038124084,-0.06095999851822853,-0.052072200924158096,-0.03516789898276329,0.005641300231218338,0.001027400023303926,-0.04171080142259598,-0.007549900095909834,-0.007379699964076281,-0.05767799913883209,-0.05303259938955307,0.03411589935421944,0.033560801297426224,0.022875700145959854,-0.009548500180244446,-0.057891398668289185,-0.011096600443124771,0.024611199274659157,-0.0029559999238699675,-0.031665101647377014,0.019802099093794823,-0.048670098185539246,-0.047655701637268066,0.02943900041282177,0.03766530007123947,-0.015118399634957314,0.028566399589180946,-0.04186899960041046,0.004102000035345554,-0.0456680990755558,-0.0009471999946981668,0.03657500073313713,0.015224399976432323,-0.0032526999711990356,-0.050974100828170776,-0.013442699797451496,-0.025803500786423683,-0.03256849944591522,-0.0500498004257679,0.02503019943833351,-0.03781130164861679,0.019639000296592712,-0.002490099985152483,0.017710499465465546,-0.05836689844727516,-0.042041800916194916,-0.018095599487423897,0.03506480157375336,0.0028341999277472496,-0.040712401270866394,0.034836601465940475,-0.014508699998259544,-0.02231770008802414,0.014597100205719471,0.010913300327956676,0.029568400233983994,0.022838100790977478,-0.018606100231409073,-0.005895600188523531,0.026293499395251274,0.027013199403882027,-0.05849890038371086,-0.04146609827876091,-0.044342800974845886,0.03715210035443306,-0.031212300062179565,-0.002870999975129962,0.016909999772906303,-0.001388499978929758,-0.03268979862332344,-0.023166300728917122,-0.015314199961721897,-0.0029955999925732613,-0.02709279954433441,-0.018001500517129898,0.006176200229674578,0.018552999943494797,-0.02669519931077957,-0.050047699362039566,-0.030888399109244347,0.001815499970689416,-0.0458437018096447,-0.012756800279021263,0.009806799702346325,0.04712719842791557,-0.037943098694086075,0.0483487993478775,-0.012932400219142437,0.03886619955301285,-0.033750999718904495,-0.002808700082823634,-0.05002729967236519,-0.03313719853758812,0.027361299842596054,-0.011454899795353413,-0.006847300101071596,-0.023920699954032898,0.007602099794894457,0.005063199903815985,0.020609499886631966,-0.027463600039482117,0.03362119942903519,-0.032499998807907104,-0.05537790060043335,-0.028158200904726982,-0.01694590039551258,0.013024499639868736,-0.014661099761724472,0.03533349931240082,-0.013325500302016735,-0.025966599583625793,-0.012155399657785892,-0.04391749948263168,-0.01618090085685253,-0.029659299179911613,-0.008336000144481659,-0.026117300614714622,-0.0063680000603199005,-0.020632699131965637,0.018505500629544258,0.0062837000004947186,-0.05674630030989647,-0.00027119999867863953,-0.0465346984565258,-0.05592520162463188,-0.011435099877417088,0.048002198338508606,0.008802699856460094,0.03242630138993263,0.02098269946873188,-0.04507710039615631,-0.030319400131702423,-0.014621599577367306,-0.026019100099802017,0.02896150015294552,0.028543399646878242,-0.011511700227856636,0.02619840018451214,-0.03670300170779228,0.013666300103068352,0.0029104999266564846,-0.003981300164014101,-0.010436000302433968,0.02309270016849041,-0.009195899590849876,0.002677900018170476,-0.04824579879641533,-0.0056627001613378525,-0.0507596991956234,-0.010739999823272228,-0.024038000032305717,0.028148500248789787,-0.01588759943842888,0.005632900167256594,-0.056741900742053986,-0.02295050024986267,0.026488499715924263,0.026875300332903862,0.026105700060725212,-0.019418200477957726,0.028005799278616905,0.027800800278782845,-0.03326230123639107,0.01300089992582798,0.009861700236797333,-0.05875629931688309,-0.037127599120140076,-0.03913889825344086,0.001509999972768128,-0.04541189968585968,0.01061789970844984,-0.047048598527908325,0.016168400645256042,-0.0029225999023765326,-0.04600520059466362,-0.012895800173282623,-0.00024059999850578606,0.004909500014036894,0.026064500212669373,0.026193199679255486,0.02304459922015667,0.019475599750876427,0.013621100224554539,-0.011223100125789642,0.014608900062739849,-0.0012561000185087323,-0.022402100265026093,0.003446900052949786,-0.10798659920692444,0.05476060137152672,-0.02901739999651909,-0.01299550011754036,-0.05080839991569519,-0.0653780996799469,-0.022244000807404518,-0.011275299824774265,0.14897720515727997,0.11026930063962936,0.05153689906001091,-0.04099779948592186,0.13566480576992035,-0.1535625010728836,0.00657870015129447,0.19523219764232635,-0.12429080158472061,0.03606430068612099,0.39376959204673767,-0.05178689956665039,-0.03506910055875778,-0.043938398361206055,-0.07592850178480148,0.09634879976511002,-0.2545054852962494,0.01449859980493784,0.1029151976108551,0.10791320353746414,-0.028505200520157814,0.0338951013982296,0.047776199877262115,-0.14947359263896942,-0.11482139676809311,-0.033252399414777756,-0.022500699386000633,-0.032896801829338074,-0.03479060158133507,-0.025144699960947037,-0.07941389828920364,4.149999949731864e-05,0.14533939957618713,0.17922590672969818,-0.008767800405621529,-0.14003659784793854,0.08012639731168747,0.019313499331474304,-0.1112309992313385,0.06825140118598938,0.04520519822835922,0.026828700676560402,-0.010684399865567684,0.04736199975013733,0.014085800386965275,0.012365800328552723,0.0342026986181736,0.0466713011264801,-0.0380157008767128,0.027351299300789833,-0.017966799437999725,-0.043839000165462494,0.0319598987698555,0.020010100677609444,-0.0014329999685287476,0.00436619995161891,-0.049670301377773285,0.05721089988946915,0.012362999841570854,0.04809579998254776,-0.12645919620990753,-0.10819289833307266,-0.040306899696588516,0.07929980009794235,0.11140680313110352,0.06454259902238846,0.03184960037469864,-0.06403490155935287,0.07393190264701843,0.12914030253887177,0.09907089918851852,-0.0025464000646024942,-0.08400530368089676,-0.08368829637765884,-0.027944199740886688,-0.059960100799798965,-0.04635940119624138,-0.005606399849057198,-0.035337600857019424,-0.004768500104546547,-0.10291679948568344,0.1088050976395607,-0.03924009948968887,0.024045800790190697,0.004307600203901529,0.056236300617456436,-0.07702340185642242,0.15170730650424957,0.17795729637145996,0.059620000422000885,0.002224799944087863,0.017511099576950073,-0.2170758992433548,0.011439399793744087,-0.0025581999216228724,0.018357999622821808,0.06668730080127716,0.09521350264549255,-0.15044179558753967,-0.03860589861869812,0.0323633998632431,0.009884700179100037,0.0452519990503788,0.1391821950674057,-0.09212920069694519,-0.02156740054488182,0.014149599708616734,0.07772479951381683,-0.04746700078248978,-0.01769380085170269,0.02261050045490265,-0.04913749918341637,0.1015767976641655,-0.061611298471689224,-0.015305900014936924,0.019480200484395027,0.06617049872875214,0.04149319976568222,0.18058909475803375,-0.10054919868707657,-0.02821349911391735,0.009859999641776085,0.09540370106697083,-0.03621470183134079,0.042174000293016434,-0.11151939630508423,-0.0025279999244958162,0.05033290013670921,0.3371540904045105,0.103234201669693,-0.27279800176620483,-0.04384370148181915,-0.22064180672168732,0.07614810019731522,-0.07199080288410187,0.04908350110054016,-0.024628600105643272,-0.121806301176548,0.06234470009803772,-0.03602540120482445,-0.04474849998950958,0.003885299898684025,0.04003399983048439,0.06743539869785309,-0.06224609911441803,0.0462942011654377,0.0036689999978989363,0.03007820062339306,-0.14919039607048035,-0.03416610136628151,0.035098299384117126,0.23530159890651703,0.09427759796380997,0.06411640346050262,0.010234500281512737,0.0014386000111699104,-0.2106183022260666,-0.05551980063319206,0.013606799766421318,0.0994018018245697,0.21664060652256012,0.17498040199279785,-0.15618260204792023,-0.08315890282392502,0.005722899921238422,-0.06356869637966156,0.0204865001142025,0.05194170027971268,-0.0801301971077919,0.018195999786257744,-0.016504500061273575,0.028499899432063103,-0.13396510481834412,-0.05638419836759567,-0.006282899994403124,0.08617989718914032,0.15512560307979584,0.18814140558242798,-0.13272599875926971,-0.04357970133423805,0.039863500744104385,-0.10193029791116714,-0.1281801015138626,0.06937260180711746,-0.0798477977514267,-0.01818240061402321,-0.019203800708055496,-0.017174499109387398,0.08657360076904297,0.03914840146899223,0.03939669951796532,-0.023005900904536247,0.14130809903144836,-0.03312059864401817,0.07635760307312012,0.0927330031991005,0.0019849000964313745,0.05464370176196098,0.12106569856405258,0.08154969662427902,-0.0816378965973854,-0.01865769922733307,-0.014563100412487984,-0.02455819956958294,0.00034989998675882816,-0.052736200392246246,-0.03717619925737381,0.020229099318385124,-0.10095590353012085,0.0824906975030899,0.11752720177173615,0.05427689850330353,-0.058385398238897324,0.009083099663257599,0.04070869833230972,0.14454199373722076,-0.11391539871692657,-0.14509999752044678,0.010747799649834633,-0.025975100696086884,-0.07679220288991928,0.018467599526047707,-0.04078489914536476,0.011447099968791008,-0.13827450573444366,0.1454019993543625,0.17983730137348175,0.14077630639076233,-0.09707649797201157,0.01339690014719963,-0.04100849851965904,0.13724879920482635,0.09594839811325073,0.09231580048799515,0.08710560202598572,0.02912059985101223,-0.2035817950963974,-0.007778100203722715,0.048023298382759094,0.09932319819927216,0.08375769853591919,0.03243599832057953,0.07983510196208954,0.001811400055885315,-0.000817699998151511,-0.08249440044164658,0.04432699829339981,0.068892702460289,0.03376619890332222,0.01798580028116703,0.0002848999865818769,0.00319859990850091,-0.04251139983534813,0.12224649637937546,0.047251198440790176,-0.13581180572509766,0.25471219420433044,-0.1465774029493332,-0.5207769870758057,0.05966759845614433,-0.11085449904203415,-0.14360560476779938,-0.10199400037527084,-0.22391870617866516,-0.008754399605095387,-0.04178189858794212,-0.013741699978709221,0.018887599930167198,0.009519100189208984,-0.020314199849963188,-0.008829999715089798,0.00782059971243143,-0.011381199583411217,0.04255269840359688,-0.005792300216853619,-0.0034610999282449484,-0.022465400397777557,-0.003254600102081895,0.046427398920059204,-0.017833400517702103,-0.09232659637928009,-0.03105969913303852,0.04115140065550804,-0.046820998191833496,-0.037096600979566574,-0.018196899443864822,0.025520499795675278,0.05246720090508461,0.02665179967880249,-0.08204430341720581,0.01655549928545952,0.034926898777484894,0.106175497174263,0.1179698035120964,0.08839689940214157,0.01405009999871254,0.04243319854140282,0.00913699995726347,-0.022296400740742683,0.05568090081214905,-0.034341998398303986,0.029039200395345688,-0.00023299999884329736,-0.15891499817371368,0.12178059667348862,0.16146360337734222,0.08014590293169022,-0.24929240345954895,-0.08723960071802139,-0.21686139702796936,-0.13483889400959015,0.043573301285505295,-0.034665901213884354,0.006812499836087227,0.10669799894094467,-0.14721719920635223,-0.033230699598789215,-0.03414180129766464,-0.042502399533987045,0.08069080114364624,0.26438429951667786,0.3466266989707947,-0.11766859889030457,0.12263909727334976,0.22252750396728516,0.1161051020026207,-0.16439999639987946,-0.05845370143651962,0.05180719867348671,0.07405970245599747,0.010112199932336807,-0.008436400443315506,-0.09829460084438324,0.06503619998693466,-0.09675119817256927,0.0026400000788271427,-0.01996760070323944,0.1693439930677414,-0.13687899708747864,-0.06040310114622116,0.02103639952838421,-0.05158250033855438,-0.07446230202913284,0.009934799745678902,-0.055761199444532394,0.06008639931678772,-0.06288129836320877,-0.05258629843592644,-0.0530363991856575,0.077435702085495,0.14296360313892365,0.0472692996263504,0.11496579647064209,-0.13729490339756012,-0.03129789978265762,-0.09547050297260284,-0.05689160153269768,-0.002389000030234456,0.15868419408798218,-0.1474549025297165,0.07734040170907974,0.1148907020688057,-0.05972690135240555,-0.046272698789834976,-0.04062759876251221,0.13908320665359497,-0.18865260481834412,0.017372699454426765,0.049341898411512375,0.18415719270706177,-0.04479910060763359,-0.17342239618301392,0.06830489635467529,-0.16661709547042847,-0.20654159784317017,0.05926860123872757,0.05282109975814819,0.0026821999344974756,0.04006100073456764,0.008713600225746632,0.023879999294877052,-0.0058756000362336636,-0.018338199704885483,-0.03692980110645294,-0.017685899510979652,-0.007406000047922134,-0.150723397731781,-0.055737800896167755,0.03580800071358681,-0.019459299743175507,-0.11223790049552917,0.2705448865890503,0.1629018932580948,-0.02876720018684864,-0.13057200610637665,0.06661000102758408,0.2922250032424927,0.12582239508628845,0.12443140149116516,0.001879399991594255,-0.05497720092535019,-0.022607499733567238,0.03611639887094498,0.07978329807519913,-0.11858680099248886,0.039417799562215805,0.09357109665870667,0.10073830187320709,-0.035446301102638245,-0.0005222000181674957,0.04420189931988716,-0.005398800130933523,0.07084230333566666,-0.09026160091161728,0.07749299705028534,-0.007445100229233503,0.0430620014667511,0.1104969009757042,-0.02897780016064644,-0.05082790181040764,0.11935389786958694,0.021557500585913658,-0.02786160074174404,0.084402896463871,-0.042250800877809525,0.04633580148220062,0.03221900016069412,-0.006455699913203716,-0.007396100088953972,-0.05067579820752144,-0.02404719963669777,0.04401339963078499,0.011588100343942642,-0.05011729896068573,8.27999974717386e-05,0.007882200181484222,0.05670740082859993,-0.05030979961156845,-0.03351590037345886,0.02018279954791069,-0.05244550108909607,-0.0008715000003576279,-0.01115410029888153,0.025631800293922424,0.13383309543132782,0.22844140231609344,0.1809002012014389,0.1089698001742363,-0.06361079961061478,-0.01712469942867756,-0.006727300118654966,-0.023886900395154953,-0.030396200716495514,0.011647599749267101,0.011723999865353107,-0.09797140210866928,-0.03835500031709671,-0.010751900263130665,0.03611389920115471,0.057744599878787994,0.06390029937028885,-0.10708890110254288,0.015503100119531155,-0.06071700155735016,0.12275700271129608,0.09206370264291763,-0.012535699643194675,-0.1534269005060196,0.07229830324649811,0.1416139006614685,0.08316929638385773,-0.01525190006941557,0.03694019839167595,-0.04136279970407486,0.046214599162340164,0.07179830223321915,0.14410610496997833,0.040668100118637085,0.09130880236625671,-0.008401799947023392,-0.09927629679441452,-0.036417100578546524,-0.07684160023927689,-0.16263720393180847,0.0005898000090382993,-0.02775599993765354,0.01993189938366413,0.011122900061309338,0.01990099996328354,-0.04461539909243584,0.0353533998131752,-0.05360129848122597,-0.053967300802469254,0.060642000287771225,0.06982319802045822,0.09699639678001404,-0.08087020367383957,0.038387101143598557,-0.1250969022512436,0.09640359878540039,-0.020236700773239136,0.07982999831438065,-0.013774399645626545,0.16084329783916473,-0.005728499963879585,0.049074798822402954,-0.040211498737335205,0.062482401728630066,-0.04416370019316673,0.09224019944667816,0.1942978948354721,0.08051349967718124,0.16910819709300995,0.1876019984483719,-0.029733700677752495,-0.11235219985246658,-0.060907598584890366,0.06558570265769958,0.18247449398040771,-0.003153699915856123,0.06234139949083328,0.055184800177812576,0.022704100236296654,0.033566199243068695,-0.04015989974141121,-0.1038258969783783,-0.08500420302152634,-0.10140480101108551,0.07052169740200043,0.1410733014345169,-0.06876999884843826,-0.1201976016163826,-0.03317460045218468,-0.03362319990992546,0.10229989886283875,0.07639600336551666,0.12823079526424408,0.024159500375390053,0.03893499821424484,0.02191389910876751,0.1199771985411644,0.14638659358024597,0.20493990182876587,0.03261680155992508,-0.10522480309009552,-0.010728900320827961,-0.04302519932389259,-0.17605060338974,-0.023396600037813187,0.08444420248270035,0.05094140022993088,0.011717800050973892,-0.07780180126428604,0.15872900187969208,0.10575780272483826,0.11519119888544083,0.04911290109157562,0.04079720005393028,0.1773741990327835,0.06170300021767616,0.026027599349617958,0.1352503001689911,-0.061577800661325455,-0.13545720279216766,0.03796419873833656,0.05769279971718788,-0.06238289922475815,0.013982499949634075,0.040674399584531784,0.022165099158883095,0.05588860064744949,0.04327839985489845,-0.21848249435424805,-0.11706340312957764,-0.1662220060825348,-0.08666600286960602,0.08538640290498734,-0.0316632017493248,-0.0013689999468624592,-0.03962159901857376,-0.10500519722700119,-0.19522279500961304,0.06593780219554901,0.02506149932742119,0.07319019734859467,0.046716898679733276,0.01370210014283657,0.06591569632291794,-0.06028040125966072,-0.130001500248909,-0.09372159838676453,-0.038993701338768005,-0.024237100034952164,-0.013612199574708939,0.032402098178863525,-0.04095949977636337,-0.16599559783935547,-0.09372740238904953,0.11751449853181839,0.015368100255727768,0.018682999536395073,0.0018020999850705266,0.030903499573469162,0.08507040143013,-0.14263589680194855,-0.15150150656700134,-0.10607539862394333,-0.11446879804134369,0.0220854002982378,-0.1616709977388382,0.07980109751224518,-0.014376400038599968,-0.32105690240859985,-0.05242310091853142,0.019152499735355377,-0.01350880041718483,-0.15267419815063477,-0.009249799884855747,-0.070940300822258,0.03871519863605499,0.19353990256786346,0.153152197599411,0.12907490134239197,0.16621039807796478,-0.1956896036863327,-0.2412002980709076,-0.1215381994843483,-0.23315520584583282,-0.04663980007171631,-0.06354550272226334,-0.013876100070774555,-0.03838859871029854,0.026635300368070602,-0.03143079951405525,0.0761767029762268,-0.05459500104188919,-0.0647381991147995,-0.05953599885106087,-0.1463238000869751,-0.0452876016497612,0.13954110443592072,0.2653692960739136,0.19829300045967102,0.09308409690856934,0.020984100177884102,0.3114025890827179,-0.1664465069770813,-0.20502980053424835,0.022041400894522667,-0.022449899464845657,0.047996100038290024,0.015526399947702885,-0.03804529830813408,-0.008830900304019451,-0.01783120073378086,0.009978099726140499,-0.0033414000645279884,0.014998000115156174,-0.03731520101428032,-0.036670900881290436,-0.052062198519706726,0.06735999882221222,-0.01805810071527958,0.03293300047516823,-0.0027544000186026096,-0.023547999560832977,0.05744360014796257,0.038068100810050964,-0.14200420677661896,0.05186070129275322,0.026259800419211388,0.03730329871177673,-0.12117449939250946,-0.13790899515151978,-0.06116719916462898,-0.054983701556921005,-0.014546699821949005,0.03336789831519127,0.022306999191641808,-0.06845869868993759,0.1168283000588417,-0.009174900129437447,-0.02323490008711815,0.03393489867448807,-0.07504239678382874,-0.1696375012397766,0.0026140999980270863,-0.22313620150089264,-0.048663198947906494,0.12065629661083221,0.2734563946723938,0.22439250349998474,-0.06922759860754013,0.06265640258789062,-0.02590099908411503,-0.14042210578918457,0.08316919952630997,0.10308080166578293,0.2008305937051773,-0.2667112946510315,-0.0910160019993782,-0.11885890364646912,-0.14658670127391815,0.2750070095062256,0.22625480592250824,-0.029738200828433037,-0.2802855968475342,-0.1988234966993332,-0.1490969955921173,0.12590019404888153,-0.1363389939069748,-0.05468739941716194,0.028139499947428703,-0.01971209980547428,0.09411430358886719,0.08781339973211288,0.1988653987646103,0.1000543013215065,0.11078129708766937,-0.023965999484062195,0.10470280051231384,0.057951901108026505,-0.0507081001996994,-0.08514180034399033,0.03387890011072159,0.003274899907410145,-0.06999590247869492,0.09339399635791779,0.017352400347590446,-0.08328220248222351,0.16117340326309204,-0.018952900543808937,-0.12156199663877487,0.09693849831819534,0.06187820062041283,-0.48487699031829834,-0.009620199911296368,0.19463559985160828,-0.014901399612426758,-0.027688300237059593,-0.10560189932584763,0.09412980079650879,0.1387334018945694,0.3219780921936035,0.11018549650907516,-0.02597769908607006,0.08687440305948257,0.04902080073952675,0.0035480998922139406,-0.12595809996128082,0.0813606008887291,-0.14694440364837646,-0.0355788990855217,0.16276870667934418,0.15374690294265747,0.20384259521961212,0.019001899287104607,0.1689479947090149,0.007125599775463343,-0.026439299806952477,-0.047023601830005646,-0.021185899153351784,-0.009076599963009357,-0.025199899449944496,0.014457699842751026,0.027123600244522095,-0.023421699181199074,-0.057864800095558167,0.03845769912004471,0.03862849995493889,0.048928599804639816,-0.027894500643014908,0.010161600075662136,0.001003999961540103,-0.016121799126267433,-0.0027972001116722822,-0.04236169904470444,0.026748299598693848,-0.04777529835700989,-0.022983800619840622,0.00969529990106821,0.04398370161652565,0.045975200831890106,0.00133050000295043,-0.050008200109004974,-0.01789640076458454,0.03513890132308006,-0.015138300135731697,-0.04504210129380226,0.022350000217556953,0.019169999286532402,0.009045800194144249,0.024446899071335793,-0.030827799811959267,-0.05741799995303154,-0.058027900755405426,-0.005122699774801731,-0.061622101813554764,-0.030766500160098076,-0.036794401705265045,-0.028579799458384514,-0.010446700267493725,0.004116400144994259,0.03759840130805969,-0.060240600258111954,-0.05846039950847626,-0.0328575000166893,-0.014688599854707718,-0.03899620100855827,0.017938800156116486,-0.011744599789381027,0.022838300094008446,0.011795099824666977,0.025239499285817146,0.049517299979925156,-0.02864599972963333,-0.03728500008583069,-0.025132600218057632,-0.03873160108923912,-0.042900200933218,0.04972609877586365,-0.0046316999942064285,0.044498998671770096,0.040678899735212326,0.00041879998752847314,0.016816800460219383,-0.040588900446891785,0.028983699157834053,-0.04741929844021797,0.02940800040960312,-0.012055199593305588,-0.04996180161833763,-0.040442898869514465,0.026931999251246452,-0.055867999792099,-0.011459399946033955,0.023141099140048027,0.02337859943509102,0.01389820035547018,0.03645730018615723,-0.05529410019516945,-0.015040500089526176,-0.0294950008392334,0.024782000109553337,-0.041102100163698196,-0.018274299800395966,0.008624699898064137,-0.02510800026357174,-0.061454400420188904,0.0302652008831501,-0.036913998425006866,0.030401799827814102,-0.043234698474407196,-0.058747000992298126,0.029170099645853043,0.018593499436974525,0.05014140158891678,-0.003043100005015731,0.028890399262309074,-0.001699000014923513,-0.005747999995946884,-0.03275270015001297,0.021810399368405342,-0.006590699777007103,-0.013123500160872936,-0.03639540076255798,-0.027172699570655823,-0.056950099766254425,-0.00028229999588802457,0.02681180089712143,-0.049832798540592194,-0.0011082000564783812,-0.01750430092215538,0.016017600893974304,0.019202500581741333,-0.033445101231336594,0.002251700032502413,-0.036685798317193985,-0.046917300671339035,0.015916699543595314,-0.051975999027490616,0.0076326001435518265,-0.02085920050740242,0.033154599368572235,-0.004848400130867958,-0.060729701071977615,-0.01648239977657795,-0.007497100159525871,-0.016354000195860863,-0.004692600108683109,-0.01113159954547882,-0.021201500669121742,-0.04372449964284897,0.02413420006632805,0.013269499875605106,0.028322899714112282,-0.004397700075060129,-0.03168940171599388,-0.045651499181985855,-0.03743999823927879,-0.0247833002358675,-0.022327600046992302,-0.03779419884085655,0.016725799068808556,-0.03571990132331848,-0.048662301152944565,-0.006147599779069424,-0.03606279939413071,0.026124700903892517,-0.01860780082643032,-0.020955700427293777,-0.04830930009484291,0.013857999816536903,-0.03338940069079399,0.003292700042948127,0.034346699714660645,-0.039503201842308044,-0.030018199235200882,-0.04470419883728027,-0.03231839835643768,-0.00020599999697878957,0.005275299772620201,0.007846299558877945,0.0038608000613749027,0.017141500487923622,-0.01385200023651123,0.004377199802547693,-0.04414299875497818,-0.02655770070850849,-0.04974440112709999,-0.0540073998272419,0.025066999718546867,0.03696709871292114,-0.04865130037069321,-0.05383700132369995,0.03856480121612549,0.00926740001887083,-0.016193300485610962,0.01367919985204935,-0.016725700348615646,0.018045200034976006,-0.02745480090379715,-0.05309639871120453,-0.015103500336408615,-0.010722099803388119,-0.007228100206702948,0.010707500390708447,0.01511829998344183,-0.04138309881091118,-0.008054500445723534,-0.049017101526260376,0.024747099727392197,0.03061559982597828,0.008056599646806717,0.02212809957563877,-0.023269999772310257,0.001805500010959804,0.0016192999901250005,-0.008726299740374088,-0.02779739908874035,-0.017734099179506302,-0.0594508983194828,-0.051189400255680084,-0.031835198402404785,-0.040236301720142365,0.03512100130319595,0.032498400658369064,-0.002403500024229288,-0.014245700091123581,0.010228999890387058,-0.005570000037550926,0.017858799546957016,0.017883099615573883,-0.00042810000013560057,0.025722600519657135,-0.013806300237774849,0.023600900545716286,-0.04785360023379326,0.03783870115876198,-0.004361200146377087,0.046174898743629456,0.028360899537801743,-0.035982199013233185,-0.025019599124789238,0.018431400880217552,-0.013649200089275837,-0.04867180064320564,0.026043899357318878,-0.0028158000204712152,-0.06243849918246269,0.01810690015554428,0.01315189991146326,-0.002758299931883812,0.020368799567222595,-0.0026940000243484974,-0.05019320175051689,-0.03602389991283417,0.013698600232601166,0.031294699758291245,0.0060119000263512135,0.033689700067043304,-0.03529980033636093,-0.04862159863114357,-0.03433540090918541,0.01995610073208809,0.012682300060987473,0.030471399426460266,-0.05002899840474129,0.03999429941177368,-0.039865799248218536,-0.03429260104894638,-0.022430799901485443,-0.047165099531412125,0.010369700379669666,0.04551300033926964,-0.0031202000100165606,0.0010593000333756208,0.004561199806630611,-0.04012659937143326,-0.05066889896988869,-0.0606549009680748,-0.05380290001630783,0.02694609947502613,-0.021435899659991264,0.019481800496578217,0.021066799759864807,-0.0474403016269207,-0.04627640172839165,0.01227639988064766,0.013964800164103508,0.037906598299741745,-0.01740420050919056,0.011730199679732323,0.026045599952340126,0.03256310150027275,-0.024265799671411514,-0.006339800078421831,-0.04655219987034798,0.010994600132107735,-0.043313100934028625,0.012581800110638142,0.013988099992275238,-0.0036585000343620777,-0.04221180081367493,-0.020477699115872383,-0.03170130029320717,-0.003565399907529354,0.025832800194621086,0.015595999546349049,0.01938359998166561,0.021215399727225304,0.00409260019659996,0.019216099753975868,-0.034608300775289536,0.03285440057516098,0.021080700680613518,-0.030639300122857094,-0.036693401634693146,0.024615900591015816,0.022279899567365646,-0.03727409988641739,0.020444100722670555,-0.027556100860238075,-0.004995500203222036,0.007639400195330381,-0.04803980141878128,-0.024878500029444695,0.0038034000899642706,-0.036913901567459106,-0.042403798550367355,0.01718440093100071,0.030226800590753555,-0.00794340018182993,0.0029122999403625727,-0.06170229986310005,-0.03996099904179573,-0.03521540015935898,-0.05021119862794876,-0.03947040066123009,0.034693099558353424,0.006843300070613623,-0.007316899951547384,-0.03190290182828903,0.010364199988543987,-0.04831710085272789,4.329999865149148e-05,-0.03615089878439903,-0.049519799649715424,0.030758699402213097,0.04027070105075836,0.04609600082039833,0.015214700251817703,-0.03439119830727577,0.009324800223112106,-0.039436399936676025,0.0025826001074165106,-0.047475799918174744,0.02906779944896698,0.009587200358510017,-0.03978680074214935,-0.04559990018606186,0.03559279814362526,-0.01544179953634739,0.013597000390291214,0.02306869998574257,-0.04109729826450348,-0.029264500364661217,-0.047387998551130295,0.00708970008417964,-0.011440199799835682,0.032993000000715256,-0.04517199844121933,-0.006236799992620945,-0.016148800030350685,0.016141699627041817,-0.049327999353408813,-0.0034684999845921993,-0.04564270004630089,-0.05271089822053909,0.01673310063779354,-0.061355698853731155,-0.04449069872498512,-0.0024550999514758587,-0.011788900010287762,-0.058608900755643845,0.014164400286972523,-0.041370101273059845,-0.0014273000415414572,0.005179299972951412,0.009408500045537949,0.03147060051560402,0.03480460122227669,-0.05178520083427429,0.03189000114798546,0.024469399824738503,-0.04042720049619675,0.014203299768269062,-0.056690700352191925,-0.04775169864296913,0.010092600248754025,0.026233699172735214,0.022559599950909615,-0.032520901411771774,0.015504200011491776,0.019449999555945396,-0.04492580145597458,0.0003527000080794096,0.058559298515319824,0.02228900045156479,0.040297601372003555,0.01396309956908226,0.055171798914670944,0.023221399635076523,-0.030312100425362587,-0.042438000440597534,-0.04976090043783188,-0.11006730049848557,-0.018125899136066437,-0.05887399986386299,0.09500270336866379,0.06582169979810715,-0.1517702043056488,-0.03499570116400719,0.06247830018401146,0.1353721022605896,0.3579269051551819,-0.10507360100746155,-0.06432370096445084,0.27297720313072205,-0.1981205940246582,-0.09995540231466293,-0.05717749893665314,0.14484159648418427,-0.007447499781847,0.09177959710359573,0.2275944948196411,0.09541749954223633,-0.06723950058221817,0.07305499911308289,0.01740019954741001,0.0192073006182909,-0.034693699330091476,0.11534000188112259,0.12017340213060379,0.020472899079322815,0.0019093999871984124,0.053803399205207825,0.012608500197529793,-0.08991959691047668,-0.008143899962306023,0.03209879994392395,0.03237089887261391,-0.008345999754965305,-0.05065760016441345,-0.005449799820780754,0.04014649987220764,0.02433519996702671,0.031313199549913406,-0.00430000014603138,0.05069530010223389,0.029026199132204056,-0.0037501000333577394,-0.01658320054411888,-0.0051126000471413136,-0.028136499226093292,0.03792570158839226,0.042247701436281204,0.01821970008313656,0.027865400537848473,-0.0013541999505832791,0.03544750064611435,0.016176000237464905,0.09393800050020218,0.030398299917578697,0.1962594985961914,0.06698320060968399,0.08563239872455597,-0.059412699192762375,0.011630100198090076,0.03558620065450668,-0.028800800442695618,-0.02400900050997734,0.030993299558758736,0.025764700025320053,0.06715299934148788,-0.043229300528764725,0.1422629952430725,-0.025079699233174324,0.09822239726781845,-0.03860609978437424,0.043209999799728394,0.060824498534202576,0.038909099996089935,0.012996300123631954,0.15011020004749298,-0.027657900005578995,-0.021674200892448425,-0.04313740134239197,0.08383320271968842,-0.03467870131134987,0.004939599893987179,0.024704499170184135,-0.020419999957084656,-0.06118899956345558,0.04512609913945198,-0.03802099823951721,0.03374040126800537,0.07108010351657867,0.16332249343395233,-0.011054299771785736,0.13167190551757812,-0.06331729888916016,-0.03575589880347252,-0.015972599387168884,-0.017326999455690384,-0.07072869688272476,-0.02272460050880909,0.026883499696850777,0.07710070163011551,-0.015909699723124504,-0.02116280049085617,0.05464579910039902,0.1344175934791565,-0.11888449639081955,-0.018120700493454933,0.09772969782352448,-0.1786849945783615,0.19084380567073822,-0.10053639858961105,-0.019300900399684906,-0.008075599558651447,0.11215540021657944,-0.1721172034740448,0.0667325034737587,-0.06920470297336578,-0.07072090357542038,-0.04867690056562424,0.0551908016204834,0.23962000012397766,0.14319540560245514,-0.3011311888694763,0.2754201889038086,0.21350400149822235,-0.02931869961321354,0.048656098544597626,-0.06650889664888382,0.08071190118789673,-0.016581999137997627,0.0771578997373581,-0.04005790129303932,0.0967646986246109,-0.02437650039792061,0.2406328022480011,-0.06500820070505142,-0.053561098873615265,0.027170300483703613,0.00738559989258647,0.11267630010843277,0.0678682029247284,-0.09200199693441391,0.00795149989426136,-0.09582380205392838,-0.05557509884238243,-0.04751589894294739,0.012122799642384052,0.09574099630117416,0.04048699885606766,-0.05310310050845146,0.11988060176372528,-0.16159960627555847,0.13476459681987762,0.06868969649076462,0.10709869861602783,0.025478199124336243,0.041834600269794464,-0.03692540153861046,0.06216239929199219,0.050619300454854965,0.03795259818434715,-0.009552800096571445,-0.03972969949245453,-0.05058480054140091,0.00779289985075593,-0.09053059667348862,-0.011817200109362602,-0.021605800837278366,0.102012999355793,0.08079899847507477,0.0239011999219656,0.06084199994802475,0.12445429712533951,-0.015343899838626385,-0.018895400688052177,0.012338999658823013,-0.003492400050163269,0.010206899605691433,0.009632900357246399,-0.005288499873131514,-0.005277299787849188,0.030372200533747673,0.1556282937526703,-0.06365569680929184,-0.05135739967226982,0.045449499040842056,-0.08456449955701828,0.00018360000103712082,-0.031681500375270844,-0.016752799972891808,0.03337530046701431,-0.1469704955816269,0.08672440052032471,0.09214320033788681,0.05288559943437576,0.045485299080610275,0.02024889923632145,0.006598900072276592,0.21133829653263092,-0.06094900146126747,-0.1152103990316391,-0.024870099499821663,-0.06671050190925598,-0.08040159940719604,0.06481140106916428,-0.04996950179338455,-0.15550999343395233,0.07105190306901932,0.07790450006723404,-0.007427600212395191,0.09164109826087952,-0.01766669936478138,0.009995999746024609,0.056233398616313934,0.30270329117774963,-0.016658900305628777,-0.1288616955280304,-0.13492929935455322,0.053683798760175705,-0.1513482928276062,0.02384199947118759,-0.05077140033245087,-0.14249460399150848,0.1103828027844429,0.010018800385296345,0.04421930015087128,0.16687209904193878,0.07119309902191162,-0.05438439920544624,-0.13910900056362152,0.09843569993972778,0.013239200226962566,-0.07095459848642349,-0.050074100494384766,0.04411860182881355,-0.03643700107932091,-0.045348599553108215,-0.0941649004817009,0.044968198984861374,0.019605599343776703,-0.08075670152902603,-0.0708262026309967,-0.10313250124454498,0.05896009877324104,-0.09717459976673126,0.023916199803352356,0.02874480001628399,0.005879300180822611,0.10043109953403473,0.1730048954486847,-0.07716149836778641,0.02399750053882599,0.5035017728805542,-0.08019760251045227,0.03507550060749054,-0.07038109749555588,-0.25530290603637695,-0.20223890244960785,-0.02341189980506897,0.0038761000614613295,0.030664099380373955,0.009765000082552433,0.050116200000047684,0.010808300226926804,0.02691110037267208,0.0005382000235840678,0.00300609995611012,-0.03249510005116463,-0.04380200058221817,0.0008435000199824572,-0.04739369824528694,0.0506012998521328,0.0005286000086925924,-0.015102500095963478,-0.04222080111503601,0.12992599606513977,-0.00933689996600151,-0.02556999959051609,-0.03991759940981865,0.04516959935426712,0.007288699969649315,-0.07965770363807678,0.0136372996494174,0.017125599086284637,-0.12594370543956757,-0.048805199563503265,-0.04320630058646202,-0.06302560120820999,0.09644319862127304,-0.04051839932799339,-0.03516079857945442,-0.03630239889025688,-0.001626300043426454,-0.0555696003139019,0.1291739046573639,0.006371399853378534,0.04330600053071976,0.1503351926803589,-0.035662099719047546,-0.07011009752750397,0.159770205616951,0.21382829546928406,0.02433059923350811,0.05708260089159012,-0.02445649914443493,-0.2011643946170807,-0.011008000001311302,0.23105640709400177,0.22363829612731934,-0.1236530989408493,0.24351279437541962,-0.17631040513515472,-0.09839119762182236,-0.11417669802904129,0.03935069963335991,-0.29135221242904663,-0.3672516942024231,-0.11025840044021606,-0.11816400289535522,0.13501110672950745,-0.032485298812389374,-0.0767034962773323,0.11492840200662613,-0.030709799379110336,0.05938509851694107,0.02350890077650547,0.17480270564556122,0.036365099251270294,-0.0031616000924259424,0.07530149817466736,0.26471570134162903,-0.07223939895629883,0.11126609891653061,-0.011558599770069122,0.0977327972650528,0.06386160105466843,-0.008226599544286728,0.11060730367898941,-0.005248399917036295,-0.01121480017900467,-0.003056799992918968,-0.0050397999584674835,-0.04804399982094765,0.038530800491571426,0.24041660130023956,-0.15261730551719666,-0.036366499960422516,0.16040079295635223,-0.2069104015827179,-0.11981959640979767,-0.09257719665765762,-0.001333800028078258,0.15722839534282684,0.13703809678554535,0.12812399864196777,-0.05187319964170456,0.08656390011310577,0.020701700821518898,0.05716079846024513,0.055376701056957245,-0.042893700301647186,0.03514869883656502,0.030043700709939003,-0.21905280649662018,-0.03968629986047745,0.02936689928174019,-0.033070001751184464,0.15139110386371613,0.08247599750757217,-0.07571340352296829,-0.06984660029411316,-0.018871599808335304,-0.008432799950242043,0.04764780029654503,0.05193369835615158,0.06009339913725853,-0.008976900018751621,0.18461869657039642,0.04706130176782608,0.0508962981402874,-0.07641710340976715,-0.05207350105047226,-0.04488829895853996,-0.003513399977236986,-0.1654805988073349,0.2255070060491562,0.4728772044181824,0.08550819754600525,0.18575750291347504,0.05665170028805733,0.0002935999946203083,0.17306719720363617,0.03114059939980507,-0.014330299571156502,0.14266559481620789,-0.2134820967912674,0.24488790333271027,0.13531160354614258,-0.0633900985121727,0.01250190008431673,0.0485134981572628,0.15378700196743011,-0.0890360027551651,-0.057265300303697586,0.011696900241076946,0.015585299581289291,0.01925240084528923,-0.04855969920754433,-0.07463149726390839,0.074583500623703,0.03864070028066635,0.15527699887752533,0.05470290035009384,0.010608799755573273,-0.058369699865579605,0.01262580044567585,-0.12453930079936981,0.0291546992957592,0.04341980069875717,-0.03280720114707947,-0.013514299876987934,0.0003983000060543418,0.015212399885058403,0.019118599593639374,-0.01904579997062683,0.0034666000865399837,0.01150980032980442,0.04130589962005615,-0.04743169993162155,-0.014769800007343292,-0.011505800299346447,0.03068540059030056,0.03912879899144173,-0.04257899895310402,-0.07321500033140182,0.0029537000227719545,0.12796500325202942,0.008893700316548347,0.09605760127305984,0.09279719740152359,0.04878930002450943,-0.005270199850201607,0.20869429409503937,0.023664599284529686,0.06699249893426895,0.09491900354623795,-0.02861040085554123,0.03098589926958084,-0.03130879998207092,-0.03879540041089058,-0.09334570169448853,-0.032621998339891434,0.009212899953126907,0.0209927000105381,0.05486990138888359,-0.023831499740481377,-0.025435900315642357,0.07480569928884506,-0.03686239942908287,0.11282540112733841,0.04032000154256821,-0.06279800087213516,-0.05415920168161392,-0.02766299992799759,0.021295800805091858,-0.05018579959869385,0.03721719980239868,0.06661880016326904,0.0020892999600619078,0.008200299926102161,0.025029700249433517,0.026421500369906425,0.12991240620613098,0.048408400267362595,0.014879600144922733,0.005366500001400709,0.012403899803757668,-0.012007899582386017,-0.07083050161600113,0.015249200165271759,-0.06788620352745056,-0.08274699747562408,-0.059538401663303375,0.03891700133681297,0.010718000121414661,-0.042249999940395355,0.04974459856748581,-0.10748279839754105,0.09475559741258621,-0.08339360356330872,0.06838010251522064,0.00925430003553629,-0.0946286991238594,0.26726728677749634,-0.0034278000239282846,0.05541979894042015,0.06299400329589844,0.07646749913692474,-0.15221409499645233,0.016903899610042572,-0.060341499745845795,-0.05063540115952492,0.11038210242986679,0.007632200140506029,0.11088590323925018,0.08292309939861298,-0.017110200598835945,0.25529178977012634,-0.0963054969906807,-0.09738840162754059,-0.006047000177204609,-0.06624910235404968,0.04712169989943504,-0.0427326001226902,-0.04700860008597374,-0.04229230061173439,-0.02777470089495182,-0.039578501135110855,0.14520840346813202,-0.09092959761619568,-0.07929930090904236,0.07027579843997955,-0.08473759889602661,0.13944919407367706,-0.08378030359745026,-0.07681380212306976,-0.10443969815969467,0.007639499846845865,0.014403600245714188,0.0063217999413609505,-0.027590200304985046,0.059310801327228546,0.012633300386369228,-0.07125309854745865,-0.05788150057196617,