{"version":1,"classes":[1,2,3,4,5,6,7,8,9],"input":[1,16,16],"normalization":"bbox-12x14-v1","validationAccuracy":0.9746031761169434,"fonts":19,"bytes":88722,"format":"cnn-js-v1","verification":{"input":"zeros","logits":[-0.4309067726135254,0.28068971633911133,0.027055837213993073,-0.16893988847732544,0.3535693883895874,-0.3325042128562927,0.5962377190589905,-0.06578201055526733,0.3443843722343445]},"tensors":{"features.0.weight":{"shape":[12,1,3,3],"data":[0.08148910105228424,0.3047100007534027,0.4988088011741638,-0.014828200452029705,0.212458997964859,0.286571204662323,0.062415800988674164,0.6006138920783997,-0.021434100344777107,-0.14101819694042206,-0.015427200123667717,0.293317586183548,0.2753770053386688,0.18037110567092896,0.6440466046333313,0.37488481402397156,0.5377140045166016,0.4587641954421997,0.3158225119113922,0.6734308004379272,0.2664845883846283,0.38851219415664673,0.3645857870578766,0.038036100566387177,0.528728723526001,0.11140900105237961,-0.5785021781921387,0.5095136165618896,-0.02314000017940998,-0.5041369795799255,0.7051621079444885,0.700260579586029,0.12208999693393707,0.028994599357247353,0.22038359940052032,0.6592674255371094,0.29593920707702637,0.48399099707603455,0.4123336970806122,0.2827729880809784,0.4957158863544464,0.15125249326229095,0.3115552067756653,0.2901037931442261,0.5087711215019226,0.49850699305534363,0.05307599902153015,0.30068638920783997,0.5154197216033936,0.46389898657798767,0.47484418749809265,0.09733189642429352,0.022353200241923332,0.4376926124095917,-0.30005329847335815,0.37405478954315186,0.36972129344940186,0.20427049696445465,0.4634045958518982,0.14123600721359253,0.3479343056678772,0.3156324028968811,0.29067888855934143,0.4112139940261841,0.7772951722145081,0.7287212014198303,0.2317814975976944,-0.16319750249385834,-0.16045500338077545,-0.49621859192848206,-0.57115638256073,-0.5717505812644958,-0.10686109960079193,0.19271180033683777,-0.18408329784870148,0.25205889344215393,-0.25709420442581177,-0.18478849530220032,-0.04953959956765175,0.0016425000503659248,-0.0021748999133706093,0.48844319581985474,0.3466334044933319,0.5427877902984619,0.1845266968011856,0.1488267034292221,0.34470680356025696,0.2764168977737427,0.1556956022977829,0.13773620128631592,-0.23930829763412476,-0.39624300599098206,-0.6314505934715271,-0.06333030015230179,0.20042860507965088,-0.09637989848852158,0.5476570129394531,0.5417636036872864,0.32801729440689087,0.37396949529647827,0.6432628035545349,-0.088544100522995,0.12047529965639114,0.35125699639320374,0.2670724093914032,0.3494237959384918,-0.11339859664440155,-0.15658549964427948]},"features.0.bias":{"shape":[12],"data":[0.3462317883968353,0.0025712999049574137,0.02052460052073002,-0.003971700090914965,-0.0020135000813752413,0.1842837929725647,0.3079890012741089,0.1819027066230774,-0.287322998046875,0.007498700171709061,0.21054190397262573,0.008179900236427784]},"features.3.weight":{"shape":[24,12,3,3],"data":[0.009191700257360935,-0.0744279995560646,0.0025474000722169876,-0.09584180265665054,0.02858009934425354,-0.08723829686641693,0.03307129815220833,-0.08942969888448715,0.07516880333423615,-0.0012345999712124467,0.03991390019655228,0.0468192994594574,0.03135019913315773,0.03405090048909187,-0.07125510275363922,-0.0526731014251709,0.03996559977531433,-0.03191019967198372,-0.03161120042204857,-0.08819880336523056,0.06739740073680878,0.01157629955559969,0.07519040256738663,-0.059923600405454636,0.03429869934916496,0.042962200939655304,0.011060199700295925,0.023264599964022636,0.04361589998006821,0.0018952999962493777,-0.09079530090093613,-0.06014370173215866,0.05444300174713135,0.0068962001241743565,0.07237900048494339,0.07398609817028046,-0.07116200029850006,-0.10918650031089783,0.06601910293102264,-0.11076469719409943,-0.01586570031940937,0.06310930103063583,-0.05659719929099083,-0.033008601516485214,0.03541269898414612,0.049495600163936615,-0.067045196890831,0.01666400022804737,0.07261119782924652,-0.029301300644874573,-0.10612510144710541,0.010069799609482288,-0.01941489987075329,-0.04242070019245148,-0.02272140048444271,-0.009278800338506699,-0.02178809978067875,0.05912519991397858,-0.10830870270729065,-0.08562999963760376,-0.09805189818143845,-0.04502509906888008,-0.08780449628829956,-0.08671200275421143,-0.05380899831652641,-0.019852599129080772,0.034908998757600784,-0.013784600421786308,0.020322300493717194,0.07965199649333954,-0.06274420022964478,-0.012937099672853947,-0.052102699875831604,0.0423768013715744,-0.0008119000121951103,-0.012694500386714935,0.059065401554107666,0.06645579636096954,-0.08963440358638763,0.037619698792696,-0.036237798631191254,-0.056491900235414505,-0.08227690309286118,-0.04914329946041107,-0.05423140153288841,0.02462640032172203,-0.02825790084898472,-0.07239650189876556,0.06240469962358475,-0.04181639850139618,-0.05025869980454445,-0.0949191004037857,0.08548460155725479,0.06575070321559906,-0.04984850063920021,-0.10943090170621872,-0.060605600476264954,-0.04991009831428528,0.014551999978721142,0.0200314000248909,-0.050536900758743286,0.020170200616121292,0.044149599969387054,0.007821000181138515,0.012479400262236595,-0.012677899561822414,-0.04066000133752823,0.0795418992638588,0.1033158004283905,0.2056390941143036,0.17900030314922333,-0.0311770997941494,-0.0956444963812828,0.01323819998651743,0.07172270119190216,-0.06783150136470795,-0.011450299993157387,-0.06341180205345154,0.0867106020450592,0.010231699794530869,-0.10971920192241669,-0.2801494002342224,-0.0690523013472557,0.12332619726657867,0.0037448001094162464,0.13203969597816467,-0.04100140184164047,0.28246259689331055,0.16994720697402954,-0.08850619941949844,-0.058617498725652695,-0.18686939775943756,0.09374629706144333,-0.34984761476516724,-0.18177950382232666,-0.17342180013656616,0.17110620439052582,0.31598350405693054,-0.22044460475444794,-0.37687790393829346,0.017633600160479546,0.040579598397016525,0.07057999819517136,-0.10167159885168076,0.026516800746321678,0.2927441895008087,0.13025690615177155,-0.2535814940929413,-0.1927414983510971,-0.0041462997905910015,0.08727660030126572,-0.17341479659080505,-0.05811290070414543,0.04793820157647133,0.31857389211654663,0.12746669352054596,-0.11103279888629913,-0.16322720050811768,-0.057005900889635086,0.13412520289421082,-0.09540539979934692,0.09460610151290894,0.11298629641532898,0.24463100731372833,0.18866629898548126,0.0881832018494606,-0.17191560566425323,-0.12926289439201355,0.1477224975824356,0.08342920243740082,0.032342299818992615,0.5156474113464355,0.37087929248809814,-0.049714598804712296,0.2689361870288849,0.652236819267273,0.5358893871307373,-0.28090038895606995,-0.625918984413147,-0.436964213848114,-0.051948800683021545,-0.05839899927377701,0.035554300993680954,-0.08647549897432327,0.0685914009809494,-0.03843839839100838,-0.07880059629678726,0.09296470135450363,0.09379470348358154,0.011936699971556664,0.35696709156036377,0.17655089497566223,-0.15016590058803558,-0.16545440256595612,0.08284080028533936,-0.02826409973204136,-0.20627349615097046,-0.08866710215806961,-0.0685134008526802,-0.08657889813184738,-0.23778459429740906,0.27872219681739807,-0.2522110939025879,-0.3198953866958618,0.4079282879829407,0.4262309968471527,0.22913509607315063,-0.01441279985010624,0.268835186958313,0.2787156105041504,-0.10096339881420135,-0.07776869833469391,-0.0704737976193428,0.11071000248193741,-0.2780678868293762,-0.20724919438362122,-0.08513090014457703,0.0896541029214859,-0.03235720098018646,0.15029840171337128,0.18045109510421753,-0.13170179724693298,0.030558399856090546,0.07333730161190033,-0.11637529730796814,0.19520479440689087,0.1444023996591568,0.021935900673270226,0.24787640571594238,-0.030108699575066566,-0.22793559730052948,-0.011279799975454807,-0.24894869327545166,-0.24749480187892914,-0.35499921441078186,0.2737126052379608,0.22301940619945526,-0.08305469900369644,0.2806265950202942,-0.04720640182495117,0.14088569581508636,0.08380459994077682,-0.24312269687652588,0.03860729932785034,-0.05977499857544899,-0.23285099864006042,-0.12749120593070984,0.06143290176987648,0.014533599838614464,-0.061839599162340164,0.060527898371219635,0.09761469811201096,0.08098729699850082,0.28158038854599,0.09366240352392197,0.17351120710372925,0.24620039761066437,0.03286280110478401,0.1640712022781372,0.03148280084133148,-0.19459550082683563,-0.005246200133115053,0.036024898290634155,0.06893719732761383,0.10945069789886475,0.05995609983801842,-0.02377769909799099,0.12931190431118011,0.04872789978981018,-0.07728949934244156,0.1288733035326004,0.21328279376029968,0.11311139911413193,0.05488340184092522,0.1277810037136078,-0.13500569760799408,0.19194039702415466,-0.11463340371847153,-0.152925506234169,-0.36580079793930054,-0.411503404378891,0.17842400074005127,-0.414736807346344,-0.10441579669713974,0.19784900546073914,0.15571999549865723,-0.04129450023174286,-0.1713733971118927,-0.07670430094003677,0.02312380075454712,-0.014762099832296371,-0.025115400552749634,0.06355799734592438,0.10281830281019211,0.011528999544680119,0.022419799119234085,0.024241400882601738,-0.009311799891293049,0.12285429984331131,0.17563079297542572,0.10344339907169342,0.1895436942577362,-0.11446350067853928,0.12736479938030243,0.06762730330228806,-0.1463697999715805,0.012842000462114811,0.07706879824399948,-0.3715780973434448,-0.18174810707569122,-0.177838996052742,-0.0172652006149292,-0.19537219405174255,-0.21045710146427155,0.07444290071725845,-0.19685959815979004,0.1282968968153,0.18920180201530457,0.02413170039653778,0.23957890272140503,0.07034429907798767,0.1439719945192337,0.1501207947731018,0.03574080020189285,-0.08730009943246841,-0.06950400024652481,0.05703229829668999,0.010044699534773827,0.07196839898824692,-0.03013950027525425,-0.08010029792785645,-0.05036139860749245,-0.07448890060186386,-0.011071399785578251,-0.09145840257406235,0.06457500159740448,-0.09032870084047318,0.0031224999111145735,-0.017372900620102882,0.07768949866294861,-0.09178610146045685,-0.04423899948596954,0.05910300090909004,0.04520510137081146,0.07629469782114029,-0.08206050097942352,-0.07794149965047836,0.02799520082771778,-0.0040894001722335815,-0.011678500100970268,0.01631299965083599,0.08457429707050323,0.0406653992831707,-0.08308859914541245,-0.04529799893498421,0.06451159715652466,-0.046889301389455795,0.07479669898748398,3.9999998989515007e-05,0.02361219935119152,-0.061922598630189896,0.025954099372029305,-0.08006499707698822,-0.08640360087156296,-0.0624609999358654,-0.08139479905366898,-0.0745868980884552,-0.021152200177311897,0.020007699728012085,-0.04291100054979324,-0.0549561008810997,-0.07585159689188004,-0.017489299178123474,0.07696949690580368,0.02083759941160679,-0.059199199080467224,-0.05109480023384094,0.08539199829101562,0.021467700600624084,-0.04918079823255539,0.0842880979180336,-0.058243200182914734,0.04493210092186928,-0.020026300102472305,-0.05976489931344986,-0.01695599965751171,0.0329401008784771,-0.07273860275745392,-0.03142619878053665,-0.07059720158576965,-0.0920519009232521,-0.0404898002743721,0.08627630025148392,0.04473450034856796,0.0214563999325037,-0.048500899225473404,0.04700550064444542,0.033560898154973984,0.017807399854063988,0.0482465997338295,-0.04860449954867363,0.060478899627923965,0.04771009832620621,0.09320729970932007,-0.043624501675367355,-0.003646800061687827,-0.018859699368476868,-0.062308698892593384,0.06419689953327179,-0.05401669815182686,0.01315470039844513,-0.02995919995009899,0.0716003030538559,0.007330399937927723,0.03361019864678383,0.04535499960184097,0.07057160139083862,-0.07966729998588562,-0.07939799875020981,-0.01860550045967102,-0.0767081007361412,-0.09390319883823395,-0.06844259798526764,-0.006303300149738789,-0.06682469695806503,-0.09465809911489487,0.03399470075964928,-0.04465259984135628,0.09494130313396454,-0.018856100738048553,0.07135560363531113,0.020514000207185745,0.1285649985074997,0.16778939962387085,0.0591621994972229,0.07577349990606308,0.021894199773669243,0.11941459774971008,-0.019123300909996033,-0.029073599725961685,0.13626429438591003,0.058306898921728134,0.09334609657526016,0.05123160034418106,-0.18163740634918213,-0.1386609971523285,0.052932098507881165,-0.05458749830722809,-0.0182460006326437,-0.0674934983253479,0.24209000170230865,0.15542790293693542,-0.0021116998977959156,0.3386664092540741,-0.08983559906482697,0.12985889613628387,-0.1566019058227539,-0.1459999978542328,0.08232609927654266,-0.04815889894962311,0.07497800141572952,0.33780089020729065,0.11393210291862488,-0.36657649278640747,0.08139560371637344,0.08126670122146606,-0.32338449358940125,-0.19617030024528503,0.07019300013780594,0.142242893576622,0.15817150473594666,-0.04295859858393669,-0.047939401119947433,0.160310298204422,-0.06067650020122528,-0.10758709907531738,-0.1289301961660385,0.1584687978029251,0.1543668955564499,0.16658979654312134,0.1040382981300354,0.018060900270938873,0.05986789986491203,-0.08362620323896408,-0.1338444948196411,0.05960949882864952,0.14213509857654572,0.17041270434856415,0.023269999772310257,0.05248180031776428,-0.15880300104618073,0.05224569886922836,-0.03608740121126175,-0.06516029685735703,0.004426499828696251,0.14994840323925018,0.11613020300865173,-0.47342580556869507,0.21313540637493134,0.11495570093393326,-0.023477299138903618,-0.0585068017244339,-0.1815733015537262,0.2895177900791168,0.05004139989614487,0.07342489808797836,0.04087959975004196,-0.056107498705387115,-0.07304660230875015,0.00820349995046854,0.09753189980983734,-0.010867400094866753,-0.08973400294780731,0.09270919859409332,0.2112317979335785,-0.020114799961447716,0.0842491015791893,-0.08875670284032822,0.19959670305252075,-0.009691799990832806,-0.07398729771375656,0.010929900221526623,-0.07196839898824692,-0.2971994876861572,0.22418099641799927,-0.099822498857975,-0.27904340624809265,-0.15604980289936066,0.27028900384902954,0.2207701951265335,-0.010689499787986279,0.17567099630832672,0.23988839983940125,-0.009514699690043926,0.1470106989145279,0.06113540008664131,0.15603549778461456,-0.07678800076246262,-0.2625438868999481,0.044965099543333054,0.07269290089607239,0.011617699638009071,-0.07129819691181183,0.18938779830932617,0.10505560040473938,-0.08392009884119034,0.24518869817256927,0.041875600814819336,-0.07824929803609848,0.12755489349365234,0.1652594953775406,-0.056764401495456696,0.21987420320510864,0.1309715062379837,-0.0001638999965507537,0.2637805938720703,-0.03724769875407219,-0.15720069408416748,-0.11573559790849686,0.2076192945241928,-0.0315513014793396,-0.01267240010201931,0.23121820390224457,-0.11574029922485352,0.10550060123205185,0.3216091990470886,-0.2353547066450119,0.04043639823794365,0.2896377146244049,-0.16716019809246063,-0.2431740015745163,0.3066824972629547,0.215875506401062,0.014905399642884731,0.2964217960834503,0.12076249718666077,0.14881500601768494,0.17412960529327393,-0.13404349982738495,0.1639527976512909,0.20107519626617432,-0.06851229816675186,0.09041909873485565,0.13760429620742798,-0.15660859644412994,0.15927159786224365,0.09086889773607254,-0.06498110294342041,0.0891122967004776,0.2393530011177063,-0.14740389585494995,0.21535959839820862,0.21685509383678436,0.016662100329995155,0.14595800638198853,0.046723101288080215,-0.002409700071439147,0.14045269787311554,0.12258459627628326,-0.03127799928188324,0.1249397024512291,0.05372200161218643,-0.10791700333356857,-0.47952601313591003,-0.5375233888626099,0.19854579865932465,-0.4067249000072479,0.28154629468917847,0.4609363079071045,-0.23026929795742035,0.15735240280628204,0.19760550558567047,-0.07776760309934616,-0.038439299911260605,-0.02750759944319725,-0.07740850001573563,0.05392739921808243,-0.09357880055904388,-0.01228250004351139,0.003019799944013357,0.013172199949622154,0.08639179915189743,0.23970890045166016,-0.026669800281524658,0.050269998610019684,0.32067859172821045,-0.07316669821739197,0.15610599517822266,0.22100740671157837,0.01997309923171997,0.02156909927725792,0.19443529844284058,0.04966979846358299,-0.12953490018844604,0.02691040001809597,0.10589809715747833,-0.1985923945903778,0.06707579642534256,-0.014835700392723083,-0.09746699780225754,0.12931829690933228,-0.003613600041717291,-0.027794500812888145,0.2601150870323181,-0.09199710190296173,0.10928429663181305,0.2674523890018463,-0.06472689658403397,0.016544699668884277,0.12840819358825684,0.12598370015621185,0.17210809886455536,0.14021800458431244,0.012148999609053135,0.17211750149726868,-0.18219579756259918,-0.179612398147583,0.11418599635362625,0.2190628945827484,0.09995649755001068,0.187494695186615,-0.10306020081043243,-0.2514719069004059,0.05621249973773956,-0.08771420270204544,-0.13540489971637726,-0.23708119988441467,0.2728725075721741,0.15435059368610382,0.14519649744033813,0.30342039465904236,0.16511480510234833,0.10861550271511078,0.052904099225997925,-0.28091809153556824,-0.06274279952049255,0.20494650304317474,0.21733559668064117,-0.0790880024433136,-0.09187210351228714,0.050933901220560074,0.06176409870386124,0.06433340162038803,-0.05487870052456856,0.0653505027294159,0.17105379700660706,0.20222650468349457,0.20976069569587708,0.04984860122203827,-0.12807980179786682,0.20811979472637177,-0.19731420278549194,-0.20982150733470917,0.10749299824237823,0.2308392971754074,0.12234210222959518,0.04429030045866966,0.06822240352630615,0.1262442022562027,0.008902600035071373,-0.17014020681381226,-0.17901000380516052,0.12105579674243927,0.20137080550193787,0.06630530208349228,0.0683014988899231,0.10179830342531204,-0.11536909639835358,0.18110600113868713,-0.12464290112257004,-0.22935059666633606,-0.7127646207809448,-0.2929013967514038,0.042059000581502914,-0.29914480447769165,0.41632089018821716,0.48017460107803345,-0.05221239849925041,0.030818600207567215,0.08273710310459137,-0.08110590279102325,0.0005449000163935125,0.03262230008840561,-0.04047419875860214,0.0043032001703977585,0.1041427031159401,-0.09022089838981628,-0.08748889714479446,0.09312590211629868,0.07087089866399765,0.314154714345932,0.18251760303974152,0.19036050140857697,0.19262969493865967,0.015189300291240215,0.07514549791812897,-0.11919809877872467,-0.08371979743242264,0.03670639917254448,0.09626509994268417,-0.04881750047206879,0.047534599900245667,-0.15079259872436523,-0.21808169782161713,-0.09806639701128006,0.14380960166454315,0.0936615988612175,-0.10220520198345184,0.2832410931587219,0.2235724925994873,0.09798599779605865,0.27412739396095276,0.04170989990234375,0.1277180016040802,-0.07125379890203476,-0.11634659767150879,-0.03902500122785568,-0.00553479976952076,0.07790660113096237,-0.24630320072174072,0.12911570072174072,0.19999420642852783,0.069657102227211,0.0832384005188942,0.1999586969614029,0.002518000081181526,0.09100379794836044,0.11835379898548126,-0.33988380432128906,0.1802596002817154,0.26217880845069885,0.4051128029823303,0.22026480734348297,-0.016238199546933174,0.14191019535064697,0.020496100187301636,-0.058940399438142776,-0.1683546006679535,-0.2963736057281494,0.13834799826145172,-0.067576102912426,0.22480599582195282,0.2059852033853531,0.23437440395355225,0.30470919609069824,0.10866899788379669,-0.38595080375671387,-0.07816760241985321,-0.05027110129594803,0.4637768864631653,-0.36781439185142517,-0.07630559802055359,0.13956870138645172,0.10701949894428253,0.11496219784021378,-0.2204670011997223,0.014164799824357033,0.12323480099439621,0.02055959962308407,0.03446720167994499,0.19952039420604706,0.1363610029220581,0.19390569627285004,0.04500899836421013,-0.3053134083747864,0.10894659906625748,0.13579919934272766,0.09131799638271332,0.04034699872136116,0.10893840342760086,0.07795459777116776,0.05453449860215187,0.10323560237884521,-0.26489290595054626,-0.03185240179300308,0.2290858030319214,0.16175410151481628,0.224890798330307,0.05581530183553696,0.4216909110546112,0.060942601412534714,-0.7785413861274719,0.5086556077003479,-0.3227989971637726,-0.43356800079345703,-0.7542358040809631,-0.049788400530815125,0.15810559689998627,0.0326278991997242,0.0410642996430397,0.039187900722026825,-0.046397801488637924,-0.056984998285770416,0.04063919931650162,0.046994101256132126,0.08047609776258469,0.09225209802389145,0.09193360060453415,0.15020239353179932,0.06609530001878738,-0.14878040552139282,0.13469800353050232,0.17935359477996826,-0.04346739873290062,0.1807056963443756,0.20069530606269836,-0.5219100117683411,-0.2723855972290039,-0.021387699991464615,0.21285849809646606,-0.11911500245332718,0.11375950276851654,0.5655211806297302,-0.024439899250864983,-0.3737703859806061,0.19512300193309784,0.07726909965276718,-0.09383650124073029,-0.1716659963130951,0.02143079973757267,0.19590480625629425,-0.09720820188522339,0.09193100035190582,0.20959310233592987,0.17941589653491974,-0.056435998529195786,-0.11217810213565826,0.057225100696086884,-0.19484420120716095,0.13991230726242065,0.07210300117731094,-0.09897399693727493,0.12154939770698547,0.053711898624897,-0.20262719690799713,0.08198139816522598,-0.1125262975692749,-0.034715600311756134,0.2446552962064743,-0.21337470412254333,0.03118159994482994,0.14217700064182281,0.1887529045343399,-0.027668600901961327,-0.2493463009595871,0.2268165946006775,0.018135199323296547,-0.11217720061540604,0.159687802195549,-0.07679729908704758,0.06917379796504974,0.07335370033979416,0.014165299944579601,-0.16386130452156067,0.014367099851369858,0.03745239973068237,-0.12873099744319916,-0.029048100113868713,-0.1308746039867401,0.07084520161151886,0.09494350105524063,-0.1593313068151474,-0.12191940099000931,0.013287600129842758,-0.16523170471191406,0.09385990351438522,-0.10232950001955032,-0.10656969994306564,0.04349619895219803,0.1894204020500183,-0.08339949697256088,-0.12123019993305206,0.0679360032081604,-0.011279500089585781,-0.06327109783887863,0.004098000004887581,-0.0768916979432106,0.11107230186462402,0.2061150074005127,0.012654400430619717,-0.10034249722957611,0.06536850333213806,-0.005036000162363052,0.12719550728797913,0.03618960082530975,0.015515199862420559,0.14716209471225739,-0.1367332935333252,0.20034529268741608,0.23251399397850037,-0.0353303998708725,-0.14582359790802002,-0.18414640426635742,0.08600600063800812,0.10617630183696747,0.056650400161743164,0.08280719816684723,-0.03410379961133003,-0.04277630150318146,0.018415100872516632,0.03949109837412834,-0.05694760009646416,-0.0770087018609047,0.09433960169553757,-0.045705799013376236,0.14525459706783295,-0.15280960500240326,-0.057492099702358246,0.09312999993562698,-0.17467230558395386,0.06314239650964737,0.060460399836301804,-0.06380700320005417,0.11090169847011566,0.18298840522766113,0.07749629765748978,-0.09467290341854095,-0.02462019957602024,0.07604770362377167,-0.09481070190668106,-0.11052349954843521,0.011448199860751629,0.051807601004838943,0.09190099686384201,-0.17195260524749756,-0.06664980202913284,0.12476769834756851,-0.1525145024061203,-0.04861089959740639,0.09953320026397705,-0.21999379992485046,-0.03512340039014816,-0.04155230149626732,-0.08939240127801895,-0.04907520115375519,0.15848250687122345,-0.04206660017371178,-0.03519679978489876,0.15156899392604828,0.1729896068572998,-0.006782500073313713,0.0575885996222496,0.07469519972801208,-0.05066769942641258,0.22370180487632751,0.2134542018175125,-0.0551609992980957,0.23363730311393738,0.166462704539299,-0.0524166002869606,-0.15385739505290985,-0.1663835048675537,-0.03196129947900772,0.03977379947900772,-0.016966400668025017,0.010052000172436237,0.04042540118098259,0.14879609644412994,-0.030843699350953102,0.2371883988380432,-0.1837833970785141,-0.2511588931083679,0.21603380143642426,0.21950669586658478,0.07644719630479813,0.21457140147686005,0.25949281454086304,0.2020713984966278,-0.01964299939572811,-0.2485285997390747,-0.09344629943370819,0.21872350573539734,0.14145730435848236,-0.01352049969136715,0.16183240711688995,0.20187979936599731,0.08239100128412247,-0.03281889855861664,-0.15747539699077606,-0.12963919341564178,0.061131201684474945,0.1427803933620453,-0.008494299836456776,0.17789149284362793,0.15756909549236298,0.13359570503234863,0.003461899934336543,-0.08409850299358368,0.09631910175085068,0.07815969735383987,0.158051997423172,-0.017759200185537338,0.09119100123643875,0.054748598486185074,0.0038489000871777534,-0.23979270458221436,-0.4538804888725281,-0.003436800092458725,-0.1369020938873291,-0.12763839960098267,0.13535979390144348,-0.12101910263299942,0.09163390100002289,0.07853119820356369,0.030774399638175964,-0.06828039884567261,0.06508330255746841,0.017834199592471123,0.08674570173025131,0.07038760185241699,-0.02959579974412918,0.07409320026636124,-0.04535150155425072,0.013469499535858631,-0.255574107170105,-0.10808839648962021,0.14775720238685608,0.05484950169920921,-0.018797900527715683,0.1452043056488037,0.2816281020641327,0.007330299820750952,0.20541620254516602,0.18034090101718903,0.013749700039625168,0.1439974009990692,0.2318257987499237,0.1114078015089035,-0.13137610256671906,0.11047650128602982,0.07528810203075409,-0.04746760055422783,-0.16914699971675873,-0.1976432055234909,0.1023653969168663,-0.044878698885440826,-0.03984279930591583,0.05817890167236328,0.12815800309181213,0.026648100465536118,0.15495659410953522,0.32641738653182983,0.08461470156908035,0.17788569629192352,0.1062702015042305,0.03339559957385063,0.034974001348018646,-0.15248799324035645,-0.11526550352573395,0.03466539829969406,0.30178651213645935,0.20095379650592804,0.21697629988193512,0.026900699362158775,-0.025631200522184372,-0.01157320011407137,-0.38283830881118774,-0.36802539229393005,-0.3879323899745941,0.24603000283241272,0.24638620018959045,0.03125099837779999,0.3252936005592346,0.06607130169868469,0.11267630010843277,0.12339340150356293,-0.13513809442520142,-0.13837909698486328,0.13528139889240265,0.14903320372104645,-0.15938140451908112,-0.013030500151216984,0.29408958554267883,-0.23547939956188202,-0.4870572090148926,-0.45244300365448,0.05723839998245239,0.2608270049095154,0.16306160390377045,0.19167280197143555,0.19030679762363434,0.14932769536972046,0.13903619349002838,-0.32491129636764526,-0.29436150193214417,0.11370959877967834,0.2547377943992615,0.04341559857130051,0.014624100178480148,0.11426609754562378,0.16735529899597168,-0.0078144995495677,-0.2736572027206421,-0.2537083923816681,0.0320264995098114,0.3368513882160187,0.18118539452552795,0.23966680467128754,0.13020089268684387,-0.09701140224933624,0.16661299765110016,-0.26903489232063293,-0.2880690097808838,-0.5406934022903442,-0.3033773899078369,0.06264399737119675,-0.23979780077934265,0.158051997423172,0.2360789030790329,0.10629440099000931,0.43766918778419495,0.5988067984580994,-0.07598590105772018,-0.009707700461149216,-0.07854170352220535,0.059962399303913116,0.0781152993440628,-0.028730299323797226,-0.10305219888687134,-0.08136940002441406,0.03514400124549866,-0.032108601182699203,0.3048698902130127,0.09415219724178314,0.18581940233707428,0.0966906026005745,0.024688199162483215,0.12264829874038696,-0.07835119962692261,-0.022505199536681175,0.05639439821243286,0.04978590086102486,0.16772310435771942,-0.20989659428596497,-0.21605660021305084,-0.09227409958839417,-0.27206549048423767,-0.2364960014820099,-0.38708698749542236,-0.18769779801368713,0.2289537936449051,0.15285669267177582,0.028674999251961708,0.24209369719028473,0.1868399977684021,0.14510269463062286,-0.06637279689311981,-0.112779401242733,-0.058744799345731735,0.15540330111980438,0.10318080335855484,0.03210030123591423,0.05952899903059006,-0.059835899621248245,0.12449999898672104,-0.11670739948749542,-0.07812120020389557,0.1762252002954483,0.2653104066848755,0.0385700985789299,0.2033884972333908,0.09731090068817139,-0.2551099956035614,0.010723300278186798,-0.24695900082588196,-0.31100350618362427,-0.2747352123260498,0.07177820056676865,0.3567104935646057,0.16468140482902527,0.42613479495048523,0.002231399994343519,0.2866032123565674,0.09359239786863327,-0.390419602394104,0.003702000016346574,0.1144729033112526,-0.1305186003446579,0.05878569930791855,0.032019201666116714,0.09838130325078964,0.025022899731993675,-0.2417857050895691,-0.0843890979886055,-0.03863760083913803,0.3069781959056854,0.06603509932756424,0.15686839818954468,0.20524120330810547,0.08277320116758347,0.18608640134334564,-0.1446204036474228,-0.21642839908599854,0.03290649875998497,0.09047990292310715,0.09681539982557297,0.1857353001832962,0.14684319496154785,0.049570098519325256,0.15090729296207428,-0.09444809705018997,-0.11819770187139511,-0.06972759962081909,0.2616538107395172,0.016548100858926773,0.19388389587402344,0.23070569336414337,-0.17605659365653992,0.0636947974562645,-0.2866419851779938,-0.25375860929489136,-0.6186603903770447,-0.41628339886665344,0.30190348625183105,-0.43195441365242004,0.26369521021842957,0.2612065076828003,0.23892270028591156,0.26515939831733704,-0.044732701033353806,-0.08399979770183563,0.036908701062202454,-0.029466399922966957,-0.08529440313577652,0.025755399838089943,-0.034507401287555695,-0.054769501090049744,0.045601099729537964,0.04526060074567795,-0.18191540241241455,0.2141014039516449,0.2000485062599182,0.15830260515213013,0.2593131959438324,0.051623500883579254,0.1743651032447815,-0.052191201597452164,-0.07189899682998657,0.11570639908313751,0.09412159770727158,-0.03683739900588989,-0.06943780183792114,-0.34036439657211304,-0.17797960340976715,-0.23448610305786133,-0.19299109280109406,-0.08573289960622787,-0.15955540537834167,0.11520169675350189,0.21361319720745087,0.03447809815406799,0.3747060000896454,-0.04810670018196106,0.10692209750413895,0.10041110217571259,-0.03983230143785477,0.14428310096263885,-0.25463950634002686,-0.030970800668001175,0.08582010120153427,-0.006802999880164862,0.008160700090229511,0.1488959938287735,0.20981930196285248,0.10128030180931091,-0.08136609941720963,-0.2704068124294281,-0.10654179751873016,-0.01119100023061037,0.2318471074104309,0.12501579523086548,0.18269209563732147,0.3525902032852173,0.08854500204324722,0.0051865000277757645,-0.17686420679092407,-0.27425649762153625,-0.1680860072374344,-0.14413289725780487,-0.03436940163373947,-0.021682700142264366,0.26636719703674316,0.2228696048259735,0.1645165979862213,-0.17999890446662903,-0.3324812054634094,0.20916959643363953,0.29515960812568665,-0.07760480046272278,-0.015529800206422806,0.22444799542427063,0.26452818512916565,0.14495749771595,-0.30829548835754395,-0.1851872056722641,0.09572499990463257,0.01595119945704937,0.055930398404598236,0.1169285997748375,0.3266978859901428,0.09151139855384827,0.1339809000492096,-0.22600510716438293,-0.19703149795532227,0.15384820103645325,0.025694100186228752,-0.1325352042913437,0.06622210144996643,0.23428159952163696,0.17872430384159088,0.14487940073013306,-0.3016580045223236,-0.17187009751796722,0.05620560050010681,-0.031882401555776596,0.15571139752864838,0.1785724014043808,0.31838420033454895,0.14553770422935486,0.2224390059709549,0.02693529985845089,0.19816400110721588,-0.09581559896469116,-0.5022534132003784,-0.10996820032596588,-0.10174299776554108,0.0065484000369906425,0.1396452933549881,-0.09470280259847641,-0.04749559983611107,-0.07657039910554886,0.02892870083451271,0.02705560065805912,0.0002778999914880842,-0.08666279911994934,0.03665979951620102,-0.053707800805568695,-0.0010697999969124794,-0.2565630078315735,-0.1039775013923645,-0.052956998348236084,-0.07666949927806854,-0.16569679975509644,0.05030469968914986,0.22040949761867523,0.14178970456123352,0.18379409611225128,0.11581820249557495,0.18666359782218933,0.03375549986958504,0.3297711908817291,0.07885559648275375,0.014549200423061848,0.25319141149520874,-0.014975300058722496,0.05399269983172417,-0.2652103900909424,-0.14528410136699677,0.1055079996585846,-0.08028919994831085,-0.2356916069984436,0.02550549991428852,0.35702618956565857,0.2581287920475006,0.07023300230503082,-0.13114610314369202,-0.0650240033864975,0.031162699684500694,-0.018059799447655678,-0.1043345034122467,-0.023439299315214157,0.21105439960956573,-0.0090744998306036,0.1486213058233261,-0.035280101001262665,-0.07402929663658142,0.020250599831342697,0.19224339723587036,0.07412269711494446,-0.11538290232419968,0.16067300736904144,0.13025450706481934,0.10201810300350189,0.16410799324512482,-0.04566029831767082,-0.012237800285220146,-0.03627900034189224,-0.13354149460792542,-0.0007062000222504139,0.18987500667572021,0.07101169973611832,-0.03208189830183983,-0.18949580192565918,-0.2489681988954544,-0.01154330000281334,0.31577199697494507,0.18273089826107025,-0.17491960525512695,0.15795929729938507,0.10490939766168594,0.11753179877996445,-0.12329299747943878,-0.16016699373722076,0.0414436012506485,0.026472900062799454,-0.043359801173210144,-0.06252239644527435,0.22133499383926392,0.14598950743675232,-0.006490599829703569,-0.12260379642248154,-0.15981550514698029,0.1475141942501068,0.15578369796276093,-0.11590670049190521,0.07134959846735,0.10783190280199051,0.2016344964504242,-0.029381699860095978,-0.05020470172166824,-0.0614405982196331,0.1663990020751953,-0.05945359915494919,0.10877230018377304,0.0720478966832161,0.1619776040315628,0.09958609938621521,-0.3594442903995514,0.023054800927639008,0.3903045058250427,-0.10504510253667831,-0.18632760643959045,-0.09270109981298447,0.04783320054411888,0.10449949651956558,0.25686269998550415,0.018100500106811523,-0.021101700142025948,-0.07320699840784073,0.04541829973459244,0.038374800235033035,0.046588700264692307,0.016859399154782295,0.08996579796075821,-0.018679000437259674,-0.03592719882726669,-0.025163499638438225,0.004022399894893169,0.11236599832773209,0.022478800266981125,-0.19638900458812714,0.09625670313835144,0.13621090352535248,0.1306311935186386,-0.06448110193014145,0.0627480000257492,-0.15972250699996948,-0.18357500433921814,0.185132697224617,0.25480619072914124,-0.3780606985092163,-0.26855361461639404,-0.06678559631109238,0.013488500379025936,-0.07113370299339294,-0.06509260088205338,0.04210260137915611,0.128758504986763,-0.17761969566345215,0.06829170137643814,0.11667189747095108,0.07227429747581482,0.16501939296722412,0.05519450083374977,0.01856989972293377,-0.03142910078167915,-0.05461139976978302,-0.093675397336483,0.1113704964518547,0.06655529886484146,0.14300790429115295,0.07622060179710388,-0.35442641377449036,-0.27567610144615173,-0.004552099853754044,0.05728770047426224,0.0738368034362793,0.09190960228443146,0.2696385979652405,0.2914262115955353,0.12778419256210327,0.13313250243663788,-0.1326300948858261,0.14272630214691162,-0.1587499976158142,-0.3406592905521393,0.057075198739767075,-0.015889400616288185,0.15467560291290283,-0.2529866099357605,-0.3940432071685791,-0.07379429787397385,0.2819522023200989,0.1719760000705719,-0.13818329572677612,0.1825840026140213,0.3481062948703766,0.37085211277008057,-0.09001550078392029,-0.10338280349969864,-0.20526650547981262,0.09950999915599823,-0.2634868025779724,-0.16269280016422272,0.1631622016429901,0.2086523026227951,0.2180325984954834,-0.03990359976887703,-0.06942539662122726,-0.05537239834666252,0.051300499588251114,-0.05253859981894493,-0.1441463977098465,0.18578839302062988,0.06787840276956558,0.16100819408893585,0.1712314933538437,-0.07173740118741989,-0.13118170201778412,0.03303899988532066,-0.13255399465560913,0.04712729901075363,0.15286360681056976,0.18994680047035217,0.24756759405136108,0.11209169775247574,0.6226286888122559,0.6663081049919128,-0.25950750708580017,-0.3792423903942108,-0.20111769437789917,0.09538420289754868,-0.11334069818258286,-0.026507800444960594,-0.07696869969367981,0.08432420343160629,0.03419620171189308,0.05424460023641586,-0.07520920038223267,0.09253089874982834,0.04437819868326187,0.05837110057473183,0.0891202986240387,-0.07000800222158432,-0.11797589808702469,-0.058063898235559464,-0.031397901475429535,-0.21473479270935059,-0.1383616030216217,0.09656929969787598,0.13592660427093506,0.2444249987602234,-0.0488286018371582,-0.2609935998916626,-0.21557480096817017,0.17804700136184692,0.2967435121536255,0.2744171917438507,-0.12038339674472809,0.362688809633255,0.38265928626060486,-0.07791390269994736,0.07652439922094345,-0.08087030053138733,0.17427760362625122,-0.29824960231781006,-0.35457658767700195,0.09188000112771988,0.16989530622959137,0.162464901804924,0.01785839907824993,0.04547810181975365,0.06939069926738739,-0.08081279695034027,0.039991799741983414,-0.08465330302715302,-0.11705020070075989,0.0009216999751515687,-0.08843400329351425,-0.0026779999025166035,0.027506299316883087,0.05966610088944435,0.05723920091986656,-0.1313004046678543,0.04663499817252159,0.0855230987071991,-0.01183759979903698,0.0349602997303009,0.03077469952404499,0.03132469952106476,0.047208499163389206,-0.03760259971022606,0.07532619684934616,-0.04002330079674721,0.023245999589562416,0.008400299586355686,-0.045155301690101624,0.005292700137943029,-0.07225380092859268,0.05368709936738014,-0.10739839822053909,0.05928749963641167,-0.16127659380435944,0.014685399830341339,-0.07785920053720474,-0.06580899655818939,-0.09425420314073563,-0.030482200905680656,-0.022917600348591805,-0.007360199932008982,0.048914000391960144,0.010799099691212177,-0.0190396998077631,-0.01657159999012947,-0.08903119713068008,-0.12377370148897171,-0.09942329674959183,-0.06497719883918762,-0.038152601569890976,-0.05372580140829086,-0.09230490028858185,-0.10676100105047226,-0.00881159957498312,-0.08628740161657333,0.05494439974427223,-0.0422356016933918,0.02423829957842827,-0.017066199332475662,-0.08638910204172134,-0.06816069781780243,-0.0983446016907692,0.012236399576067924,0.08071529865264893,-0.0029706000350415707,-0.052174899727106094,0.07262170314788818,-0.030441999435424805,-0.07941149920225143,0.020058700814843178,-0.10853579640388489,0.1183042973279953,-0.004080899991095066,-0.08621100336313248,0.0399026982486248,0.08669420331716537,0.09038189798593521,-0.03330250084400177,0.02977849915623665,0.011406700126826763,-0.07352670282125473,-0.060287199914455414,0.004531200043857098,-0.053059399127960205,0.02009980008006096,-0.028251100331544876,-0.054049499332904816,-0.015615199692547321,0.03719329833984375,-0.12095379829406738,-0.10806959867477417,-0.05918490141630173,-0.0018698000349104404,0.03851089999079704,-0.0379284992814064,-0.1019802987575531,-0.0588315986096859,0.004368800204247236,-0.021610800176858902,-0.05566380172967911,-0.026184499263763428,-0.03313640132546425,-0.08935579657554626,0.034063100814819336,-0.10268569737672806,0.017337700352072716,0.07404500246047974,-0.06305599957704544,-0.012570199556648731,-0.07852540165185928,-0.018665499985218048,-0.06256049871444702,-0.02465040050446987,0.13214869797229767,0.1083471029996872,0.08965379744768143,0.15916289389133453,0.12684379518032074,-0.15946510434150696,0.033535201102495193,0.22665619850158691,-0.02694069966673851,0.2294006049633026,0.0908832997083664,0.11843410134315491,0.1335912048816681,0.033648498356342316,0.06752119958400726,-0.18332679569721222,-0.14469969272613525,-0.06930319964885712,0.0252189002931118,0.08632209897041321,-0.07408539950847626,0.06706120073795319,0.2321595996618271,-0.0020721000619232655,-0.05030180141329765,-0.12008880078792572,0.2196483016014099,0.13214750587940216,0.11441480368375778,0.017832700163125992,-0.1318524032831192,-0.1565043032169342,-0.04195469990372658,-0.18539290130138397,-0.05379309877753258,-0.017626000568270683,0.13269279897212982,0.21954120695590973,-0.02428550086915493,0.0489594005048275,0.01603809930384159,-0.10574600100517273,-0.12637999653816223,-0.06567499786615372,0.11949729919433594,0.17007030546665192,0.07723080366849899,-0.06839430332183838,0.07573889940977097,0.13388049602508545,0.01895580068230629,-0.1209551990032196,0.12619289755821228,0.08548489958047867,0.06464429944753647,0.19015739858150482,0.03838000074028969,0.08541449904441833,0.13116030395030975,-0.006166799925267696,-0.34335869550704956,-0.5677552223205566,0.0523408018052578,-0.027881700545549393,-0.051511000841856,0.049188900738954544,0.07676099985837936,0.2251168042421341,0.09452559798955917,0.04904840141534805,0.09468430280685425,-0.01886039972305298,0.07966800034046173,0.016866499558091164,0.020815599709749222,-0.058403000235557556,-0.05867559835314751,0.027074899524450302,-0.12838409841060638,-0.09435279667377472,-0.015369599685072899,0.09689539670944214,0.139423206448555,-0.07129889726638794,0.1379999965429306,0.08748549968004227,0.09298110008239746,0.20007790625095367,0.20188340544700623,-0.12881560623645782,-0.12283679842948914,-0.15365619957447052,0.03465680032968521,-0.1934099942445755,-0.3961560130119324,-0.09631980210542679,-0.19936589896678925,-0.19513559341430664,-0.059035200625658035,0.09628719836473465,0.14562790095806122,-0.04714680090546608,0.028296800330281258,0.18356579542160034,-0.08120749890804291,-0.11213929951190948,-0.0005695000290870667,-0.02250480093061924,-0.10596480220556259,-0.035356201231479645,-0.05046509951353073,-0.012587999925017357,-0.05518940091133118,-0.09408710151910782,-0.08461509644985199,0.022040100768208504,-0.026770899072289467,0.05585680156946182,-0.06906440109014511,-0.06875450164079666,-0.000817699998151511,0.04957069829106331,-0.03233730047941208,-0.08548329770565033,-0.004476500209420919,-0.05393319949507713,0.07082200050354004,-0.005592400208115578,-0.046957798302173615,0.046134401112794876,-0.059588801115751266,0.03090059943497181,0.07518699765205383,-0.030357500538229942,-0.07068579643964767,0.028670400381088257,0.02608950063586235,-0.09470579773187637,-0.06116290017962456,0.032020699232816696,0.04330940172076225,0.06270290166139603,0.01701989956200123,0.027887899428606033,0.06770259886980057,0.0438339002430439,0.08501949906349182,0.006471599917858839,-0.04598899930715561,-0.045503899455070496,-0.10775160044431686,-0.09477029740810394,-0.08256179839372635,-0.0739499032497406,0.05314150080084801,-0.05035959929227829,0.0647054985165596,-0.04395969957113266,0.04061700031161308,-0.05782439932227135,-0.015418199822306633,0.059274498373270035,-0.06308989971876144,-0.11796920001506805,0.006702300161123276,-0.06889469921588898,-0.02434699982404709,-0.09517280012369156,-0.0361458994448185,0.06957089900970459,0.0013405999634414911,0.0073354002088308334,0.01553220022469759,0.002710100030526519,0.02632809989154339,-0.05293060094118118,0.03591249883174896,0.07503080368041992,0.052769601345062256,-0.0774478018283844,0.06652829796075821,0.08208160102367401,0.009326400235295296,-0.02820109948515892,0.014231599867343903,-0.022051800042390823,0.031429801136255264,0.040671899914741516,0.08400029689073563,-0.06340370327234268,-0.11786770075559616,0.00746770016849041,0.02987780049443245,-0.033239301294088364,-0.06188980117440224,0.06120780110359192,-0.04862409830093384,-0.035034701228141785,-0.034637801349163055,-0.00960289966315031,0.03968130052089691,0.08408209681510925,-0.04960399866104126,0.08214999735355377,0.010975999757647514,-0.053137898445129395,0.034600600600242615,-0.085732601583004,-0.07670649886131287,-0.009991800412535667,-0.09308060258626938,-0.013531699776649475,0.15354910492897034,0.1318414956331253,0.016538400202989578,0.03108770027756691,-0.01011740043759346,0.03883130103349686,-0.034820400178432465,-0.012045799754559994,0.2214549034833908,0.20948180556297302,0.005930500105023384,0.06131850183010101,-0.27039480209350586,-0.15827040374279022,0.0401712991297245,0.0017019000370055437,0.11340239644050598,-0.009976900182664394,0.16146260499954224,0.19695620238780975,0.006210300140082836,0.2054823935031891,-0.18989649415016174,-0.12075050175189972,-0.16150489449501038,-0.12670479714870453,0.15123049914836884,0.18246780335903168,0.2158866971731186,0.21440500020980835,-0.02546199969947338,0.09564530104398727,0.11225059628486633,-0.04642460122704506,-0.1784168928861618,-0.14410750567913055,0.07667150348424911,0.11959140002727509,0.1435454934835434,-0.12855690717697144,0.06832990050315857,0.15558040142059326,-0.09264320135116577,-0.0676942989230156,0.021976500749588013,0.1945749968290329,0.20946939289569855,0.1502344012260437,-0.03875790163874626,0.10373629629611969,0.176923006772995,-0.11887740343809128,-0.12181069701910019,-0.033958800137043,0.2242926061153412,0.11287739872932434,0.05715709924697876,0.039113398641347885,-0.09670399874448776,0.12561100721359253,-0.08349300175905228,0.028211699798703194,0.2084507942199707,0.17819780111312866,-0.15986019372940063,-0.4951140880584717,0.5842394232749939,0.11634989827871323,-0.22231240570545197,-0.2596113979816437,-0.276715487241745,0.13164770603179932,0.061163198202848434,-0.09506580233573914,0.035217899829149246,-0.05774499848484993,-0.048708099871873856,0.09412749856710434,-0.030655700713396072,0.057358600199222565,0.08019459992647171,0.04545539990067482,0.022903500124812126,0.060446400195360184,0.18044500052928925,0.08270130306482315,0.03714289888739586,-0.21200500428676605,-0.20437969267368317,0.1831441968679428,0.030909299850463867,0.035668499767780304,0.17709170281887054,-0.1318175047636032,-0.11010680347681046,0.054857298731803894,0.38263440132141113,0.1471291035413742,0.03648339956998825,0.2091992050409317,0.15773800015449524,0.04062870144844055,0.24207019805908203,0.16908809542655945,0.1902523934841156,-0.14524470269680023,-0.1338513046503067,0.10074680298566818,-0.08242370188236237,-0.00656779995188117,0.007188600022345781,-0.09558890014886856,0.11842390149831772,-0.012694899924099445,0.1577298939228058,0.07743660360574722,0.05068010091781616,-0.21544750034809113,0.09717860072851181,0.08271809667348862,0.06903599947690964,0.20784789323806763,0.14613260328769684,0.11976999789476395,0.14837640523910522,-0.014557699672877789,-0.2793081998825073,-0.29407641291618347,0.03890150040388107,-0.2147359997034073,0.08747469633817673,0.2316707968711853,0.09592510014772415,0.27023249864578247,0.21546819806098938,-0.2145354002714157,-0.1215531975030899,-0.12396270036697388,-0.14411279559135437,0.0187694001942873,-0.06918340176343918,0.08639340102672577,0.1211773008108139,0.12129049748182297,-0.24929650127887726,-0.08493290096521378,-0.09516990184783936,-0.06963969767093658,0.20182010531425476,0.03826469928026199,0.18707780539989471,0.29987651109695435,0.12782740592956543,-0.12305790185928345,-0.11750929802656174,0.013473199680447578,-0.019354000687599182,0.06755159795284271,-0.06145879998803139,0.18632060289382935,0.21915119886398315,0.07748260349035263,-0.16828149557113647,0.0003767999878618866,0.08576790243387222,0.14286650717258453,0.11492999643087387,0.05937179923057556,0.23053090274333954,0.2110988050699234,-0.05100800096988678,0.21572169661521912,-0.18568089604377747,-0.13713760673999786,-0.6426864266395569,-0.1982613056898117,0.11054360121488571,-0.4065623879432678,-0.13575200736522675,0.05771879851818085,-0.003033899934962392,0.06965020298957825,0.09549490362405777,0.0006575000006705523,-0.01349989976733923,-0.07847540080547333,-0.08211269974708557,-0.06325740367174149,0.008227399550378323,-0.22848789393901825,-0.21100309491157532,-0.05257130041718483,-0.1755491942167282,0.12425009906291962,0.03599480167031288,0.18404079973697662,0.28285059332847595,0.08950590342283249,-0.11626599729061127,0.10996419936418533,0.14399519562721252,0.23524260520935059,0.13620629906654358,0.04892180114984512,0.06465879827737808,0.1181081011891365,-0.017848100513219833,-0.25313839316368103,-0.2820427119731903,-0.05123399943113327,-0.2088225930929184,-0.08367720246315002,-0.027179399505257607,0.0316212996840477,0.1781315952539444,0.13285960257053375,-0.10255099833011627,-0.054387301206588745,-0.040244098752737045,0.0589120015501976,0.03790320083498955,-0.03980740159749985,-0.014965100213885307,-0.03548070043325424,0.06800980120897293,0.04072429984807968,0.06245740130543709,-0.00431569991633296,0.0950511023402214,-0.024379299953579903,-0.010910799726843834,0.00138369994238019,0.07696130126714706,0.07109739631414413,0.0348861999809742,-0.06664100289344788,-0.07646030187606812,0.00897619966417551,-0.07881499826908112,-0.038857199251651764,0.03930500149726868,-0.026845399290323257,0.005721599794924259,-0.0025567999109625816,0.038848601281642914,-0.05468960106372833,0.040550701320171356,0.07643970102071762,-0.1112826019525528,-0.0037626998964697123,0.020598599687218666,-0.029452599585056305,0.07061479985713959,0.024553999304771423,-0.058837298303842545,-0.0324660986661911,0.06981779634952545,-0.0923829972743988,-0.01621220074594021,-0.1023000031709671,-0.12048090249300003,-0.07355979830026627,-0.035093098878860474,-0.04361430183053017,-0.03932959958910942,-0.059562601149082184,-0.1158452033996582,-0.10896089673042297,-0.11318939924240112,0.025816500186920166,0.015622200444340706,-0.1087493970990181,-0.01107299979776144,-0.10945449769496918,-0.10072840005159378,0.014715500175952911,-0.08129449933767319,-0.03777199983596802,0.05056789889931679,0.06061600148677826,-0.09112580120563507,-0.049338001757860184,-0.11216980218887329,0.010536099784076214,-0.05256069824099541,-0.041453998535871506,0.04654889926314354,-0.017362600192427635,-0.04933749884366989,-0.006796100176870823,-0.04839739948511124,0.034620899707078934,-0.06619539856910706,0.004481600131839514,-0.05557379871606827,0.08035740256309509,0.07669089734554291,0.05077340081334114,-0.011511700227856636,0.06936399638652802,-0.06503739953041077,-0.06060589849948883,0.03217029944062233,-0.07776779681444168,0.08336339890956879,0.02919819951057434,0.04722369834780693,0.006962399929761887,-0.016311300918459892,-0.0007258999976329505,0.002749199979007244,0.04679819941520691,0.04770850017666817,0.023830000311136246,0.06088149920105934,0.0724119022488594,-0.004653700161725283,0.0030710999853909016,0.04030219838023186,-0.11365079879760742,0.04827579855918884,-0.08709339797496796,-0.07318560034036636,-0.06676570326089859,0.05025339871644974,-0.014950999990105629,0.0426132008433342,0.12660449743270874,-0.021347399801015854,0.023162400349974632,0.12652580440044403,-0.01845400035381317,-0.009339399635791779,-0.06681650131940842,-0.11934900283813477,0.1801266074180603,0.04826129972934723,-0.12092670053243637,-0.2421620935201645,0.016942299902439117,0.12614339590072632,0.25169840455055237,0.08118130266666412,0.04745610058307648,0.028176400810480118,0.1663852035999298,-0.14379699528217316,-0.22186659276485443,0.028577499091625214,-0.1767158955335617,-0.18150250613689423,-0.24191680550575256,-0.25212520360946655,0.10886470228433609,0.10587389767169952,-0.1436396986246109,-0.36864200234413147,0.11176729947328568,0.2697522044181824,0.274060994386673,-0.07917240262031555,-0.13984890282154083,0.08936820179224014,0.14267760515213013,-0.21488940715789795,-0.2334216982126236,0.1609811931848526,-0.05410879850387573,0.0315903015434742,-0.06928659975528717,-0.09390009939670563,0.19507169723510742,0.1180242970585823,-0.054288800805807114,-0.06174419820308685,0.1612749993801117,0.0026436999905854464,-0.053796298801898956,0.1333979070186615,0.003433800069615245,0.07828690111637115,0.07797800004482269,-0.04777200147509575,-0.08796189725399017,0.12594960629940033,-0.06694839894771576,0.05434950068593025,-0.19684180617332458,0.38185080885887146,0.4464206099510193,-0.22520039975643158,0.39471718668937683,0.5176011919975281,0.01467289961874485,-0.5177592039108276,-0.6667206287384033,0.055108100175857544,0.09437409788370132,0.07450550049543381,0.05520530045032501,0.07687609642744064,0.07102169841527939,-0.02713710069656372,-0.01939689926803112,-0.01993359997868538,0.07858110219240189,0.02306240051984787,0.2280403971672058,0.13194780051708221,-0.19929270446300507,-0.06451240181922913,0.011471100151538849,-0.060873501002788544,-0.0048281000927090645,0.06448060274124146,-0.1495853066444397,-0.17756709456443787,0.2132200002670288,0.1566794067621231,-0.2433830052614212,0.014885099604725838,0.15863299369812012,0.41033440828323364,0.0033772001042962074,0.048251498490571976,0.23269440233707428,0.07995259761810303,-0.30779680609703064,-0.10955590009689331,0.08927030116319656,-0.06309600174427032,-0.19719040393829346,-0.0071609001606702805,0.12804469466209412,0.16464680433273315,-0.21377450227737427,0.1482781022787094,0.28891870379447937,0.012289299629628658,0.10332489758729935,0.17819659411907196,-0.14175540208816528,-0.07446569949388504,0.10600560158491135,-0.3313966989517212,0.05017910152673721,0.21589739620685577,0.28434550762176514,0.18441109359264374,-0.01623079925775528,0.002004199894145131,-0.024300100281834602,0.03699779883027077,-0.14836519956588745,-0.32309770584106445,0.07905109971761703,-0.10124140232801437,-0.019172700121998787,0.15789969265460968,-0.16697829961776733,0.27441099286079407,0.236952006816864,-0.2992601990699768,-0.15531590580940247,0.03224720060825348,0.21096239984035492,-0.1831924021244049,-0.26182350516319275,-0.22699719667434692,0.05055470019578934,0.18329459428787231,-0.2458444982767105,-0.19322450459003448,0.25255289673805237,0.030544299632310867,0.007889200001955032,0.0806317999958992,-0.10344839841127396,0.21246500313282013,0.07127950340509415,-0.23679019510746002,-0.10962969809770584,0.12741750478744507,0.08125309646129608,-0.03242339938879013,0.01285490021109581,0.02847909927368164,0.00018390000332146883,0.20040279626846313,-0.1269558072090149,0.1389274001121521,0.19935640692710876,0.09403499960899353,0.12024769932031631,0.22415460646152496,0.5268192887306213,0.3090100884437561,-0.6824191212654114,0.21437649428844452,0.18365949392318726,-0.23666800558567047,-0.5911301970481873,-0.2739894986152649,0.31015270948410034,-0.037175700068473816,-0.01905139908194542,0.07368730008602142,-0.059995800256729126,0.05042159929871559,0.05677010118961334,0.011752700433135033,-0.047435201704502106,0.017580900341272354,0.01958009973168373,0.008742500096559525,-0.03963569924235344,-0.3352971076965332,-0.1585838943719864,0.23970739543437958,-0.17792129516601562,-0.11337880045175552,0.1665228009223938,-0.31064239144325256,-0.11496700346469879,0.2922053039073944,0.31245699524879456,-0.009945699945092201,0.060090601444244385,0.37379980087280273,0.25501778721809387,-0.2323043942451477,0.041703999042510986,0.18889829516410828,-0.03190990164875984,-0.26451200246810913,-0.1572611927986145,0.20882189273834229,-0.19188539683818817,-0.09655109792947769,0.17645660042762756,-0.08368860185146332,0.10042160004377365,0.021677600219845772,0.13444779813289642,0.13418860733509064,0.07280450314283371,0.1682237982749939,-0.06807079911231995,-0.1701239049434662,0.01855579949915409,0.18787769973278046,0.16738709807395935,0.20219449698925018,0.18898619711399078,0.00680350000038743,0.1502400040626526,-0.05573349818587303,-0.41110759973526,-0.4656651020050049,-0.09200049936771393,0.18929709494113922,0.01833540014922619,0.18339620530605316,0.055545300245285034,0.1657831072807312,0.29053521156311035,-0.09657979756593704,-0.30459579825401306,-0.167836993932724,0.04710249975323677,-0.008763999678194523,0.08356060087680817,0.09201879799365997,-0.02384990081191063,-0.03155969828367233,-0.21644659340381622,-0.27437660098075867,0.010043700225651264,0.1246068999171257,0.033677298575639725,0.05071510002017021,0.10637310147285461,0.1882455050945282,0.0454850010573864,-0.2669728100299835,-0.2205324023962021,0.013337899930775166,0.14705710113048553,0.07238879799842834,0.07577530294656754,0.08753839880228043,0.0481996014714241,-0.008082199841737747,-0.16687160730361938,-0.15499840676784515,0.1481868028640747,0.12441959977149963,0.13965299725532532,0.1582401990890503,0.07707320153713226,0.08217679709196091,0.03564370051026344,-0.18468180298805237,-0.542790412902832,-0.4981965124607086,0.17909039556980133,-0.18527840077877045,0.04072419926524162,0.2868238091468811,-0.006888300180435181,0.3372325003147125,0.24909700453281403,0.034684501588344574,-0.04709450155496597,0.006445799954235554,-0.08112730085849762,-0.01921430043876171,0.0038817001041024923,-0.02855760045349598,-0.013806000351905823,0.0774684026837349,-0.3258754014968872,-0.032139699906110764,0.1948270946741104,0.08058880269527435,0.05740109831094742,0.005620799958705902,0.08097779750823975,0.07318539917469025,-0.20158639550209045,0.12233100086450577,0.06078759953379631,-0.10755070298910141,0.1707203984260559,0.05260099843144417,-0.05741019919514656,-0.04130509868264198,-0.06339859962463379,-0.14999869465827942,-0.2946782112121582,-0.1429058015346527,0.16631439328193665,-0.061397798359394073,0.1523762047290802,0.12393119931221008,0.15920880436897278,0.2010072022676468,-0.08258230239152908]},"features.3.bias":{"shape":[24],"data":[0.02043299935758114,0.10590410232543945,-0.0468657985329628,-0.07681629806756973,0.03404510021209717,-0.04244840145111084,-0.015047499909996986,-0.0013722999719902873,0.10860010236501694,-2.8200000087963417e-05,-0.08119220286607742,-0.05873050168156624,0.07370089739561081,-0.07938069850206375,-0.049717098474502563,-0.10493530333042145,0.0314905010163784,-0.07336699962615967,-0.10223159939050674,-0.019456500187516212,-0.08693429827690125,0.09927570074796677,0.07911430299282074,-0.10341919958591461]},"classifier.1.weight":{"shape":[48,384],"data":[0.05080199986696243,-0.035987600684165955,-0.024285199120640755,-0.046328701078891754,0.025206299498677254,-0.023351000621914864,0.013536999933421612,0.03447809815406799,0.04804620146751404,0.03088649921119213,0.017124800011515617,0.03896709904074669,0.008509400300681591,0.04521780088543892,0.03650280088186264,-0.047957200556993484,0.020982399582862854,0.01398869976401329,-0.05348559841513634,0.011148699559271336,0.0009723000111989677,0.013004600070416927,-0.014782999642193317,-0.03250329941511154,-0.06404060125350952,-0.05645490065217018,-0.07619339972734451,-0.02758990041911602,-0.07116380333900452,-0.039257001131772995,0.022614900022745132,0.011620399542152882,-0.02081269957125187,-0.06717140227556229,-0.011458699591457844,0.026843000203371048,0.01642489992082119,-0.028744900599122047,-0.05422639846801758,-0.0365849994122982,-0.008428599685430527,-0.05992339923977852,-0.07245469838380814,0.00038889999268576503,-0.024924499914050102,-0.059224698692560196,-0.05106690153479576,0.02175999991595745,0.010670199990272522,-0.03326220065355301,0.0485352985560894,-0.050822000950574875,-0.010053000412881374,0.02883479930460453,0.0045043001882731915,0.03311790153384209,0.006956900004297495,0.029488200321793556,-0.005391799844801426,0.0006022999878041446,0.02015569992363453,0.009572000242769718,0.007274699863046408,-0.0485105998814106,-0.061614301055669785,-0.02466209977865219,-0.02931169979274273,0.021881500259041786,0.0019199999514967203,-0.0536453016102314,-0.0159837007522583,-0.04423249885439873,-0.024435700848698616,0.010453700087964535,-0.0551706999540329,-0.03746959939599037,-0.04581040143966675,-0.011653900146484375,0.0038574999198317528,0.015087500214576721,-0.03939269855618477,-0.021448999643325806,-0.05367239937186241,0.022457800805568695,-0.0601251982152462,-0.05340740084648132,0.0038431999273598194,-0.0074072000570595264,0.010708499699831009,-0.02449220046401024,-0.0646635964512825,-0.06928800046443939,0.0261400006711483,-0.04636570066213608,-0.046316999942064285,-0.012866100296378136,-0.011580299586057663,0.0009599999757483602,-0.01038379967212677,-0.014035999774932861,-0.0368104986846447,-0.06497669965028763,-0.06802350282669067,-0.05840279906988144,-0.012391800060868263,-0.008075599558651447,0.010614500381052494,-0.01358569972217083,-0.05305889993906021,-0.060071300715208054,-0.06432680040597916,-0.010449100285768509,-0.06971020251512527,0.014632100239396095,-0.005978900007903576,-0.06028600037097931,-0.043633799999952316,-0.05745850130915642,-0.0020653000101447105,-0.0006535000284202397,0.0008338000043295324,-0.04258130118250847,-0.036332499235868454,0.02449280023574829,-0.07072620093822479,-0.003221800085157156,-0.03354790061712265,-0.027861999347805977,0.010514900088310242,-0.028426699340343475,0.01903809979557991,-0.062066998332738876,-0.027472900226712227,-0.0057044001296162605,0.0035327000077813864,-0.057458698749542236,-0.07123609632253647,-0.06287439912557602,-0.0602274015545845,-0.013666899874806404,-0.020345399156212807,-0.024948399513959885,-0.03482700139284134,-0.01562429964542389,-0.00558969983831048,0.008660700172185898,-0.015372400172054768,-0.06496769934892654,-0.03511539846658707,-0.00658740010112524,-0.04119180142879486,-0.013719500042498112,0.02837659977376461,-0.061748601496219635,-0.018179800361394882,-0.07214289903640747,-0.03501740097999573,-0.036375001072883606,-0.00997720006853342,-0.0045846002176404,-0.02000349946320057,-0.03968710079789162,-0.04937690123915672,-0.032857801765203476,-0.059025898575782776,-0.05895939841866493,-0.021067099645733833,0.009992100298404694,-0.058243200182914734,-0.011156699620187283,-0.03059309907257557,-0.02592490054666996,-0.06671209633350372,0.016684800386428833,-0.03551860153675079,-0.025747599080204964,-0.024032900109887123,0.02799079939723015,0.003431699937209487,-0.003819799982011318,-0.04134000092744827,0.011004500091075897,-0.06508470326662064,-0.03711409866809845,0.029837999492883682,-0.02781040035188198,-0.011068199761211872,-0.022103499621152878,-0.06765689700841904,0.026532800868153572,0.017331600189208984,0.00023770000552758574,-0.02168780006468296,-0.027555400505661964,-0.024285899475216866,0.0035453999880701303,-0.04929380118846893,-0.07285989820957184,-0.06384050101041794,-0.04588539898395538,-0.004481100011616945,-0.009456099942326546,-0.053495701402425766,-0.018310200423002243,-0.020861899480223656,-0.07702179998159409,-0.07243780046701431,0.017642300575971603,0.02438879944384098,0.012115499936044216,-0.020636100322008133,-0.06664170324802399,-0.019315600395202637,0.012967599555850029,-0.014418699778616428,-0.041303601115942,0.011390100233256817,-0.05951090157032013,-0.05901020020246506,0.019345400854945183,0.024073699489235878,-0.02812499925494194,0.015157699584960938,-0.05461470037698746,-0.004724300000816584,-0.056087300181388855,-0.011767400428652763,0.025936000049114227,0.009101600386202335,-0.015431700274348259,-0.06246209889650345,-0.023625100031495094,-0.036439500749111176,-0.04387789964675903,-0.06198690086603165,0.013648100197315216,-0.04809660091996193,-0.0004990000161342323,-0.025300199165940285,0.0014145999448373914,-0.04588880017399788,-0.029557500034570694,-0.005611199885606766,0.04752570018172264,0.015317999757826328,-0.028229599818587303,0.04732019826769829,-0.0020262000616639853,-0.009833799675107002,0.02708199992775917,0.02339800074696541,0.04204599931836128,0.035321999341249466,-0.006121399812400341,0.006589199882000685,0.03877739980816841,0.016872700303792953,-0.06919419765472412,-0.051303599029779434,-0.05287469923496246,0.025522299110889435,-0.04318179935216904,-0.014470900408923626,-0.002294400008395314,-0.012780600227415562,-0.04469919949769974,-0.03422660008072853,-0.02294909954071045,-0.01637130044400692,-0.045460399240255356,-0.03984360024333,0.006883800029754639,0.018552999943494797,-0.02669519931077957,-0.050047699362039566,-0.030888399109244347,0.001815499970689416,-0.0458437018096447,-0.012756800279021263,0.009806799702346325,0.04712719842791557,-0.037943098694086075,0.0483487993478775,-0.012932400219142437,0.03886619955301285,-0.033750999718904495,-0.002808700082823634,-0.05002729967236519,-0.04305249825119972,0.016224699094891548,-0.0223603006452322,0.003594700014218688,-0.034240301698446274,-0.0035914999898523092,-0.005951699800789356,0.011217200197279453,-0.03700830042362213,0.02191220037639141,-0.04419479891657829,-0.06385689973831177,-0.03820129856467247,-0.027852699160575867,0.0018907999619841576,-0.024964600801467896,0.026040300726890564,-0.02394540049135685,-0.03660000115633011,-0.019790999591350555,-0.05260179936885834,-0.027930499985814095,-0.04161280021071434,-0.01692499965429306,-0.03513529896736145,-0.017657600343227386,-0.031649600714445114,0.009255699813365936,-0.008950999937951565,-0.07841400057077408,-0.022310899570584297,-0.04511849954724312,-0.04344699904322624,-0.011435099877417088,0.048002198338508606,0.008802699856460094,0.03242630138993263,0.02098269946873188,-0.04507710039615631,-0.030319400131702423,-0.014621599577367306,-0.026019100099802017,0.02896150015294552,0.028543399646878242,-0.011511700227856636,0.02619840018451214,-0.03670300170779228,0.013666300103068352,-0.009745200164616108,-0.012469599954783916,-0.023262299597263336,0.01156069990247488,-0.025494499132037163,-0.014608800411224365,-0.06024330109357834,-0.017099600285291672,-0.060455601662397385,-0.0270565003156662,-0.04035940021276474,0.01624169945716858,-0.027261700481176376,-0.002430699998512864,-0.06740809977054596,-0.036913201212882996,0.016040600836277008,0.015131800435483456,0.01662060059607029,-0.0364890992641449,0.016992300748825073,0.015170799568295479,-0.04539399966597557,-0.004370800219476223,-0.0009628999978303909,-0.0717231035232544,-0.049213800579309464,-0.045145001262426376,-0.009944399818778038,-0.05846619978547096,-0.005491499789059162,-0.05715230107307434,0.013349699787795544,-0.0138283995911479,-0.05541620030999184,-0.021922500804066658,-0.010480199940502644,-0.007091499865055084,0.014206299558281898,0.015666300430893898,0.014960800297558308,0.007052999921143055,0.0035814999137073755,-0.021575400605797768,0.005185300018638372,-0.012739400379359722,-0.034307800233364105,-0.012220500037074089,-0.03839400038123131,0.050948601216077805,0.004402299877256155,-0.008358200080692768,-0.013857699930667877,-0.02228580042719841,-0.03106449916958809,-0.017086699604988098,0.0209158007055521,0.029565799981355667,0.013036400079727173,-0.021944699808955193,0.023124000057578087,-0.015994399785995483,-0.004836900159716606,0.06774380058050156,-0.012006600387394428,-0.03620719909667969,-0.10153699666261673,0.0032746000215411186,-0.05656059831380844,-0.04874010011553764,0.061767399311065674,0.024473000317811966,-0.17462259531021118,-0.13391299545764923,0.07799019664525986,0.2135120928287506,0.1322994977235794,0.03414350003004074,0.06442470103502274,-0.07138369977474213,-0.04097149893641472,-0.06035590171813965,-0.02155669964849949,-0.031626999378204346,-0.016147900372743607,0.011912999674677849,0.0011756999883800745,-0.01165239978581667,0.1651436984539032,0.13004900515079498,-0.018011700361967087,-0.05905440077185631,0.07445760071277618,-0.015133200213313103,-0.05094769969582558,0.13447509706020355,0.04520519822835922,0.026828700676560402,-0.010684399865567684,0.04736199975013733,0.014085800386965275,0.012365800328552723,0.0342026986181736,0.0466713011264801,-0.0380157008767128,0.027351299300789833,-0.017966799437999725,-0.043839000165462494,0.018357200548052788,0.020010100677609444,-0.0014329999685287476,0.00436619995161891,-0.09962619841098785,0.009818400256335735,0.06762789934873581,-0.08690489828586578,-0.08161039650440216,-0.023323699831962585,-0.010941499844193459,0.1185310035943985,0.06586279720067978,-0.019112199544906616,0.046693798154592514,-0.0926624983549118,0.08049579709768295,0.09932540357112885,0.07313709706068039,0.04730970039963722,-0.028734900057315826,-0.042388301342725754,-0.015413899905979633,-0.07131479680538177,0.16099940240383148,0.038582999259233475,-0.01631009951233864,-0.038722001016139984,-0.04956420138478279,0.10182879865169525,-0.04015609994530678,0.023056000471115112,-0.12179499864578247,0.07005880028009415,-0.0537308007478714,0.13892659544944763,-0.08546389639377594,0.011117599904537201,0.002894999925047159,0.01392580009996891,-0.09959720075130463,-0.009704300202429295,-0.002257700078189373,-0.02599260024726391,0.04669329896569252,0.09248580038547516,-0.1168477013707161,-0.04800970107316971,0.05714710056781769,7.560000085504726e-05,0.019562900066375732,0.14233529567718506,-0.0697908028960228,0.03997720032930374,0.0033460999839007854,0.046372801065444946,-0.02425220049917698,0.048782799392938614,0.005764099769294262,-0.11220920085906982,0.0809871032834053,-0.0630296990275383,-0.10544589906930923,0.12671910226345062,0.015727300196886063,-0.022457299754023552,0.14023280143737793,-0.11717929691076279,0.05689280107617378,0.053988099098205566,0.0342567004263401,0.003923200070858002,0.0699692964553833,0.012556499801576138,-0.05891679972410202,-0.005845800042152405,0.027044599875807762,0.13424140214920044,-0.01694530062377453,-0.055468201637268066,-0.2053564041852951,0.15175770223140717,-0.1115724965929985,0.02498910017311573,-0.01979679986834526,-0.1181425005197525,0.043162498623132706,-0.02857399918138981,0.1249018982052803,0.03252419829368591,0.0495482012629509,0.038107000291347504,-0.00024120000307448208,0.07085210084915161,0.0378836989402771,0.044651299715042114,-0.1086679995059967,-0.09569639712572098,0.06770259886980057,0.22808420658111572,-0.14793899655342102,0.001779200043529272,-0.01873829960823059,-0.011784699745476246,-0.11746799945831299,-0.00872969999909401,0.05669629946351051,0.02772269956767559,0.14793060719966888,0.1054098978638649,-0.11529730260372162,-0.0694236010313034,0.07341410219669342,-0.037690501660108566,0.008009400218725204,0.07844959944486618,-0.11079800128936768,-0.01801219955086708,-0.042337700724601746,0.014372600242495537,-0.10976549983024597,0.026786699891090393,0.03872879967093468,0.03618279844522476,0.19168899953365326,0.1344866007566452,-0.07679270207881927,-0.015049800276756287,0.05610259994864464,-0.10295789688825607,-0.051996100693941116,0.10448019951581955,-0.09408800303936005,0.0007229999755509198,-0.01518150046467781,-0.04300770163536072,0.12096519768238068,0.07300720363855362,0.005425000097602606,-0.050774700939655304,0.08204759657382965,0.00832619983702898,0.11862160265445709,0.06507659703493118,-0.11625900119543076,0.03758519887924194,0.08538679778575897,0.114935502409935,-0.1048727035522461,-0.011933100409805775,-0.007016600109636784,-0.06398560106754303,0.050971098244190216,-0.015332699753344059,-0.03040209971368313,-0.005378799978643656,-0.018610600382089615,0.04163790121674538,0.059191200882196426,0.03998300060629845,-0.1667284071445465,0.020145799964666367,0.0367077998816967,0.12957899272441864,-0.08580560237169266,-0.1018282026052475,0.011499100364744663,-0.03319599851965904,-0.043529000133275986,0.0669713020324707,-0.058097898960113525,-0.026634199544787407,-0.01328010018914938,0.06880269944667816,0.19505740702152252,0.13521790504455566,-0.2377292960882187,0.07869890332221985,-0.0077031999826431274,0.11662779748439789,-0.050093699246644974,-0.010801900178194046,0.0062436000443995,0.004079599864780903,-0.04128560051321983,0.04124530032277107,-0.023937400430440903,-0.029075900092720985,0.08160950243473053,-0.020841499790549278,0.041540998965501785,0.042472999542951584,0.01917319931089878,0.04817669838666916,0.01897669956088066,-0.03592810034751892,0.0018463999731466174,0.008348999544978142,0.05475980043411255,-0.035598501563072205,0.011803699657320976,0.08360780030488968,0.01009989995509386,-0.020434899255633354,0.141444593667984,-0.05345090106129646,-0.12436729669570923,0.04939569905400276,-0.2121216058731079,-0.23319190740585327,0.09873279929161072,0.0017467000288888812,-0.008754399605095387,-0.04178189858794212,-0.013741699978709221,0.018887599930167198,0.009519100189208984,-0.020314199849963188,-0.008829999715089798,0.00782059971243143,-0.011426799930632114,0.04255269840359688,-0.005792300216853619,-0.0034610999282449484,-0.04883449897170067,-0.02821739949285984,0.046384599059820175,-0.017833400517702103,-0.07870499789714813,0.02905610017478466,0.03628639876842499,-0.15846949815750122,-0.047730401158332825,0.038562700152397156,-0.03213230147957802,0.028033500537276268,0.04711829870939255,-0.055919598788022995,0.006031100172549486,-0.03958040103316307,0.12945610284805298,0.11153329908847809,0.07726450264453888,0.11266230046749115,-2.7999999474559445e-06,0.0036235000006854534,0.0016240000259131193,-0.02113340049982071,0.04557479918003082,0.0687457025051117,0.02200149931013584,-0.09106150269508362,0.11509790271520615,0.06307269632816315,0.011764699593186378,0.14517289400100708,-0.20575229823589325,-0.17623460292816162,0.04591359943151474,0.05062419921159744,0.009942900389432907,-0.03372960165143013,0.01964779943227768,-0.03222639858722687,-0.036347199231386185,-0.010057100094854832,0.03543119877576828,-0.021648699417710304,0.004392900038510561,0.04750889912247658,-0.010613500140607357,-0.008287199772894382,-0.0369752012193203,0.04836120083928108,-0.017741600051522255,-0.05897520110011101,0.010089799761772156,-0.15346740186214447,0.06756620109081268,0.05302939936518669,-0.00584070011973381,0.14592309296131134,-0.05932049825787544,0.00891560036689043,-0.29261499643325806,0.14491449296474457,0.037118200212717056,0.05627939850091934,0.0623089000582695,0.0775768980383873,-0.11617939919233322,0.03336099907755852,-0.03606579825282097,0.11064799875020981,0.03405509889125824,0.005248600151389837,-0.023487400263547897,0.06245720013976097,0.08061470091342926,-0.10732950270175934,0.06824970245361328,-0.1435178965330124,-0.021877799183130264,0.006548100151121616,-0.016177300363779068,0.038054898381233215,0.1273535043001175,-0.19779090583324432,0.007959200069308281,0.003172399941831827,-0.04171919822692871,-0.06274890154600143,-0.05572180077433586,0.13015469908714294,0.022345000877976418,-0.06616330146789551,0.07625339925289154,0.10262729972600937,-0.1758493036031723,0.04421849921345711,0.01832979917526245,-0.2080134004354477,-0.13955390453338623,0.019051700830459595,0.015952499583363533,-0.04158300161361694,0.004164400044828653,-0.02680489979684353,0.04261469841003418,0.008489199914038181,-0.027347100898623466,-0.038623400032520294,-0.010741099715232849,-0.05090760067105293,-0.03335480019450188,-0.014281700365245342,-0.0031135999597609043,-0.012375599704682827,-0.014194799587130547,0.021381299942731857,-0.12158840149641037,-0.09887690097093582,-0.24079559743404388,0.022202499210834503,0.2880055904388428,0.18853239715099335,0.12148959934711456,-0.16583210229873657,-0.11410590261220932,-0.12349460273981094,0.08647789806127548,0.16511070728302002,-0.062375299632549286,0.046738699078559875,-0.022563699632883072,0.0390808992087841,0.05159220099449158,0.0011609999928623438,0.04360799863934517,-0.011570700444281101,0.03786810114979744,-0.05970269814133644,0.0748474970459938,-0.031101800501346588,-0.024143999442458153,0.12470100075006485,-0.053672101348638535,-0.09137120097875595,0.08986680209636688,-0.007760200183838606,-0.046156201511621475,0.13170009851455688,-0.042250800877809525,0.04633580148220062,0.03221900016069412,-0.006455699913203716,-0.007396100088953972,-0.05067579820752144,-0.02404719963669777,0.04401339963078499,0.011588100343942642,-0.05011729896068573,8.27999974717386e-05,0.007882200181484222,0.03915080055594444,-0.05030979961156845,-0.03351590037345886,0.02018279954791069,-0.03561069816350937,0.03392359986901283,-0.02324960008263588,-0.10514599829912186,0.03948710113763809,0.09580200165510178,0.1212247982621193,0.15212950110435486,-0.10243190079927444,-0.07422590255737305,0.0024266999680548906,-0.08097779750823975,-5.189999865251593e-05,0.04415620118379593,0.04689370095729828,-0.08440069854259491,0.09286420047283173,-0.004869000054895878,0.03449629992246628,0.05776340141892433,0.12248449772596359,-0.12130430340766907,0.03988540172576904,-0.03256180137395859,0.03649359941482544,0.012092499993741512,-0.014410099945962429,-0.15793730318546295,-0.07698459923267365,0.06873749941587448,0.08515559881925583,0.06089299917221069,0.017851900309324265,-0.04508310183882713,0.0728204995393753,0.020715799182653427,0.18138660490512848,-0.04948189854621887,0.03684829920530319,-0.042735401540994644,-0.103684201836586,0.028030799701809883,-0.02178099937736988,-0.15497229993343353,0.002509600017219782,-0.027968699112534523,-0.005763600114732981,0.07145360112190247,0.03588220104575157,-0.011916600167751312,0.039651401340961456,-0.07410559803247452,-0.05975969880819321,0.08561590313911438,0.07996860146522522,-0.06303740292787552,-0.06420449912548065,0.07462389767169952,-0.1954594999551773,0.2576839029788971,-0.01540790032595396,0.11273539811372757,-0.033657800406217575,0.035575900226831436,0.0314009003341198,0.023383600637316704,0.004749199841171503,0.02262520045042038,-0.11316709965467453,-0.013482900336384773,0.07999079674482346,0.05103230103850365,0.1772823929786682,0.03225519880652428,0.08649110049009323,-0.101972296833992,-0.015105299651622772,-0.02764729969203472,-0.10564249753952026,-0.021258000284433365,0.13811269402503967,0.03890389949083328,0.05067230015993118,0.04693730175495148,-0.06198370084166527,-0.09693770110607147,-0.07501479983329773,-0.12091299891471863,0.06021999940276146,0.11218109726905823,-0.013148699887096882,-0.126412495970726,-0.012351700104773045,-0.1448734998703003,0.1562252938747406,0.22415119409561157,0.13437780737876892,-0.008342900313436985,0.00781750027090311,-0.02319980040192604,0.05248120054602623,0.017705699428915977,0.11981859803199768,-0.02679849974811077,-0.049170300364494324,0.05732240155339241,-0.027614299207925797,-0.16345900297164917,-0.022109199315309525,0.058787498623132706,-0.016613200306892395,0.09560199826955795,0.052826400846242905,0.07712289690971375,0.02611679956316948,0.07544189691543579,0.059209100902080536,-0.023781800642609596,0.07742469757795334,0.0372311994433403,-7.31999971321784e-05,0.09671500325202942,-0.06427430361509323,-0.13048820197582245,0.029980899766087532,0.02776169963181019,-0.06384129822254181,0.1560118943452835,0.01838120073080063,0.008108500391244888,0.0829181969165802,0.04349679872393608,-0.20111960172653198,-0.04192889854311943,-0.07403919845819473,-0.05665320158004761,0.09763219952583313,-0.008440099656581879,0.04236840084195137,-0.04454220086336136,0.010182499885559082,-0.1686747968196869,0.2051714062690735,0.09323489665985107,0.09833420068025589,0.03537039831280708,0.05410299822688103,0.046654701232910156,-0.03885810077190399,-0.0748927965760231,-0.07403220236301422,-0.03599470108747482,0.009535999968647957,0.022337500005960464,0.06567049771547318,-0.06354569643735886,-0.06098860129714012,-0.060972701758146286,0.10501360148191452,0.14762219786643982,0.06743050366640091,-0.0028333000373095274,0.08543580025434494,0.08674950152635574,-0.2242411971092224,-0.06080710142850876,-0.12186340242624283,-0.14167259633541107,0.0621085986495018,-0.08632119745016098,0.1475761979818344,0.009224999696016312,-0.17344239354133606,0.012455900199711323,0.046178098767995834,0.040574200451374054,-0.014642000198364258,-0.024717599153518677,0.05127910152077675,0.0065843998454511166,0.11386600136756897,0.034608401358127594,0.0017790000420063734,0.044708698987960815,-0.00227569998241961,-0.03271789848804474,0.01638370007276535,-0.046213798224925995,0.003016500035300851,0.08319699764251709,0.04453229904174805,-0.0508882999420166,0.037000298500061035,-0.0020312999840825796,0.033250901848077774,-0.052691299468278885,0.007857399992644787,-0.038478899747133255,-0.06411709636449814,-0.05679979920387268,0.12565739452838898,0.12403599917888641,-0.1303528994321823,0.018632300198078156,-0.05483059957623482,-0.07597620040178299,0.2506932020187378,-0.018189800903201103,0.022041400894522667,-0.022449899464845657,0.047996100038290024,0.015526399947702885,-0.038047000765800476,-0.008830900304019451,-0.01783120073378086,0.009978099726140499,-0.0033414000645279884,0.014998000115156174,-0.03731520101428032,-0.036670900881290436,-0.030856799334287643,0.04731990024447441,-0.01805810071527958,0.03293300047516823,0.010675700381398201,-0.003555099945515394,0.06793300062417984,-0.14525429904460907,-0.07101520150899887,0.09736210107803345,0.06400120258331299,0.06015539914369583,-0.12089730054140091,-0.13763390481472015,-0.06483250111341476,-0.12221790105104446,-0.006947900168597698,0.08045429736375809,0.017469899728894234,-0.036909498274326324,0.10532409697771072,0.01805170066654682,-0.003631599945947528,0.001554399961605668,-0.10344389826059341,-0.11890369653701782,-0.034685999155044556,-0.17415380477905273,-0.02093690074980259,0.12126430124044418,0.048058900982141495,0.058229099959135056,-0.11308539658784866,0.05974699929356575,0.05528939887881279,0.07089050114154816,0.055170100182294846,0.050536300987005234,0.03026369959115982,-0.04970879852771759,0.0237210001796484,0.015467099845409393,0.006943199783563614,-0.024886900559067726,0.02567409910261631,0.02238910086452961,-0.027392499148845673,-0.034651800990104675,0.005774000193923712,-0.04237709939479828,0.01372930034995079,-0.05552909895777702,-0.06995339691638947,-0.11877290159463882,0.08517420291900635,0.10284879803657532,0.26137781143188477,-0.028523700311779976,0.018332399427890778,-0.07237180322408676,-0.15664030611515045,-0.062389299273490906,0.1487652063369751,-0.001908699981868267,-0.028961900621652603,-0.03370619937777519,-0.0868941992521286,0.0325751006603241,0.001599899958819151,-0.018262600526213646,0.061905600130558014,-0.03975139930844307,-0.08705410361289978,0.13005830347537994,0.07498510181903839,-0.25356820225715637,-0.04476790130138397,0.10512670129537582,-0.12191420048475266,0.07208269834518433,-0.07975389808416367,0.07508020102977753,0.048530399799346924,-0.028516599908471107,0.12238980084657669,-0.048734501004219055,-0.03488840162754059,0.04683630168437958,0.06458000093698502,-0.02872459962964058,0.09004669636487961,-0.1188552975654602,-0.05529249832034111,0.2105751931667328,-0.028506599366664886,-0.009648400358855724,0.030550099909305573,0.0321291983127594,-0.09153600037097931,0.17572720348834991,-0.047023601830005646,-0.021185899153351784,-0.009076599963009357,-0.02520729973912239,0.014457699842751026,0.027123600244522095,-0.0232830997556448,-0.05786630138754845,0.03845769912004471,0.03862849995493889,0.048928599804639816,-0.027897799387574196,0.010161600075662136,0.001003999961540103,-0.016121799126267433,-0.002799399895593524,-0.046150799840688705,0.026748299598693848,-0.04777529835700989,-0.022985899820923805,0.009128299541771412,0.04398370161652565,0.045975200831890106,-0.010432000271975994,-0.049869999289512634,-0.01789640076458454,0.03513890132308006,-0.026928700506687164,-0.04503599926829338,0.046333201229572296,0.019169999286532402,-0.0023084001149982214,0.024437200278043747,-0.006828499957919121,-0.05742089822888374,-0.058041900396347046,0.01863110065460205,-0.06162330135703087,-0.030771499499678612,-0.03672989830374718,-0.02858009934425354,-0.010448100045323372,0.004116099793463945,0.061593201011419296,-0.0602434016764164,-0.058444198220968246,-0.03285599872469902,-0.014686799608170986,-0.03899620100855827,0.017938800156116486,-0.011744599789381027,0.022838300094008446,0.011795099824666977,0.025239499285817146,0.049517299979925156,-0.02864599972963333,-0.03728500008583069,-0.025132600218057632,-0.03873160108923912,-0.042900200933218,0.04972609877586365,-0.0046316999942064285,0.044498998671770096,0.040678899735212326,0.00041760000749491155,0.016815999522805214,-0.04058950021862984,0.028982900083065033,-0.047420598566532135,0.02940719947218895,-0.012055899947881699,-0.049963001161813736,-0.040443599224090576,0.02693150006234646,-0.05586849898099899,-0.011460100300610065,0.023140499368309975,0.023378100246191025,0.013897799886763096,0.036456700414419174,-0.055295199155807495,-0.015041399747133255,-0.02949579991400242,0.024780800566077232,-0.0411032997071743,-0.018274899572134018,0.008624100126326084,-0.025108899921178818,-0.06145539879798889,0.030264800414443016,-0.03691459819674492,0.03040130063891411,-0.04323599860072136,-0.05874760076403618,0.02916960045695305,0.018592799082398415,0.0388902984559536,-0.014991999603807926,0.052877601236104965,-0.0017019000370055437,-0.005747999995946884,-0.03275270015001297,-0.0021905999165028334,-0.0067727998830378056,-0.01313059963285923,-0.036397699266672134,-0.049776799976825714,-0.056955598294734955,-0.00028470001416280866,0.026809899136424065,-0.04983479902148247,-0.0011166000040248036,-0.01750819943845272,0.016016200184822083,0.019172700121998787,-0.03348049893975258,0.002250799909234047,-0.03668700158596039,-0.0469059981405735,-0.008070499636232853,-0.05197669938206673,0.007639000192284584,-0.020862599834799767,0.009219599887728691,-0.004850800149142742,-0.06073309853672981,-0.016487300395965576,-0.03150419890880585,-0.01635509915649891,-0.004693599883466959,-0.011132500134408474,-0.02120240032672882,-0.04372530058026314,0.024133600294589996,0.013268699869513512,0.02832219935953617,-0.004398600198328495,-0.031690001487731934,-0.04565199837088585,-0.037440601736307144,-0.024784300476312637,-0.022328399121761322,-0.03779520094394684,0.01672470010817051,-0.03572729974985123,-0.04866189882159233,-0.006148799788206816,-0.0360696017742157,0.026024099439382553,-0.018606899306178093,-0.0209439005702734,-0.048320699483156204,0.013347400352358818,-0.05734819918870926,0.003283600090071559,0.034339699894189835,-0.039503201842308044,-0.04195920005440712,-0.044848501682281494,-0.05630610138177872,-0.023653699085116386,0.017281200736761093,0.007845300249755383,0.027856700122356415,0.029127899557352066,-0.013894700445234776,0.004321599844843149,-0.044218599796295166,-0.0025822001043707132,-0.0497530996799469,-0.030053799971938133,0.02506209909915924,0.036964599043130875,-0.048652999103069305,-0.053838398307561874,0.038562700152397156,0.009278600104153156,-0.0400955006480217,0.013689800165593624,-0.016733000054955482,0.018051600083708763,-0.027456700801849365,-0.05312659963965416,-0.015106099657714367,-0.010722599923610687,-0.007230500224977732,0.010704499669373035,0.015117400325834751,-0.04138460010290146,-0.008057200349867344,-0.04901840165257454,0.024744000285863876,0.030614100396633148,0.008054999634623528,0.02212660014629364,-0.023271799087524414,0.0018038999987766147,0.001616499968804419,-0.008725699968636036,-0.027798600494861603,-0.01774040050804615,-0.05945340171456337,-0.0511929988861084,-0.031836699694395065,-0.04027299955487251,0.03511499986052513,0.008545299991965294,-0.002407300053164363,-0.014244800433516502,0.010223899967968464,-0.005573499947786331,0.017847299575805664,0.00592749984934926,-0.00042810000013560057,0.04944109916687012,-0.014016499742865562,0.023600900545716286,-0.04785360023379326,0.025898700580000877,-0.0045288000255823135,0.046174898743629456,0.028360899537801743,-0.035982199013233185,-0.013405299745500088,0.018431400880217552,-0.013616899959743023,-0.024701399728655815,0.02604459971189499,-0.014719899743795395,-0.062497999519109726,0.042117100208997726,0.037151601165533066,-0.002758299931883812,0.02034910023212433,-0.025962699204683304,-0.026198899373412132,-0.03602389991283417,0.013698600232601166,0.031294699758291245,0.006002199836075306,0.033689700067043304,-0.03529980033636093,-0.04862159863114357,-0.03433540090918541,0.01995610073208809,0.012682300060987473,0.030471399426460266,-0.05002899840474129,0.03999429941177368,-0.039865799248218536,-0.03429260104894638,-0.022430799901485443,-0.047165099531412125,0.010369700379669666,0.04551300033926964,-0.0031202000100165606,0.0010584000265225768,0.004560499917715788,-0.040127500891685486,-0.05067009851336479,-0.06065569818019867,-0.05380380153656006,0.026944700628519058,-0.0214368999004364,0.019480999559164047,0.021066099405288696,-0.047441501170396805,-0.046277500689029694,0.01227479986846447,0.013963799923658371,0.03790520131587982,-0.017405299469828606,0.011730199679732323,0.026045599952340126,0.03256310150027275,-0.024265799671411514,-0.006339800078421831,-0.04655219987034798,0.010994600132107735,-0.043313100934028625,0.012581800110638142,0.013988099992275238,-0.0036585000343620777,-0.04221180081367493,-0.020477699115872383,-0.03170130029320717,-0.003565399907529354,0.025832800194621086,0.039288099855184555,0.019380200654268265,0.02121409960091114,0.004256300162523985,0.0192136000841856,-0.034610699862241745,0.03285279870033264,-0.0029134999494999647,-0.030640199780464172,-0.03669460117816925,0.024614999070763588,-0.0017241999739781022,-0.03727610036730766,0.020443100482225418,-0.027556700631976128,-0.005010900087654591,0.00763759994879365,-0.04804090037941933,-0.024879099801182747,0.0038018999621272087,-0.03691450133919716,-0.04240430146455765,0.017183899879455566,0.030226200819015503,-0.007943900302052498,0.0029114000499248505,-0.06170260161161423,-0.039962198585271835,-0.03521750122308731,-0.05021579936146736,-0.03947160020470619,0.03469119966030121,0.006843300070613623,-0.007316899951547384,-0.02189910039305687,0.010364199988543987,-0.04831710085272789,4.329999865149148e-05,-0.03615089878439903,-0.049519799649715424,0.030758699402213097,0.04027070105075836,0.04609600082039833,0.015214700251817703,-0.03439119830727577,0.009324800223112106,-0.039436399936676025,0.0025826001074165106,-0.04747780039906502,0.02906610071659088,0.00958659965544939,-0.039788100868463516,-0.045602601021528244,0.03559039905667305,-0.01544370036572218,0.013596000149846077,0.02306479960680008,-0.041099198162555695,-0.029266299679875374,-0.047388799488544464,0.0070882998406887054,-0.011441499926149845,0.03299180045723915,-0.04517329856753349,-0.006218300200998783,-0.016154199838638306,-0.00784939993172884,-0.04933369904756546,-0.003482100088149309,-0.04565240070223808,-0.05279200151562691,0.016759300604462624,-0.06133360043168068,-0.021112099289894104,-0.00246219988912344,-0.011873500421643257,-0.05861629918217659,0.014161299914121628,-0.04138709977269173,-0.0014179999707266688,0.005175699945539236,0.009406100027263165,0.031470298767089844,0.0348023995757103,-0.05179020017385483,0.03188810124993324,0.024450400844216347,-0.016414599493145943,0.014195200055837631,-0.05670290067791939,-0.04800960049033165,0.010090800002217293,0.026231499388813972,0.02255529910326004,-0.03252609819173813,-0.008486899547278881,0.03709540143609047,-0.047953300178050995,-0.020694300532341003,0.018461499363183975,0.024551499634981155,-0.026119399815797806,0.004120099823921919,0.022057700902223587,0.007710800040513277,-0.038462501019239426,0.002176899928599596,-0.028817400336265564,-0.020513400435447693,-0.020947299897670746,-0.006002400070428848,-0.01317480020225048,-0.057425498962402344,0.12811779975891113,-0.21546649932861328,0.0011174000101163983,0.0965581014752388,0.15934860706329346,-0.11572080105543137,-0.23488600552082062,0.09715600311756134,-0.11791080236434937,-0.05028479918837547,0.019828399643301964,-0.0655020996928215,0.045245200395584106,0.07838310301303864,0.052016500383615494,0.06976489722728729,-0.030533000826835632,0.047648899257183075,0.01581919938325882,0.03076389990746975,-0.023934200406074524,0.07705199718475342,0.1167152002453804,-0.027960799634456635,0.08441519737243652,0.0380294993519783,-0.08110789954662323,-0.12218540161848068,-0.00450150016695261,0.03065449930727482,0.005752100143581629,-0.008345999754965305,-0.05065760016441345,-0.005449799820780754,0.04014649987220764,0.02433519996702671,0.031313199549913406,-0.00430000014603138,0.05069530010223389,0.029026199132204056,-0.0037501000333577394,-0.01658320054411888,-0.0051126000471413136,-0.04407009854912758,0.03792570158839226,0.042247701436281204,0.01821970008313656,-0.021190499886870384,0.045065201818943024,0.052674800157547,-0.11052019894123077,-0.04189309850335121,0.017679600045084953,0.1058880016207695,-0.03196519985795021,0.025042299181222916,-0.006380800157785416,-0.0033491000067442656,0.042824700474739075,-0.054986998438835144,0.05145749822258949,0.07979980111122131,-0.007205599918961525,0.040960200130939484,-0.04963250085711479,0.10333289951086044,0.0025224999990314245,0.2667497992515564,-0.1274642050266266,0.009862200357019901,0.09961599856615067,0.0364593006670475,-0.0332150012254715,0.10654149949550629,-0.0326852984726429,0.10667490214109421,-0.12854979932308197,0.09779810160398483,0.012391099706292152,0.06023449823260307,0.0430166982114315,0.04158329963684082,-0.04579320177435875,0.08102460205554962,-0.03777080029249191,0.029614999890327454,0.10236659646034241,0.1709430068731308,-0.04476660117506981,0.12748469412326813,-0.010565799660980701,-0.044127099215984344,0.010506000369787216,-0.002319500083103776,-0.07772430032491684,-0.010545999743044376,0.01620420068502426,0.07163199782371521,-0.010200300253927708,-0.03538449853658676,0.05699409916996956,0.16306640207767487,-0.19332590699195862,-0.04374390095472336,0.05672059953212738,-0.16054649651050568,0.28124549984931946,-0.09036429971456528,0.0749811977148056,0.01619029976427555,-0.0612466000020504,-0.030097199603915215,0.07887519896030426,-0.01004169974476099,-0.01896749995648861,0.011235400103032589,0.05105140060186386,0.058883000165224075,0.09102919697761536,-0.06185479834675789,-0.03861309960484505,0.08323010057210922,-0.004893899895250797,0.13058309257030487,-0.15045370161533356,0.05232660099864006,-0.03280530124902725,0.07479819655418396,-0.041791900992393494,0.06727740168571472,-0.012404199689626694,0.2024545967578888,-0.1106811985373497,-0.07392760366201401,0.03936370089650154,0.045648399740457535,0.027122600004076958,0.049306198954582214,-0.09895460307598114,0.09702499955892563,-0.16116240620613098,0.08547569811344147,0.08164969831705093,0.06331930309534073,0.07564300298690796,-0.023062700405716896,-0.07554160058498383,0.04327550157904625,-0.14569850265979767,0.09629420191049576,0.0934498980641365,0.14368100464344025,0.028835199773311615,0.009436200372874737,-0.010812800377607346,-0.038703400641679764,0.02061839960515499,0.008185899816453457,-0.012099199928343296,-0.004647799767553806,-0.02465059980750084,-0.034880898892879486,-0.055350299924612045,0.05639990046620369,-0.01633339934051037,0.018945900723338127,0.10165739804506302,0.03619129955768585,0.07519909739494324,0.0726751983165741,0.002996899886056781,-0.063503198325634,-0.05034409835934639,-0.007567699998617172,0.06455539911985397,0.020998099818825722,-0.022535299882292747,0.010594899766147137,0.033382900059223175,0.0949971005320549,-0.07255949825048447,-0.020436899736523628,0.03146589919924736,-0.04676850140094757,0.004392600152641535,-0.05922979861497879,-0.024956300854682922,0.17649400234222412,-0.11762510240077972,0.24743230640888214,0.07577230036258698,0.020321600139141083,0.041574399918317795,0.026604000478982925,0.0035570000763982534,0.08079089969396591,-0.06999330222606659,-0.08643189817667007,0.002053000032901764,-0.09379670023918152,-0.0379474014043808,0.05825959891080856,-0.05786430090665817,0.11710429936647415,-0.03636150062084198,0.1205660030245781,0.030286800116300583,0.04730679839849472,0.010465900413691998,0.03252929821610451,0.09817349910736084,0.12361670285463333,-0.040198199450969696,-0.10631419718265533,-0.06361199915409088,-0.05153829976916313,-0.09583000093698502,0.028001800179481506,-0.04319719970226288,0.15194900333881378,-0.0600505992770195,0.11041399836540222,0.09855490177869797,-0.00037140000495128334,-0.04700839892029762,-0.008902999572455883,-0.03016730025410652,-0.005082500167191029,0.02459079958498478,-0.020808499306440353,-0.022777900099754333,0.004026699811220169,0.007534199859946966,-0.01815580017864704,0.028401300311088562,0.0426144003868103,0.09132120013237,0.03735969960689545,-0.04964200034737587,-0.015623800456523895,0.008929500356316566,-0.05573660135269165,-0.03607890009880066,0.02914319932460785,0.009773899801075459,-0.027451500296592712,0.04205099865794182,-0.03118019923567772,0.11545389890670776,0.0039670998230576515,-0.09911590069532394,-0.01825620047748089,0.003343600081279874,0.1021185964345932,0.016008000820875168,-0.02341189980506897,0.0038761000614613295,0.030664099380373955,0.009765000082552433,0.05011320114135742,0.010808300226926804,0.02691110037267208,0.0005382000235840678,0.0027805001009255648,-0.03249510005116463,-0.04380200058221817,0.0008435000199824572,-0.020438000559806824,0.039718300104141235,0.00031689999741502106,-0.015102500095963478,-0.0407819002866745,0.0707836002111435,0.0405878983438015,-0.04648960009217262,-0.048962999135255814,0.03867119923233986,0.043922100216150284,-0.11253190040588379,0.029675399884581566,0.004107099957764149,-0.08689519762992859,-0.03390520066022873,-0.053057000041007996,-0.008640799671411514,0.09716489911079407,-0.06589610129594803,-0.02312540076673031,0.008411100134253502,0.01523470040410757,-0.020615199580788612,0.09189730137586594,-0.0015426999889314175,0.04157729819417,0.007162199821323156,-0.08437280356884003,0.03210819885134697,0.03781900182366371,-0.07273329794406891,0.10951949656009674,0.11960549652576447,-0.0518806017935276,0.04406759887933731,-0.019878599792718887,-0.01689619943499565,0.04004630073904991,-0.011957500129938126,0.03023640066385269,-0.012686599977314472,-0.037235699594020844,-0.04441240057349205,0.0389384999871254,0.0014261000324040651,-0.013390200212597847,0.05033060163259506,0.006313399877399206,-0.008436200208961964,0.034287601709365845,-0.033522799611091614,0.09311140328645706,-0.14008420705795288,0.10769180208444595,0.11919579654932022,0.22361500561237335,-0.00758610013872385,-0.11013589799404144,0.057304900139570236,0.16607670485973358,-0.23332330584526062,0.1482800990343094,-0.05753500014543533,0.02175839990377426,0.031266700476408005,0.0425879992544651,0.04693929851055145,-0.009249200113117695,0.0037181000225245953,0.030494699254631996,-0.0016931999707594514,-0.07041949778795242,0.017309999093413353,0.1899103969335556,-0.2691774070262909,-0.04536550119519234,0.10238319635391235,-0.238121896982193,0.1436409056186676,-0.13074150681495667,0.07245039939880371,0.10654740035533905,-0.05544549971818924,0.23162369430065155,-0.025703400373458862,-0.07273609936237335,0.025354599580168724,-0.021456599235534668,0.07063309848308563,0.002913899952545762,-0.005557300057262182,0.04025540128350258,0.00801900029182434,-0.009094100445508957,-0.14412319660186768,-0.02109519951045513,0.13349999487400055,-0.0890318974852562,0.22534939646720886,-0.03152180090546608,-0.020824799314141273,-0.02628359943628311,0.028751900419592857,-0.00335419992916286,0.024972999468445778,0.022279899567365646,0.046829599887132645,-0.011078800074756145,0.018725700676441193,-0.05057140067219734,-0.03299710154533386,-0.04155160114169121,0.0395549014210701,-0.05354920029640198,0.043164998292922974,0.027996400371193886,0.07487250119447708,-0.01378250028938055,-0.0030257999897003174,-0.03179119899868965,0.08839140087366104,0.26707470417022705,-0.025418199598789215,0.041925299912691116,-0.31465479731559753,0.16395710408687592,0.18290959298610687,0.007214399985969067,0.10832089930772781,-0.03262719884514809,0.02965709939599037,-0.024995600804686546,-0.039415501058101654,0.004289200063794851,0.05346420034766197,0.06287910044193268,-0.04379799962043762,-0.07326459884643555,0.04120219871401787,0.03067060001194477,0.155635803937912,-0.011642400175333023,-0.029996100813150406,-0.028878899291157722,-0.018936999142169952,-0.11294669657945633,0.07935009896755219,0.04341980069875717,-0.03280720114707947,-0.013514299876987934,0.0003983000060543418,0.015212399885058403,0.019118599593639374,-0.01904579997062683,0.0034666000865399837,0.01150980032980442,0.04130589962005615,-0.04743169993162155,-0.014769800007343292,-0.026301700621843338,0.03068540059030056,0.03912879899144173,-0.04257899895310402,-0.12027999758720398,0.018370799720287323,0.076317198574543,-0.022849800065159798,-0.012780999764800072,0.016607999801635742,0.012256399728357792,0.03856850042939186,0.0869171991944313,-0.09740210324525833,-0.023678600788116455,0.04612480103969574,-0.026452800258994102,0.06997650116682053,0.010263299569487572,-0.006849000230431557,0.04007299989461899,0.008731899783015251,-0.02824769914150238,0.05018100142478943,0.33690181374549866,-0.00720540015026927,-0.01676030084490776,0.05187069997191429,-0.057534098625183105,0.1307636946439743,0.019725799560546875,-0.08232039958238602,-0.14581650495529175,-0.013298099860548973,0.018590200692415237,0.007653600070625544,-0.0391279011964798,0.013419999741017818,0.025718100368976593,0.035903699696063995,0.09537190198898315,0.02989879995584488,0.06540119647979736,0.0025227998849004507,0.04492909833788872,0.01877629943192005,0.009279699996113777,-0.02606930024921894,-0.07804270088672638,0.04791330173611641,-0.07287430018186569,-0.038807399570941925,-0.06995200365781784,0.07033620029687881,-0.005330299958586693,-0.048082299530506134,0.05957790091633797,-0.07315360009670258,0.08672499656677246,-0.038588400930166245,0.057665299624204636,0.005279399920254946,-0.13042530417442322,0.3681356906890869,0.018577400594949722,0.11416109651327133,0.040810998529195786,-0.02041889913380146,0.007238700054585934,0.005867599975317717,-0.08026350289583206,-0.004116599913686514,0.18423989415168762,0.05629339814186096,0.06046589836478233,0.02308960072696209,-0.06481669843196869,0.15512019395828247,0.070005401968956,-0.06326410174369812,0.06339029967784882,-0.006424900144338608,-0.05903889983892441,-0.017403699457645416,0.0008213000255636871,-0.018394000828266144,-0.041475098580121994,-0.021795600652694702,0.26626500487327576,-0.0699634999036789,-0.08591940253973007,0.005543699953705072,-0.08824390172958374,0.17746110260486603,-0.02820120006799698,-0.08130449801683426,